tree
version=v4
num_class=1
num_tree_per_iteration=1
label_index=0
max_feature_idx=3586
feature_names=sent_count sent_len_mean sent_len_std sent_len_q1 sent_len_median sent_len_q3 sent_len_max sent_word_count_mean sent_word_count_std sent_word_count_q1 sent_word_count_median sent_word_count_q3 sent_word_count_max sent_len_ge_20_count sent_len_ge_40_count sent_len_ge_60_count sent_len_ge_80_count paragraph_count paragraph_len_mean paragraph_len_std paragraph_len_q1 paragraph_len_median paragraph_len_q3 paragraph_len_min paragraph_len_max paragraph_word_count_mean paragraph_word_count_std paragraph_word_count_q1 paragraph_word_count_median paragraph_word_count_q3 paragraph_word_count_min paragraph_word_count_max word_len_count word_len_mean word_len_std word_len_q1 word_len_median word_len_q3 word_len_max word_len_ge_5_count word_len_ge_6_count word_len_ge_7_count word_len_ge_8_count word_len_ge_9_count word_len_ge_10_count word_len_ge_11_count word_len_ge_12_count new_tokenizer_tfidf_0 new_tokenizer_tfidf_1 new_tokenizer_tfidf_2 new_tokenizer_tfidf_3 new_tokenizer_tfidf_4 new_tokenizer_tfidf_5 new_tokenizer_tfidf_6 new_tokenizer_tfidf_7 new_tokenizer_tfidf_8 new_tokenizer_tfidf_9 new_tokenizer_tfidf_10 new_tokenizer_tfidf_11 new_tokenizer_tfidf_12 new_tokenizer_tfidf_13 new_tokenizer_tfidf_14 new_tokenizer_tfidf_15 new_tokenizer_tfidf_16 new_tokenizer_tfidf_17 new_tokenizer_tfidf_18 new_tokenizer_tfidf_19 new_tokenizer_tfidf_20 new_tokenizer_tfidf_21 new_tokenizer_tfidf_22 new_tokenizer_tfidf_23 new_tokenizer_tfidf_24 new_tokenizer_tfidf_25 new_tokenizer_tfidf_26 new_tokenizer_tfidf_27 new_tokenizer_tfidf_28 new_tokenizer_tfidf_29 new_tokenizer_tfidf_30 new_tokenizer_tfidf_31 new_tokenizer_tfidf_32 new_tokenizer_tfidf_33 new_tokenizer_tfidf_34 new_tokenizer_tfidf_35 new_tokenizer_tfidf_36 new_tokenizer_tfidf_37 new_tokenizer_tfidf_38 new_tokenizer_tfidf_39 new_tokenizer_tfidf_40 new_tokenizer_tfidf_41 new_tokenizer_tfidf_42 new_tokenizer_tfidf_43 new_tokenizer_tfidf_44 new_tokenizer_tfidf_45 new_tokenizer_tfidf_46 new_tokenizer_tfidf_47 new_tokenizer_tfidf_48 new_tokenizer_tfidf_49 new_tokenizer_tfidf_50 new_tokenizer_tfidf_51 new_tokenizer_tfidf_52 new_tokenizer_tfidf_53 new_tokenizer_tfidf_54 new_tokenizer_tfidf_55 new_tokenizer_tfidf_56 new_tokenizer_tfidf_57 new_tokenizer_tfidf_58 new_tokenizer_tfidf_59 new_tokenizer_tfidf_60 new_tokenizer_tfidf_61 new_tokenizer_tfidf_62 new_tokenizer_tfidf_63 new_tokenizer_tfidf_64 new_tokenizer_tfidf_65 new_tokenizer_tfidf_66 new_tokenizer_tfidf_67 new_tokenizer_tfidf_68 new_tokenizer_tfidf_69 new_tokenizer_tfidf_70 new_tokenizer_tfidf_71 new_tokenizer_tfidf_72 new_tokenizer_tfidf_73 new_tokenizer_tfidf_74 new_tokenizer_tfidf_75 new_tokenizer_tfidf_76 new_tokenizer_tfidf_77 new_tokenizer_tfidf_78 new_tokenizer_tfidf_79 new_tokenizer_tfidf_80 new_tokenizer_tfidf_81 new_tokenizer_tfidf_82 new_tokenizer_tfidf_83 new_tokenizer_tfidf_84 new_tokenizer_tfidf_85 new_tokenizer_tfidf_86 new_tokenizer_tfidf_87 new_tokenizer_tfidf_88 new_tokenizer_tfidf_89 new_tokenizer_tfidf_90 new_tokenizer_tfidf_91 new_tokenizer_tfidf_92 new_tokenizer_tfidf_93 new_tokenizer_tfidf_94 new_tokenizer_tfidf_95 new_tokenizer_tfidf_96 new_tokenizer_tfidf_97 new_tokenizer_tfidf_98 new_tokenizer_tfidf_99 tfidf_0 tfidf_1 tfidf_2 tfidf_3 tfidf_4 tfidf_5 tfidf_6 tfidf_7 tfidf_8 tfidf_9 tfidf_10 tfidf_11 tfidf_12 tfidf_13 tfidf_14 tfidf_15 tfidf_16 tfidf_17 tfidf_18 tfidf_19 tfidf_20 tfidf_21 tfidf_22 tfidf_23 tfidf_24 tfidf_25 tfidf_26 tfidf_27 tfidf_28 tfidf_29 tfidf_30 tfidf_31 tfidf_32 tfidf_33 tfidf_34 tfidf_35 tfidf_36 tfidf_37 tfidf_38 tfidf_39 tfidf_40 tfidf_41 tfidf_42 tfidf_43 tfidf_44 tfidf_45 tfidf_46 tfidf_47 tfidf_48 tfidf_49 tfidf_50 tfidf_51 tfidf_52 tfidf_53 tfidf_54 tfidf_55 tfidf_56 tfidf_57 tfidf_58 tfidf_59 tfidf_60 tfidf_61 tfidf_62 tfidf_63 tfidf_64 tfidf_65 tfidf_66 tfidf_67 tfidf_68 tfidf_69 tfidf_70 tfidf_71 tfidf_72 tfidf_73 tfidf_74 tfidf_75 tfidf_76 tfidf_77 tfidf_78 tfidf_79 tfidf_80 tfidf_81 tfidf_82 tfidf_83 tfidf_84 tfidf_85 tfidf_86 tfidf_87 tfidf_88 tfidf_89 tfidf_90 tfidf_91 tfidf_92 tfidf_93 tfidf_94 tfidf_95 tfidf_96 tfidf_97 tfidf_98 tfidf_99 count_0 count_1 count_2 count_3 count_4 count_5 count_6 count_7 count_8 count_9 count_10 count_11 count_12 count_13 count_14 count_15 count_16 count_17 count_18 count_19 count_20 count_21 count_22 count_23 count_24 count_25 count_26 count_27 count_28 count_29 count_30 count_31 count_32 count_33 count_34 count_35 count_36 count_37 count_38 count_39 count_40 count_41 count_42 count_43 count_44 count_45 count_46 count_47 count_48 count_49 count_50 count_51 count_52 count_53 count_54 count_55 count_56 count_57 count_58 count_59 count_60 count_61 count_62 count_63 count_64 count_65 count_66 count_67 count_68 count_69 count_70 count_71 count_72 count_73 count_74 count_75 count_76 count_77 count_78 count_79 count_80 count_81 count_82 count_83 count_84 count_85 count_86 count_87 count_88 count_89 count_90 count_91 count_92 count_93 count_94 count_95 count_96 count_97 count_98 count_99 count_100 count_101 count_102 count_103 count_104 count_105 count_106 count_107 count_108 count_109 count_110 count_111 count_112 count_113 count_114 count_115 count_116 count_117 count_118 count_119 count_120 count_121 count_122 count_123 count_124 count_125 count_126 count_127 count_128 count_129 count_130 count_131 count_132 count_133 count_134 count_135 count_136 count_137 count_138 count_139 count_140 count_141 count_142 count_143 count_144 count_145 count_146 count_147 count_148 count_149 count_150 count_151 count_152 count_153 count_154 count_155 count_156 count_157 count_158 count_159 count_160 count_161 count_162 count_163 count_164 count_165 count_166 count_167 count_168 count_169 count_170 count_171 count_172 count_173 count_174 count_175 count_176 count_177 count_178 count_179 count_180 count_181 count_182 count_183 count_184 count_185 count_186 count_187 count_188 count_189 count_190 count_191 count_192 count_193 count_194 count_195 count_196 count_197 count_198 count_199 count_200 count_201 count_202 count_203 count_204 count_205 count_206 count_207 count_208 count_209 count_210 count_211 count_212 count_213 count_214 count_215 count_216 count_217 count_218 count_219 count_220 count_221 count_222 count_223 count_224 count_225 count_226 count_227 count_228 count_229 count_230 count_231 count_232 count_233 count_234 count_235 count_236 count_237 count_238 count_239 count_240 count_241 count_242 count_243 count_244 count_245 count_246 count_247 count_248 count_249 count_250 count_251 count_252 count_253 count_254 count_255 count_256 count_257 count_258 count_259 count_260 count_261 count_262 count_263 count_264 count_265 count_266 count_267 count_268 count_269 count_270 count_271 count_272 count_273 count_274 count_275 count_276 count_277 count_278 count_279 count_280 count_281 count_282 count_283 count_284 count_285 count_286 count_287 count_288 count_289 count_290 count_291 count_292 count_293 count_294 count_295 count_296 count_297 count_298 count_299 count_300 count_301 count_302 count_303 count_304 count_305 count_306 count_307 count_308 count_309 count_310 count_311 count_312 count_313 count_314 count_315 count_316 count_317 count_318 count_319 count_320 count_321 count_322 count_323 count_324 count_325 count_326 count_327 count_328 count_329 count_330 count_331 count_332 count_333 count_334 count_335 count_336 count_337 count_338 count_339 count_340 count_341 count_342 count_343 count_344 count_345 count_346 count_347 count_348 count_349 count_350 count_351 count_352 count_353 count_354 count_355 count_356 count_357 count_358 count_359 count_360 count_361 count_362 count_363 count_364 count_365 count_366 count_367 count_368 count_369 count_370 count_371 count_372 count_373 count_374 count_375 count_376 count_377 count_378 count_379 count_380 count_381 count_382 count_383 count_384 count_385 count_386 count_387 count_388 count_389 count_390 count_391 count_392 count_393 count_394 count_395 count_396 count_397 count_398 count_399 count_400 count_401 count_402 count_403 count_404 count_405 count_406 count_407 count_408 count_409 count_410 count_411 count_412 count_413 count_414 count_415 count_416 count_417 count_418 count_419 count_420 count_421 count_422 count_423 count_424 count_425 count_426 count_427 count_428 count_429 count_430 count_431 count_432 count_433 count_434 count_435 count_436 count_437 count_438 count_439 count_440 count_441 count_442 count_443 count_444 count_445 count_446 count_447 count_448 count_449 count_450 count_451 count_452 count_453 count_454 count_455 count_456 count_457 count_458 count_459 count_460 count_461 count_462 count_463 count_464 count_465 count_466 count_467 count_468 count_469 count_470 count_471 count_472 count_473 count_474 count_475 count_476 count_477 count_478 count_479 count_480 count_481 count_482 count_483 count_484 count_485 count_486 count_487 count_488 count_489 count_490 count_491 count_492 count_493 count_494 count_495 count_496 count_497 count_498 count_499 count_500 count_501 count_502 count_503 count_504 count_505 count_506 count_507 count_508 count_509 count_510 count_511 count_512 count_513 count_514 count_515 count_516 count_517 count_518 count_519 count_520 count_521 count_522 count_523 count_524 count_525 count_526 count_527 count_528 count_529 count_530 count_531 count_532 count_533 count_534 count_535 count_536 count_537 count_538 count_539 count_540 count_541 count_542 count_543 count_544 count_545 count_546 count_547 count_548 count_549 count_550 count_551 count_552 count_553 count_554 count_555 count_556 count_557 count_558 count_559 count_560 count_561 count_562 count_563 count_564 count_565 count_566 count_567 count_568 count_569 count_570 count_571 count_572 count_573 count_574 count_575 count_576 count_577 count_578 count_579 count_580 count_581 count_582 count_583 count_584 count_585 count_586 count_587 count_588 count_589 count_590 count_591 count_592 count_593 count_594 count_595 count_596 count_597 count_598 count_599 count_600 count_601 count_602 count_603 count_604 count_605 count_606 count_607 count_608 count_609 count_610 count_611 count_612 count_613 count_614 count_615 count_616 count_617 count_618 count_619 count_620 count_621 count_622 count_623 count_624 count_625 count_626 count_627 count_628 count_629 count_630 count_631 count_632 count_633 count_634 count_635 count_636 count_637 count_638 count_639 count_640 count_641 count_642 count_643 count_644 count_645 count_646 count_647 count_648 count_649 count_650 count_651 count_652 count_653 count_654 count_655 count_656 count_657 count_658 count_659 count_660 count_661 count_662 count_663 count_664 count_665 count_666 count_667 count_668 count_669 count_670 count_671 count_672 count_673 count_674 count_675 count_676 count_677 count_678 count_679 count_680 count_681 count_682 count_683 count_684 count_685 count_686 count_687 count_688 count_689 count_690 count_691 count_692 count_693 count_694 count_695 count_696 count_697 count_698 count_699 count_700 count_701 count_702 count_703 count_704 count_705 count_706 count_707 count_708 count_709 count_710 count_711 count_712 count_713 count_714 count_715 count_716 count_717 count_718 count_719 count_720 count_721 count_722 count_723 count_724 count_725 count_726 count_727 count_728 count_729 count_730 count_731 count_732 count_733 count_734 count_735 count_736 count_737 count_738 count_739 count_740 count_741 count_742 count_743 count_744 count_745 count_746 count_747 count_748 count_749 count_750 count_751 count_752 count_753 count_754 count_755 count_756 count_757 count_758 count_759 count_760 count_761 count_762 count_763 count_764 count_765 count_766 count_767 count_768 count_769 count_770 count_771 count_772 count_773 count_774 count_775 count_776 count_777 count_778 count_779 count_780 count_781 count_782 count_783 count_784 count_785 count_786 count_787 count_788 count_789 count_790 count_791 count_792 count_793 count_794 count_795 count_796 count_797 count_798 count_799 count_800 count_801 count_802 count_803 count_804 count_805 count_806 count_807 count_808 count_809 count_810 count_811 count_812 count_813 count_814 count_815 count_816 count_817 count_818 count_819 count_820 count_821 count_822 count_823 count_824 count_825 count_826 count_827 count_828 count_829 count_830 count_831 count_832 count_833 count_834 count_835 count_836 count_837 count_838 count_839 count_840 count_841 count_842 count_843 count_844 count_845 count_846 count_847 count_848 count_849 count_850 count_851 count_852 count_853 count_854 count_855 count_856 count_857 count_858 count_859 count_860 count_861 count_862 count_863 count_864 count_865 count_866 count_867 count_868 count_869 count_870 count_871 count_872 count_873 count_874 count_875 count_876 count_877 count_878 count_879 count_880 count_881 count_882 count_883 count_884 count_885 count_886 count_887 count_888 count_889 count_890 count_891 count_892 count_893 count_894 count_895 count_896 count_897 count_898 count_899 count_900 count_901 count_902 count_903 count_904 count_905 count_906 count_907 count_908 count_909 count_910 count_911 count_912 count_913 count_914 count_915 count_916 count_917 count_918 count_919 count_920 count_921 count_922 count_923 count_924 count_925 count_926 count_927 count_928 count_929 count_930 count_931 count_932 count_933 count_934 count_935 count_936 count_937 count_938 count_939 count_940 count_941 count_942 count_943 count_944 count_945 count_946 count_947 count_948 count_949 count_950 count_951 count_952 count_953 count_954 count_955 count_956 count_957 count_958 count_959 count_960 count_961 count_962 count_963 count_964 count_965 count_966 count_967 count_968 count_969 count_970 count_971 count_972 count_973 count_974 count_975 count_976 count_977 count_978 count_979 count_980 count_981 count_982 count_983 count_984 count_985 count_986 count_987 count_988 count_989 count_990 count_991 count_992 count_993 count_994 count_995 count_996 count_997 count_998 count_999 count_1000 count_1001 count_1002 count_1003 count_1004 count_1005 count_1006 count_1007 count_1008 count_1009 count_1010 count_1011 count_1012 count_1013 count_1014 count_1015 count_1016 count_1017 count_1018 count_1019 count_1020 count_1021 count_1022 count_1023 count_1024 count_1025 count_1026 count_1027 count_1028 count_1029 count_1030 count_1031 count_1032 count_1033 count_1034 count_1035 count_1036 count_1037 count_1038 count_1039 count_1040 count_1041 count_1042 count_1043 count_1044 count_1045 count_1046 count_1047 count_1048 count_1049 count_1050 count_1051 count_1052 count_1053 count_1054 count_1055 count_1056 count_1057 count_1058 count_1059 count_1060 count_1061 count_1062 count_1063 count_1064 count_1065 count_1066 count_1067 count_1068 count_1069 count_1070 count_1071 count_1072 count_1073 count_1074 count_1075 count_1076 count_1077 count_1078 count_1079 count_1080 count_1081 count_1082 count_1083 count_1084 count_1085 count_1086 count_1087 count_1088 count_1089 count_1090 count_1091 count_1092 count_1093 count_1094 count_1095 count_1096 count_1097 count_1098 count_1099 count_1100 count_1101 count_1102 count_1103 count_1104 count_1105 count_1106 count_1107 count_1108 count_1109 count_1110 count_1111 count_1112 count_1113 count_1114 count_1115 count_1116 count_1117 count_1118 count_1119 count_1120 count_1121 count_1122 count_1123 count_1124 count_1125 count_1126 count_1127 count_1128 count_1129 count_1130 count_1131 count_1132 count_1133 count_1134 count_1135 count_1136 count_1137 count_1138 count_1139 count_1140 count_1141 count_1142 count_1143 count_1144 count_1145 count_1146 count_1147 count_1148 count_1149 count_1150 count_1151 count_1152 count_1153 count_1154 count_1155 count_1156 count_1157 count_1158 count_1159 count_1160 count_1161 count_1162 count_1163 count_1164 count_1165 count_1166 count_1167 count_1168 count_1169 count_1170 count_1171 count_1172 count_1173 count_1174 count_1175 count_1176 count_1177 count_1178 count_1179 count_1180 count_1181 count_1182 count_1183 count_1184 count_1185 count_1186 count_1187 count_1188 count_1189 count_1190 count_1191 count_1192 count_1193 count_1194 count_1195 count_1196 count_1197 count_1198 count_1199 count_1200 count_1201 count_1202 count_1203 count_1204 count_1205 count_1206 count_1207 count_1208 count_1209 count_1210 count_1211 count_1212 count_1213 count_1214 count_1215 count_1216 count_1217 count_1218 count_1219 count_1220 count_1221 count_1222 count_1223 count_1224 count_1225 count_1226 count_1227 count_1228 count_1229 count_1230 count_1231 count_1232 count_1233 count_1234 count_1235 count_1236 count_1237 count_1238 count_1239 count_1240 count_1241 count_1242 count_1243 count_1244 count_1245 count_1246 count_1247 count_1248 count_1249 count_1250 count_1251 count_1252 count_1253 count_1254 count_1255 count_1256 count_1257 count_1258 count_1259 count_1260 count_1261 count_1262 count_1263 count_1264 count_1265 count_1266 count_1267 count_1268 count_1269 count_1270 count_1271 count_1272 count_1273 count_1274 count_1275 count_1276 count_1277 count_1278 count_1279 count_1280 count_1281 count_1282 count_1283 count_1284 count_1285 count_1286 count_1287 count_1288 count_1289 count_1290 count_1291 count_1292 count_1293 count_1294 count_1295 count_1296 count_1297 count_1298 count_1299 count_1300 count_1301 count_1302 count_1303 count_1304 count_1305 count_1306 count_1307 count_1308 count_1309 count_1310 count_1311 count_1312 count_1313 count_1314 count_1315 count_1316 count_1317 count_1318 count_1319 count_1320 count_1321 count_1322 count_1323 count_1324 count_1325 count_1326 count_1327 count_1328 count_1329 count_1330 count_1331 count_1332 count_1333 count_1334 count_1335 count_1336 count_1337 count_1338 count_1339 count_1340 count_1341 count_1342 count_1343 count_1344 count_1345 count_1346 count_1347 count_1348 count_1349 count_1350 count_1351 count_1352 count_1353 count_1354 count_1355 count_1356 count_1357 count_1358 count_1359 count_1360 count_1361 count_1362 count_1363 count_1364 count_1365 count_1366 count_1367 count_1368 count_1369 count_1370 count_1371 count_1372 count_1373 count_1374 count_1375 count_1376 count_1377 count_1378 count_1379 count_1380 count_1381 count_1382 count_1383 count_1384 count_1385 count_1386 count_1387 count_1388 count_1389 count_1390 count_1391 count_1392 count_1393 count_1394 count_1395 count_1396 count_1397 count_1398 count_1399 count_1400 count_1401 count_1402 count_1403 count_1404 count_1405 count_1406 count_1407 count_1408 count_1409 count_1410 count_1411 count_1412 count_1413 count_1414 count_1415 count_1416 count_1417 count_1418 count_1419 count_1420 count_1421 count_1422 count_1423 count_1424 count_1425 count_1426 count_1427 count_1428 count_1429 count_1430 count_1431 count_1432 count_1433 count_1434 count_1435 count_1436 count_1437 count_1438 count_1439 count_1440 count_1441 count_1442 count_1443 count_1444 count_1445 count_1446 count_1447 count_1448 count_1449 count_1450 count_1451 count_1452 count_1453 count_1454 count_1455 count_1456 count_1457 count_1458 count_1459 count_1460 count_1461 count_1462 count_1463 count_1464 count_1465 count_1466 count_1467 count_1468 count_1469 count_1470 count_1471 count_1472 count_1473 count_1474 count_1475 count_1476 count_1477 count_1478 count_1479 count_1480 count_1481 count_1482 count_1483 count_1484 count_1485 count_1486 count_1487 count_1488 count_1489 count_1490 count_1491 count_1492 count_1493 count_1494 count_1495 count_1496 count_1497 count_1498 count_1499 count_1500 count_1501 count_1502 count_1503 count_1504 count_1505 count_1506 count_1507 count_1508 count_1509 count_1510 count_1511 count_1512 count_1513 count_1514 count_1515 count_1516 count_1517 count_1518 count_1519 count_1520 count_1521 count_1522 count_1523 count_1524 count_1525 count_1526 count_1527 count_1528 count_1529 count_1530 count_1531 count_1532 count_1533 count_1534 count_1535 count_1536 count_1537 count_1538 count_1539 count_1540 count_1541 count_1542 count_1543 count_1544 count_1545 count_1546 count_1547 count_1548 count_1549 count_1550 count_1551 count_1552 count_1553 count_1554 count_1555 count_1556 count_1557 count_1558 count_1559 count_1560 count_1561 count_1562 count_1563 count_1564 count_1565 count_1566 count_1567 count_1568 count_1569 count_1570 count_1571 count_1572 count_1573 count_1574 count_1575 count_1576 count_1577 count_1578 count_1579 count_1580 count_1581 count_1582 count_1583 count_1584 count_1585 count_1586 count_1587 count_1588 count_1589 count_1590 count_1591 count_1592 count_1593 count_1594 count_1595 count_1596 count_1597 count_1598 count_1599 count_1600 count_1601 count_1602 count_1603 count_1604 count_1605 count_1606 count_1607 count_1608 count_1609 count_1610 count_1611 count_1612 count_1613 count_1614 count_1615 count_1616 count_1617 count_1618 count_1619 count_1620 count_1621 count_1622 count_1623 count_1624 count_1625 count_1626 count_1627 count_1628 count_1629 count_1630 count_1631 count_1632 count_1633 count_1634 count_1635 count_1636 count_1637 count_1638 count_1639 count_1640 count_1641 count_1642 count_1643 count_1644 count_1645 count_1646 count_1647 count_1648 count_1649 count_1650 count_1651 count_1652 count_1653 count_1654 count_1655 count_1656 count_1657 count_1658 count_1659 count_1660 count_1661 count_1662 count_1663 count_1664 count_1665 count_1666 count_1667 count_1668 count_1669 count_1670 count_1671 count_1672 count_1673 count_1674 count_1675 count_1676 count_1677 count_1678 count_1679 count_1680 count_1681 count_1682 count_1683 count_1684 count_1685 count_1686 count_1687 count_1688 count_1689 count_1690 count_1691 count_1692 count_1693 count_1694 count_1695 count_1696 count_1697 count_1698 count_1699 count_1700 count_1701 count_1702 count_1703 count_1704 count_1705 count_1706 count_1707 count_1708 count_1709 count_1710 count_1711 count_1712 count_1713 count_1714 count_1715 count_1716 count_1717 count_1718 count_1719 count_1720 count_1721 count_1722 count_1723 count_1724 count_1725 count_1726 count_1727 count_1728 count_1729 count_1730 count_1731 count_1732 count_1733 count_1734 count_1735 count_1736 count_1737 count_1738 count_1739 count_1740 count_1741 count_1742 count_1743 count_1744 count_1745 count_1746 count_1747 count_1748 count_1749 count_1750 count_1751 count_1752 count_1753 count_1754 count_1755 count_1756 count_1757 count_1758 count_1759 count_1760 count_1761 count_1762 count_1763 count_1764 count_1765 count_1766 count_1767 count_1768 count_1769 count_1770 count_1771 count_1772 count_1773 count_1774 count_1775 count_1776 count_1777 count_1778 count_1779 count_1780 count_1781 count_1782 count_1783 count_1784 count_1785 count_1786 count_1787 count_1788 count_1789 count_1790 count_1791 count_1792 count_1793 count_1794 count_1795 count_1796 count_1797 count_1798 count_1799 count_1800 count_1801 count_1802 count_1803 count_1804 count_1805 count_1806 count_1807 count_1808 count_1809 count_1810 count_1811 count_1812 count_1813 count_1814 count_1815 count_1816 count_1817 count_1818 count_1819 count_1820 count_1821 count_1822 count_1823 count_1824 count_1825 count_1826 count_1827 count_1828 count_1829 count_1830 count_1831 count_1832 count_1833 count_1834 count_1835 count_1836 count_1837 count_1838 count_1839 count_1840 count_1841 count_1842 count_1843 count_1844 count_1845 count_1846 count_1847 count_1848 count_1849 count_1850 count_1851 count_1852 count_1853 count_1854 count_1855 count_1856 count_1857 count_1858 count_1859 count_1860 count_1861 count_1862 count_1863 count_1864 count_1865 count_1866 count_1867 count_1868 count_1869 count_1870 count_1871 count_1872 count_1873 count_1874 count_1875 count_1876 count_1877 count_1878 count_1879 count_1880 count_1881 count_1882 count_1883 count_1884 count_1885 count_1886 count_1887 count_1888 count_1889 count_1890 count_1891 count_1892 count_1893 count_1894 count_1895 count_1896 count_1897 count_1898 count_1899 count_1900 count_1901 count_1902 count_1903 count_1904 count_1905 count_1906 count_1907 count_1908 count_1909 count_1910 count_1911 count_1912 count_1913 count_1914 count_1915 count_1916 count_1917 count_1918 count_1919 count_1920 count_1921 count_1922 count_1923 count_1924 count_1925 count_1926 count_1927 count_1928 count_1929 count_1930 count_1931 count_1932 count_1933 count_1934 count_1935 count_1936 count_1937 count_1938 count_1939 count_1940 count_1941 count_1942 count_1943 count_1944 count_1945 count_1946 count_1947 count_1948 count_1949 count_1950 count_1951 count_1952 count_1953 count_1954 count_1955 count_1956 count_1957 count_1958 count_1959 count_1960 count_1961 count_1962 count_1963 count_1964 count_1965 count_1966 count_1967 count_1968 count_1969 count_1970 count_1971 count_1972 count_1973 count_1974 count_1975 count_1976 count_1977 count_1978 count_1979 count_1980 count_1981 count_1982 count_1983 count_1984 count_1985 count_1986 count_1987 count_1988 count_1989 count_1990 count_1991 count_1992 count_1993 count_1994 count_1995 count_1996 count_1997 count_1998 count_1999 count_2000 count_2001 count_2002 count_2003 count_2004 count_2005 count_2006 count_2007 count_2008 count_2009 count_2010 count_2011 count_2012 count_2013 count_2014 count_2015 count_2016 count_2017 count_2018 count_2019 count_2020 count_2021 count_2022 count_2023 count_2024 count_2025 count_2026 count_2027 count_2028 count_2029 count_2030 count_2031 count_2032 count_2033 count_2034 count_2035 count_2036 count_2037 count_2038 count_2039 count_2040 count_2041 count_2042 count_2043 count_2044 count_2045 count_2046 count_2047 count_2048 count_2049 count_2050 count_2051 count_2052 count_2053 count_2054 count_2055 count_2056 count_2057 count_2058 count_2059 count_2060 count_2061 count_2062 count_2063 count_2064 count_2065 count_2066 count_2067 count_2068 count_2069 count_2070 count_2071 count_2072 count_2073 count_2074 count_2075 count_2076 count_2077 count_2078 count_2079 count_2080 count_2081 count_2082 count_2083 count_2084 count_2085 count_2086 count_2087 count_2088 count_2089 count_2090 count_2091 count_2092 count_2093 count_2094 count_2095 count_2096 count_2097 count_2098 count_2099 count_2100 count_2101 count_2102 count_2103 count_2104 count_2105 count_2106 count_2107 count_2108 count_2109 count_2110 count_2111 count_2112 count_2113 count_2114 count_2115 count_2116 count_2117 count_2118 count_2119 count_2120 count_2121 count_2122 count_2123 count_2124 count_2125 count_2126 count_2127 count_2128 count_2129 count_2130 count_2131 count_2132 count_2133 count_2134 count_2135 count_2136 count_2137 count_2138 count_2139 count_2140 count_2141 count_2142 count_2143 count_2144 count_2145 count_2146 count_2147 count_2148 count_2149 count_2150 count_2151 count_2152 count_2153 count_2154 count_2155 count_2156 count_2157 count_2158 count_2159 count_2160 count_2161 count_2162 count_2163 count_2164 count_2165 count_2166 count_2167 count_2168 count_2169 count_2170 count_2171 count_2172 count_2173 count_2174 count_2175 count_2176 count_2177 count_2178 count_2179 count_2180 count_2181 count_2182 count_2183 count_2184 count_2185 count_2186 count_2187 count_2188 count_2189 count_2190 count_2191 count_2192 count_2193 count_2194 count_2195 count_2196 count_2197 count_2198 count_2199 count_2200 count_2201 count_2202 count_2203 count_2204 count_2205 count_2206 count_2207 count_2208 count_2209 count_2210 count_2211 count_2212 count_2213 count_2214 count_2215 count_2216 count_2217 count_2218 count_2219 count_2220 count_2221 count_2222 count_2223 count_2224 count_2225 count_2226 count_2227 count_2228 count_2229 count_2230 count_2231 count_2232 count_2233 count_2234 count_2235 count_2236 count_2237 count_2238 count_2239 count_2240 count_2241 count_2242 count_2243 count_2244 count_2245 count_2246 count_2247 count_2248 count_2249 count_2250 count_2251 count_2252 count_2253 count_2254 count_2255 count_2256 count_2257 count_2258 count_2259 count_2260 count_2261 count_2262 count_2263 count_2264 count_2265 count_2266 count_2267 count_2268 count_2269 count_2270 count_2271 count_2272 count_2273 count_2274 count_2275 count_2276 count_2277 count_2278 count_2279 count_2280 count_2281 count_2282 count_2283 count_2284 count_2285 count_2286 count_2287 count_2288 count_2289 count_2290 count_2291 count_2292 count_2293 count_2294 count_2295 count_2296 count_2297 count_2298 count_2299 count_2300 count_2301 count_2302 count_2303 count_2304 count_2305 count_2306 count_2307 count_2308 count_2309 count_2310 count_2311 count_2312 count_2313 count_2314 count_2315 count_2316 count_2317 count_2318 count_2319 count_2320 count_2321 count_2322 count_2323 count_2324 count_2325 count_2326 count_2327 count_2328 count_2329 count_2330 count_2331 count_2332 count_2333 count_2334 count_2335 count_2336 count_2337 count_2338 count_2339 count_2340 count_2341 count_2342 count_2343 count_2344 count_2345 count_2346 count_2347 count_2348 count_2349 count_2350 count_2351 count_2352 count_2353 count_2354 count_2355 count_2356 count_2357 count_2358 count_2359 count_2360 count_2361 count_2362 count_2363 count_2364 count_2365 count_2366 count_2367 count_2368 count_2369 count_2370 count_2371 count_2372 count_2373 count_2374 count_2375 count_2376 count_2377 count_2378 count_2379 count_2380 count_2381 count_2382 count_2383 count_2384 count_2385 count_2386 count_2387 count_2388 count_2389 count_2390 count_2391 count_2392 count_2393 count_2394 count_2395 count_2396 count_2397 count_2398 count_2399 count_2400 count_2401 count_2402 count_2403 count_2404 count_2405 count_2406 count_2407 count_2408 count_2409 count_2410 count_2411 count_2412 count_2413 count_2414 count_2415 count_2416 count_2417 count_2418 count_2419 count_2420 count_2421 count_2422 count_2423 count_2424 count_2425 count_2426 count_2427 count_2428 count_2429 count_2430 count_2431 count_2432 count_2433 count_2434 count_2435 count_2436 count_2437 count_2438 count_2439 count_2440 count_2441 count_2442 count_2443 count_2444 count_2445 count_2446 count_2447 count_2448 count_2449 count_2450 count_2451 count_2452 count_2453 count_2454 count_2455 count_2456 count_2457 count_2458 count_2459 count_2460 count_2461 count_2462 count_2463 count_2464 count_2465 count_2466 count_2467 count_2468 count_2469 count_2470 count_2471 count_2472 count_2473 count_2474 count_2475 count_2476 count_2477 count_2478 count_2479 count_2480 count_2481 count_2482 count_2483 count_2484 count_2485 count_2486 count_2487 count_2488 count_2489 count_2490 count_2491 count_2492 count_2493 count_2494 count_2495 count_2496 count_2497 count_2498 count_2499 count_2500 count_2501 count_2502 count_2503 count_2504 count_2505 count_2506 count_2507 count_2508 count_2509 count_2510 count_2511 count_2512 count_2513 count_2514 count_2515 count_2516 count_2517 count_2518 count_2519 count_2520 count_2521 count_2522 count_2523 count_2524 count_2525 count_2526 count_2527 count_2528 count_2529 count_2530 count_2531 count_2532 count_2533 count_2534 count_2535 count_2536 count_2537 count_2538 count_2539 count_2540 count_2541 count_2542 count_2543 count_2544 count_2545 count_2546 count_2547 count_2548 count_2549 count_2550 count_2551 count_2552 count_2553 count_2554 count_2555 count_2556 count_2557 count_2558 count_2559 count_2560 count_2561 count_2562 count_2563 count_2564 count_2565 count_2566 count_2567 count_2568 count_2569 count_2570 count_2571 count_2572 count_2573 count_2574 count_2575 count_2576 count_2577 count_2578 count_2579 count_2580 count_2581 count_2582 count_2583 count_2584 count_2585 count_2586 count_2587 count_2588 count_2589 count_2590 count_2591 count_2592 count_2593 count_2594 count_2595 count_2596 count_2597 count_2598 count_2599 count_2600 count_2601 count_2602 count_2603 count_2604 count_2605 count_2606 count_2607 count_2608 count_2609 count_2610 count_2611 count_2612 count_2613 count_2614 count_2615 count_2616 count_2617 count_2618 count_2619 count_2620 count_2621 count_2622 count_2623 count_2624 count_2625 count_2626 count_2627 count_2628 count_2629 count_2630 count_2631 count_2632 count_2633 count_2634 count_2635 count_2636 count_2637 count_2638 count_2639 count_2640 count_2641 count_2642 count_2643 count_2644 count_2645 count_2646 count_2647 count_2648 count_2649 count_2650 count_2651 count_2652 count_2653 count_2654 count_2655 count_2656 count_2657 count_2658 count_2659 count_2660 count_2661 count_2662 count_2663 count_2664 count_2665 count_2666 count_2667 count_2668 count_2669 count_2670 count_2671 count_2672 count_2673 count_2674 count_2675 count_2676 count_2677 count_2678 count_2679 count_2680 count_2681 count_2682 count_2683 count_2684 count_2685 count_2686 count_2687 count_2688 count_2689 count_2690 count_2691 count_2692 count_2693 count_2694 count_2695 count_2696 count_2697 count_2698 count_2699 count_2700 count_2701 count_2702 count_2703 count_2704 count_2705 count_2706 count_2707 count_2708 count_2709 count_2710 count_2711 count_2712 count_2713 count_2714 count_2715 count_2716 count_2717 count_2718 count_2719 count_2720 count_2721 count_2722 count_2723 count_2724 count_2725 count_2726 count_2727 count_2728 count_2729 count_2730 count_2731 count_2732 count_2733 count_2734 count_2735 count_2736 count_2737 count_2738 count_2739 count_2740 count_2741 count_2742 count_2743 count_2744 count_2745 count_2746 count_2747 count_2748 count_2749 count_2750 count_2751 count_2752 count_2753 count_2754 count_2755 count_2756 count_2757 count_2758 count_2759 count_2760 count_2761 count_2762 count_2763 count_2764 count_2765 count_2766 count_2767 count_2768 count_2769 count_2770 count_2771 count_2772 count_2773 count_2774 count_2775 count_2776 count_2777 count_2778 count_2779 count_2780 count_2781 count_2782 count_2783 count_2784 count_2785 count_2786 count_2787 count_2788 count_2789 count_2790 count_2791 count_2792 count_2793 count_2794 count_2795 count_2796 count_2797 count_2798 count_2799 count_2800 count_2801 count_2802 count_2803 count_2804 count_2805 count_2806 count_2807 count_2808 count_2809 count_2810 count_2811 count_2812 count_2813 count_2814 count_2815 count_2816 count_2817 count_2818 count_2819 count_2820 count_2821 count_2822 count_2823 count_2824 count_2825 count_2826 count_2827 count_2828 count_2829 count_2830 count_2831 count_2832 count_2833 count_2834 count_2835 count_2836 count_2837 count_2838 count_2839 count_2840 count_2841 count_2842 count_2843 count_2844 count_2845 count_2846 count_2847 count_2848 count_2849 count_2850 count_2851 count_2852 count_2853 count_2854 count_2855 count_2856 count_2857 count_2858 count_2859 count_2860 count_2861 count_2862 count_2863 count_2864 count_2865 count_2866 count_2867 count_2868 count_2869 count_2870 count_2871 count_2872 count_2873 count_2874 count_2875 count_2876 count_2877 count_2878 count_2879 count_2880 count_2881 count_2882 count_2883 count_2884 count_2885 count_2886 count_2887 count_2888 count_2889 count_2890 count_2891 count_2892 count_2893 count_2894 count_2895 count_2896 count_2897 count_2898 count_2899 count_2900 count_2901 count_2902 count_2903 count_2904 count_2905 count_2906 count_2907 count_2908 count_2909 count_2910 count_2911 count_2912 count_2913 count_2914 count_2915 count_2916 count_2917 count_2918 count_2919 count_2920 count_2921 count_2922 count_2923 count_2924 count_2925 count_2926 count_2927 count_2928 count_2929 count_2930 count_2931 count_2932 count_2933 count_2934 count_2935 count_2936 count_2937 count_2938 count_2939 count_2940 count_2941 count_2942 count_2943 count_2944 count_2945 count_2946 count_2947 count_2948 count_2949 count_2950 count_2951 count_2952 count_2953 count_2954 count_2955 count_2956 count_2957 count_2958 count_2959 count_2960 count_2961 count_2962 count_2963 count_2964 count_2965 count_2966 count_2967 count_2968 count_2969 count_2970 count_2971 count_2972 count_2973 count_2974 count_2975 count_2976 count_2977 count_2978 count_2979 count_2980 count_2981 count_2982 count_2983 count_2984 count_2985 count_2986 count_2987 count_2988 count_2989 count_2990 count_2991 count_2992 count_2993 count_2994 count_2995 count_2996 count_2997 count_2998 count_2999 count_3000 count_3001 count_3002 count_3003 count_3004 count_3005 count_3006 count_3007 count_3008 count_3009 count_3010 count_3011 count_3012 count_3013 count_3014 count_3015 count_3016 count_3017 count_3018 count_3019 count_3020 count_3021 count_3022 count_3023 count_3024 count_3025 count_3026 count_3027 count_3028 count_3029 count_3030 count_3031 count_3032 count_3033 count_3034 count_3035 count_3036 count_3037 count_3038 count_3039 count_3040 count_3041 count_3042 count_3043 count_3044 count_3045 count_3046 count_3047 count_3048 count_3049 count_3050 count_3051 count_3052 count_3053 count_3054 count_3055 count_3056 count_3057 count_3058 count_3059 count_3060 count_3061 count_3062 count_3063 count_3064 count_3065 count_3066 count_3067 count_3068 count_3069 count_3070 count_3071 count_3072 count_3073 count_3074 count_3075 count_3076 count_3077 count_3078 count_3079 count_3080 count_3081 count_3082 count_3083 count_3084 count_3085 count_3086 count_3087 count_3088 count_3089 count_3090 count_3091 count_3092 count_3093 count_3094 count_3095 count_3096 count_3097 count_3098 count_3099 count_3100 count_3101 count_3102 count_3103 count_3104 count_3105 count_3106 count_3107 count_3108 count_3109 count_3110 count_3111 count_3112 count_3113 count_3114 count_3115 count_3116 count_3117 count_3118 count_3119 count_3120 count_3121 count_3122 count_3123 count_3124 count_3125 count_3126 count_3127 count_3128 count_3129 count_3130 count_3131 count_3132 count_3133 count_3134 count_3135 count_3136 count_3137 count_3138 count_3139 count_3140 count_3141 count_3142 count_3143 count_3144 count_3145 count_3146 count_3147 count_3148 count_3149 count_3150 count_3151 count_3152 count_3153 count_3154 count_3155 count_3156 count_3157 count_3158 count_3159 count_3160 count_3161 count_3162 count_3163 count_3164 count_3165 count_3166 count_3167 count_3168 count_3169 count_3170 count_3171 count_3172 count_3173 count_3174 count_3175 count_3176 count_3177 count_3178 count_3179 count_3180 count_3181 count_3182 count_3183 count_3184 count_3185 count_3186 count_3187 count_3188 count_3189 count_3190 count_3191 count_3192 count_3193 count_3194 count_3195 count_3196 count_3197 count_3198 count_3199 count_3200 count_3201 count_3202 count_3203 count_3204 count_3205 count_3206 count_3207 count_3208 count_3209 count_3210 count_3211 count_3212 count_3213 count_3214 count_3215 count_3216 count_3217 count_3218 count_3219 count_3220 count_3221 count_3222 count_3223 count_3224 count_3225 count_3226 count_3227 count_3228 count_3229 count_3230 count_3231 count_3232 count_3233 count_3234 count_3235 count_3236 count_3237 count_3238 count_3239 count_3240 count_3241 count_3242 count_3243 count_3244 count_3245 count_3246 count_3247 count_3248 count_3249 count_3250 count_3251 count_3252 count_3253 count_3254 count_3255 count_3256 count_3257 count_3258 count_3259 count_3260 count_3261 count_3262 count_3263 count_3264 count_3265 count_3266 count_3267 count_3268 count_3269 count_3270 count_3271 count_3272 count_3273 count_3274 count_3275 count_3276 count_3277 count_3278 count_3279 count_3280 count_3281 count_3282 count_3283 count_3284 count_3285 count_3286 count_3287 count_3288 count_3289 count_3290 count_3291 count_3292 count_3293 count_3294 count_3295 count_3296 count_3297 count_3298 count_3299 count_3300 count_3301 count_3302 count_3303 count_3304 count_3305 count_3306 count_3307 count_3308 count_3309 count_3310 count_3311 count_3312 count_3313 count_3314 count_3315 count_3316 count_3317 count_3318 count_3319 count_3320 count_3321 count_3322 count_3323 count_3324 count_3325 count_3326 count_3327 count_3328 count_3329 count_3330 count_3331 count_3332 count_3333 count_3334 count_3335 count_3336 count_3337 count_3338 count_3339
feature_infos=[3:62] [33.387096774193552:670.66666666666663] [17.477078584879937:543.14761652181937] [3.75:467] [25:880] [43:979] [87:1078] [7.0483870967741939:127.33333333333333] [2.9110752265029114:101.64808573373791] [1.5:91.5] [6:172] [9:185.5] [18:199] [3:54] [3:51] [2:45] [1:36] [1:53] [44.433962264150942:3814.5] [0:6077.346005962675] [13:2727] [40:3814.5] [55:5617.25] [1:2727] [94:16367] [8.7735849056603765:3021] [0:5298.1554247456634] [2.5:1529] [8:3021] [11:4513] [1:527] [19:14128] [154:2379] [1.3791509037410676:5.6363636363636367] [1.194324588016779:7.3237748231050706] [1:4] [1:5] [1:7.5] [9:178] [44:448] [24:352] [13:270] [2:183] [2:107] [0:68] [0:42] [0:21] [0:0.28373252713677743] [0:0.28373252713677743] [0:0.36204263469327019] [0:0.35907066318138198] [0:0.37704302519744087] [0:0.42669598953434307] [0:0.58226488457994319] none [0:0.86058141068555294] [0:0.34012176704580244] [0:0.28987671082599786] none none [0:0.56229459745034216] [0:0.53615573668092631] [0:0.33811429527136783] [0:0.40990363041585559] [0:0.35963822526535222] [0:0.56620967851405524] [0:0.31181092547307149] [0:0.38450807362152656] none [0:0.43238630361790875] [0:0.60904174065134142] [0:0.3081985267058196] [0:0.42135302206662967] [0:0.45158476734315089] [0:0.38573655633844228] [0:0.54359055554336821] [0:0.39749252206757169] [0:0.37852941272322005] [0:0.31627086891409995] [0:0.35852597989072432] none [0:0.31170288724354289] [0:0.32314361897835031] [0:0.4378882594805702] [0:0.39936421580601694] [0:0.51100502715549878] [0:0.55809435191108758] none [0:0.39128222038122562] [0:0.40480561429753509] [0:0.45662259539311412] [0:0.45076428633164389] [0:0.44078737646400673] [0:0.3924833716358892] [0:0.29772394913047662] [0:0.33177448353907951] [0:0.38920607810078284] [0:0.35512946281059976] [0:0.37886228185557369] [0:0.37328661737405811] [0:0.43914312655469601] none [0:0.44124880135777789] [0:0.37855291010679221] [0:0.30304768059430193] [0:0.33591660477386515] [0:0.45552664922393005] [0:0.33404943449359653] [0:0.60787489876227629] [0:0.53021496579131078] [0:0.33751815892962139] [0:0.42302823500961195] [0:0.58343907423071006] [0:0.45540642506930534] [0:0.44270195995622508] [0:0.42750299554113741] [0:0.42035343185872093] none [0:0.39215136576716164] [0:0.3457504764806113] [0:0.57290494609010989] none [0:0.32005530173938485] [0:0.55408607638755514] [0:0.35413936891408609] [0:0.47941358364736869] [0:0.45094113537699182] [0:0.33519867853756363] [0:0.44211772524342763] [0:0.47120775575246882] [0:0.4305093874869137] [0:0.335416857340882] [0:0.41952616420052868] none [0:0.45985187279763623] [0:0.3770863628745455] [0:0.33529541078576142] [0:0.45283671255616081] [0:0.47075454961907404] [0:0.42873449126172625] [0:0.46955153889281759] [0:0.30855332438180533] [0:0.36572795545006331] [0:0.35279556155297281] [0:0.33671823175456317] [0:0.50708365339507377] [0:0.42655927868592375] [0:0.24515837638411822] [0:0.20891712961198994] [0:0.51816736268204489] [0:0.52572211142571068] [0:0.20580977810374462] [0:0.19924348552300383] [0:0.20241121621854485] [0:0.19176524586090915] [0:0.20305621130813045] [0:0.17286433213610908] [0:0.19644583822611039] [0:0.19258754111843909] [0:0.16461602650952856] [0:0.19711730469806538] [0:0.18217813008746078] [0:0.18757512191036749] [0:0.17278472082813498] [0:0.24393575427751502] [0:0.20165000804551925] [0:0.17698686446804809] [0:0.20094859249815436] [0:0.26358527310408536] [0:0.28874720860148512] [0:0.29949873255395326] [0:0.21473193008344896] [0:0.20577689566132529] [0:0.225861329549471] [0:0.19949064354766574] [0:0.19005551934733364] [0:0.18193067357827344] [0:0.22157708413037669] [0:0.20990649448176341] [0:0.17181762963372066] [0:0.18271031574009086] [0:0.2042123017518051] [0:0.19513505201852688] [0:0.16850224932765617] [0:0.18539893568306995] [0:0.29453021221442616] [0:0.17872299811461534] [0:0.21530239752648939] [0:0.1703986303042252] [0:0.18777090743790509] [0:0.18437190163996037] [0:0.2233971137624991] [0:0.17345937584166923] [0:0.17676559773998704] [0:0.19776211891947937] [0:0.19544628618892951] [0:0.18043224293388499] [0:0.18900414033005752] [0:0.16776783603674458] [0:0.17008522583390057] [0:0.1838983793416761] [0:0.17643779798085354] [0:0.17893024351745027] [0:0.192247125724928] [0:0.20435936353946726] [0:0.21259356301438687] [0:0.19892539311881141] [0:0.19999492277476258] [0:0.16834731478446155] [0:0.19239579595382733] [0:0.18772658521042909] [0:0.17349198059662554] [0:0.17689848261827953] [0:0.19066962413015359] [0:0.19420774717205705] [0:0.19095086978813358] [0:0.18908589399896061] [0:0.19500805422319326] [0:0.19781201114071995] [0:0.20009035537410536] [0:0.17904252081646241] [0:0.18263090648593724] [0:0.19261137151195068] [0:0.18807191499523168] [0:0.1965999113630226] [0:0.18840631688680587] [0:0.17757446499049059] [0:0.18664620226321021] [0:0.17610646127561891] [0:0.20096421562154923] [0:0.18013857337991762] [0:0.19354539641765936] [0:0.16879373920860435] [0:0.21128263876456405] [0:0.18414047414646256] [0:0.21350271043456046] [0:0.19203171415577719] [0:0.19840713044339797] [0:0.22201099722460441] [0:0.17013215797790773] [0:0.18989327985768323] [0:0.1941049560870346] [0:0.19590363164459471] [0:0.17381959475725683] [0:0.19775299479412689] [0:0.26061224156253343] [0:0.28874720860148512] [0:104] [0:52] [0:23] [0:11] [0:3] [0:2] [0:4] [0:2] [0:5] [0:2] [0:8] [0:3] [0:3] [0:2] [0:3] [0:2] [0:3] [0:14] [0:2] [0:5] [0:23] [0:11] [0:3] [0:10] [0:3] [0:2] [0:4] [0:4] [0:2] [0:5] [0:2] [0:2] [0:8] [0:6] [0:5] [0:3] [0:3] [0:2] [0:3] [0:2] [0:2] [0:3] [0:2] [0:2] [0:3] [0:2] [0:2] [0:14] [0:13] [0:2] [0:2] [0:5] [0:2] [0:12444] [0:10370] [0:2074] [0:24] [0:12] [0:3] [0:3] [0:6] [0:2] [0:5] [0:2] [0:5] [0:9] [0:10] [0:9] [0:12] [0:8] [0:8] [0:6] [0:7] [0:3] [0:5] [0:4] [0:6] [0:3] [0:2] [0:4] [0:3] [0:3] [0:2] [0:2] [0:3] [0:2] [0:48] [0:16] [0:10] [0:2] [0:5] [0:9] [0:10] [0:3] [0:6] [0:4] [0:2] [0:24] [0:9] [0:5] [0:6] [0:32] [0:19] [0:5] [0:21] [0:18] [0:3] [0:8] [0:7] [0:20] [0:19] [0:20] [0:7] [0:3] [0:5] [0:21] [0:15] [0:4] [0:5] [0:6] [0:4] [0:5] [0:21] [0:11] [0:19] [0:3] [0:5] [0:43] [0:35] [0:4] [0:7] [0:8] [0:10] [0:10] [0:2] [0:5] [0:22] [0:6] [0:22] [0:30] [0:17] [0:2] [0:4] [0:8] [0:12] [0:11] [0:3] [0:4] [0:16] [0:5] [0:4] [0:34] [0:6] [0:9] [0:8] [0:12] [0:7] [0:5] [0:21] [0:8] [0:2] [0:6] [0:5] [0:5] [0:13] [0:53] [0:3] [0:33] [0:13] [0:6] [0:5] [0:39] [0:39] [0:6] [0:24] [0:6] [0:10] [0:6] [0:6] [0:8] [0:12] [0:3] [0:12] [0:15] [0:11] [0:15] [0:8] [0:7] [0:4] [0:7] [0:21] [0:6] [0:5] [0:24] [0:11] [0:8] [0:23] [0:3] [0:6] [0:10] [0:9] [0:5] [0:9] [0:7] [0:12] [0:15] [0:45] [0:5] [0:20] [0:10] [0:21] [0:10] [0:8] [0:11] [0:11] [0:12] [0:25] [0:33] [0:5] [0:11] [0:6] [0:6] [0:4] [0:45] [0:19] [0:9] [0:3] [0:4] [0:3] [0:21] [0:25] [0:3] [0:17] [0:13] [0:7] [0:4] [0:20] [0:9] [0:14] [0:40] [0:10] [0:11] [0:9] [0:24] [0:8] [0:32] [0:16] [0:16] [0:11] [0:10] [0:12] [0:12] [0:6] [0:10] [0:14] [0:13] [0:13] [0:18] [0:13] [0:17] [0:12] [0:15] [0:18] [0:19] [0:11] [0:22] [0:11] [0:9] [0:21] [0:10] [0:9] [0:8] [0:16] [0:3] [0:21] [0:9] [0:7] [0:5] [0:4] [0:23] [0:6] [0:17] [0:6] [0:16] [0:5] [0:6] [0:13] [0:19] [0:7] [0:13] [0:18] [0:14] [0:23] [0:8] [0:9] [0:9] [0:4] [0:20] [0:10] [0:14] [0:5] [0:13] [0:13] [0:13] [0:14] [0:10] [0:3] [0:5] [0:15] [0:20] [0:11] [0:36] [0:26] [0:2] [0:13] [0:10] [0:22] [0:8] [0:11] [0:5] [0:4] [0:4] [0:29] [0:12] [0:7] [0:21] [0:43] [0:6] [0:22] [0:7] [0:41] [0:21] [0:37] [0:21] [0:26] [0:6] [0:40] [0:5] [0:39] [0:4] [0:2074] [0:2072] [0:18] [0:12] [0:50] [0:10] [0:10] [0:26] [0:9] [0:2] [0:4] [0:6] [0:3] [0:2] [0:3] [0:6] [0:6] [0:3] [0:3] [0:3] [0:6] [0:6] [0:3] [0:8] [0:2] [0:2] [0:6] [0:5] [0:8] [0:5] [0:5] [0:2] [0:6] [0:6] [0:26] [0:5] [0:4] [0:7] [0:7] [0:6] [0:6] [0:13] [0:13] [0:14] [0:13] [0:9] [0:9] [0:6] [0:7] [0:7] [0:2] [0:2] [0:64] [0:7] [0:5] [0:8] [0:18] [0:8] [0:4] [0:4] [0:3] [0:3] [0:2] [0:4] [0:10] [0:2] [0:5] [0:4] [0:3] [0:8] [0:4] [0:4] [0:7] [0:18] [0:2] [0:9] [0:5] [0:8] [0:7] [0:5] [0:5] [0:13] [0:5] [0:4] [0:4] [0:4] [0:4] [0:3] [0:39] [0:39] [0:2] [0:8] [0:7] [0:23] [0:7] [0:4] [0:3] [0:8] [0:4] [0:17] [0:21] [0:2] [0:8] [0:4] [0:4] [0:3] [0:5] [0:6] [0:18] [0:4] [0:9] [0:11] [0:3] [0:4] [0:5] [0:16] [0:9] [0:16] [0:12] [0:4] [0:6] [0:4] [0:24] [0:7] [0:3] [0:3] [0:2] [0:3] [0:11] [0:4] [0:5] [0:4] [0:4] [0:11] [0:4] [0:3] [0:2] [0:2] [0:6] [0:3] [0:8] [0:3] [0:8] [0:4] [0:2] [0:4] [0:4] [0:9] [0:3] [0:6] [0:2] [0:9] [0:5] [0:3] [0:3] [0:4] [0:3] [0:2] [0:8] [0:4] [0:3] [0:3] [0:3] [0:5] [0:4] [0:2] [0:2] [0:9] [0:2] [0:2] [0:2] [0:3] [0:3] [0:3] [0:6] [0:6] [0:6] [0:6] [0:12] [0:4] [0:4] [0:12] [0:5] [0:3] [0:4] [0:50] [0:16] [0:3] [0:3] [0:2] [0:2] [0:12] [0:12] [0:12] [0:4] [0:9] [0:3] [0:3] [0:6] [0:2] [0:5] [0:5] [0:10] [0:10] [0:14] [0:14] [0:4] [0:3] [0:3] [0:7] [0:4] [0:3] [0:2] [0:24] [0:9] [0:4] [0:2] [0:5] [0:6] [0:5] [0:4] [0:4] [0:35] [0:22] [0:3] [0:14] [0:5] [0:4] [0:5] [0:21] [0:12] [0:19] [0:3] [0:4] [0:10] [0:18] [0:4] [0:1] [0:4] [0:8] [0:3] [0:9] [0:3] [0:9] [0:20] [0:19] [0:18] [0:20] [0:20] [0:7] [0:7] [0:4] [0:4] [0:5] [0:5] [0:24] [0:16] [0:16] [0:3] [0:5] [0:2] [0:4] [0:4] [0:5] [0:8] [0:7] [0:4] [0:4] [0:5] [0:5] [0:4] [0:25] [0:11] [0:6] [0:19] [0:19] [0:5] [0:5] [0:5] [0:4] [0:45] [0:36] [0:5] [0:5] [0:7] [0:7] [0:4] [0:6] [0:7] [0:4] [0:6] [0:9] [0:10] [0:7] [0:7] [0:7] [0:3] [0:11] [0:9] [0:10] [0:9] [0:3] [0:2] [0:14] [0:2] [0:2] [0:5] [0:22] [0:4] [0:2] [0:7] [0:5] [0:3] [0:22] [0:22] [0:36] [0:17] [0:3] [0:17] [0:3] [0:4] [0:10] [0:5] [0:4] [0:4] [0:4] [0:13] [0:12] [0:12] [0:4] [0:5] [0:3] [0:5] [0:16] [0:5] [0:4] [0:4] [0:4] [0:2] [0:35] [0:9] [0:8] [0:9] [0:8] [0:8] [0:8] [0:18] [0:18] [0:9] [0:5] [0:4] [0:23] [0:9] [0:12] [0:12] [0:6] [0:9] [0:8] [0:2] [0:4] [0:3] [0:3] [0:6] [0:6] [0:4] [0:5] [0:5] [0:5] [0:3] [0:13] [0:13] [0:58] [0:4] [0:38] [0:6] [0:26] [0:12] [0:3] [0:13] [0:12] [0:6] [0:5] [0:5] [0:39] [0:5] [0:39] [0:39] [0:6] [0:25] [0:7] [0:10] [0:7] [0:4] [0:3] [0:9] [0:3] [0:7] [0:2] [0:3] [0:6] [0:6] [0:8] [0:6] [0:4] [0:15] [0:3] [0:15] [0:15] [0:3] [0:5] [0:7] [0:4] [0:6] [0:15] [0:7] [0:7] [0:5] [0:6] [0:4] [0:7] [0:6] [0:8] [0:3] [0:6] [0:6] [0:10] [0:6] [0:5] [0:8] [0:6] [0:6] [0:6] [0:2] [0:4] [0:15] [0:6] [0:11] [0:9] [0:41] [0:9] [0:24] [0:23] [0:13] [0:16] [0:14] [0:23] [0:16] [0:3] [0:3] [0:4] [0:6] [0:16] [0:6] [0:4] [0:6] [0:8] [0:5] [0:3] [0:10] [0:9] [0:8] [0:5] [0:28] [0:7] [0:22] [0:3] [0:8] [0:12] [0:4] [0:3] [0:3] [0:18] [0:7] [0:4] [0:5] [0:9] [0:9] [0:13] [0:5] [0:4] [0:4] [0:13] [0:5] [0:12] [0:6] [0:26] [0:4] [0:2] [0:8] [0:5] [0:20] [0:11] [0:19] [0:3] [0:8] [0:5] [0:12] [0:6] [0:6] [0:5] [0:12] [0:16] [0:12] [0:6] [0:5] [0:7] [0:5] [0:5] [0:6] [0:4] [0:4] [0:3] [0:3] [0:12] [0:7] [0:16] [0:12] [0:10] [0:2] [0:5] [0:5] [0:10] [0:11] [0:5] [0:17] [0:2] [0:15] [0:3] [0:14] [0:10] [0:2] [0:23] [0:4] [0:6] [0:6] [0:12] [0:4] [0:10] [0:8] [0:22] [0:9] [0:6] [0:5] [0:3] [0:3] [0:8] [0:7] [0:3] [0:30] [0:21] [0:4] [0:4] [0:23] [0:2] [0:2] [0:10] [0:4] [0:6] [0:5] [0:3] [0:12] [0:17] [0:10] [0:2] [0:4] [0:4] [0:3] [0:3] [0:27] [0:9] [0:14] [0:5] [0:5] [0:5] [0:8] [0:10] [0:24] [0:6] [0:13] [0:23] [0:23] [0:3] [0:18] [0:9] [0:4] [0:7] [0:2] [0:6] [0:7] [0:6] [0:4] [0:18] [0:12] [0:2] [0:5] [0:4] [0:4] [0:4] [0:7] [0:7] [0:5] [0:3] [0:5] [0:11] [0:6] [0:9] [0:5] [0:3] [0:9] [0:6] [0:19] [0:3] [0:3] [0:13] [0:6] [0:6] [0:3] [0:3] [0:7] [0:10] [0:8] [0:9] [0:5] [0:10] [0:13] [0:6] [0:5] [0:9] [0:6] [0:6] [0:6] [0:6] [0:15] [0:3] [0:12] [0:6] [0:6] [0:19] [0:9] [0:8] [0:16] [0:8] [0:11] [0:9] [0:3] [0:11] [0:7] [0:6] [0:6] [0:6] [0:3] [0:4] [0:4] [0:3] [0:13] [0:5] [0:5] [0:7] [0:10] [0:10] [0:15] [0:15] [0:9] [0:2] [0:3] [0:2] [0:4] [0:3] [0:3] [0:10] [0:5] [0:23] [0:7] [0:38] [0:5] [0:8] [0:13] [0:10] [0:4] [0:8] [0:5] [0:5] [0:20] [0:5] [0:5] [0:5] [0:4] [0:5] [0:2] [0:8] [0:6] [0:9] [0:41] [0:11] [0:11] [0:21] [0:6] [0:15] [0:12] [0:18] [0:14] [0:8] [0:12] [0:2] [0:4] [0:5] [0:6] [0:10] [0:16] [0:12] [0:3] [0:2] [0:5] [0:2] [0:23] [0:17] [0:11] [0:12] [0:4] [0:9] [0:20] [0:17] [0:14] [0:4] [0:6] [0:4] [0:20] [0:9] [0:8] [0:10] [0:5] [0:10] [0:3] [0:7] [0:6] [0:4] [0:55] [0:8] [0:2] [0:3] [0:6] [0:16] [0:3] [0:31] [0:8] [0:9] [0:14] [0:8] [0:6] [0:8] [0:4] [0:8] [0:6] [0:5] [0:4] [0:2] [0:5] [0:4] [0:5] [0:6] [0:13] [0:15] [0:12] [0:7] [0:6] [0:8] [0:7] [0:10] [0:11] [0:7] [0:3] [0:6] [0:9] [0:8] [0:11] [0:7] [0:6] [0:8] [0:6] [0:3] [0:8] [0:7] [0:7] [0:7] [0:11] [0:7] [0:6] [0:13] [0:2] [0:11] [0:13] [0:10] [0:6] [0:2] [0:3] [0:8] [0:4] [0:13] [0:6] [0:4] [0:2] [0:6] [0:3] [0:3] [0:5] [0:33] [0:7] [0:4] [0:12] [0:7] [0:7] [0:8] [0:11] [0:11] [0:6] [0:6] [0:26] [0:3] [0:4] [0:14] [0:5] [0:10] [0:2] [0:13] [0:3] [0:5] [0:10] [0:9] [0:4] [0:5] [0:5] [0:3] [0:4] [0:7] [0:6] [0:7] [0:25] [0:11] [0:3] [0:8] [0:4] [0:11] [0:3] [0:5] [0:33] [0:3] [0:6] [0:33] [0:4] [0:11] [0:11] [0:2] [0:3] [0:12] [0:4] [0:9] [0:5] [0:4] [0:9] [0:8] [0:5] [0:16] [0:9] [0:7] [0:6] [0:3] [0:4] [0:4] [0:10] [0:5] [0:5] [0:6] [0:18] [0:14] [0:2] [0:4] [0:5] [0:3] [0:11] [0:4] [0:7] [0:6] [0:14] [0:11] [0:21] [0:23] [0:38] [0:21] [0:18] [0:14] [0:3] [0:9] [0:11] [0:12] [0:13] [0:22] [0:3] [0:12] [0:14] [0:13] [0:21] [0:10] [0:6] [0:6] [0:6] [0:5] [0:14] [0:14] [0:6] [0:14] [0:6] [0:13] [0:6] [0:3] [0:3] [0:11] [0:4] [0:18] [0:9] [0:8] [0:6] [0:12] [0:3] [0:7] [0:17] [0:14] [0:13] [0:3] [0:4] [0:2] [0:13] [0:4] [0:15] [0:8] [0:4] [0:10] [0:5] [0:50] [0:7] [0:5] [0:5] [0:5] [0:6] [0:5] [0:5] [0:9] [0:8] [0:11] [0:5] [0:3] [0:13] [0:6] [0:12] [0:13] [0:5] [0:3] [0:8] [0:16] [0:8] [0:6] [0:8] [0:6] [0:5] [0:6] [0:24] [0:6] [0:20] [0:7] [0:3] [0:3] [0:11] [0:11] [0:20] [0:4] [0:8] [0:16] [0:3] [0:3] [0:2] [0:8] [0:3] [0:4] [0:4] [0:48] [0:10] [0:10] [0:14] [0:6] [0:21] [0:8] [0:3] [0:6] [0:6] [0:36] [0:16] [0:4] [0:4] [0:2] [0:6] [0:12] [0:20] [0:6] [0:7] [0:23] [0:4] [0:2] [0:3] [0:5] [0:10] [0:9] [0:8] [0:8] [0:7] [0:5] [0:4] [0:4] [0:11] [0:42] [0:39] [0:9] [0:15] [0:8] [0:15] [0:6] [0:15] [0:10] [0:4] [0:4] [0:4] [0:9] [0:4] [0:6] [0:6] [0:6] [0:4] [0:6] [0:8] [0:8] [0:22] [0:3] [0:5] [0:10] [0:21] [0:6] [0:7] [0:6] [0:3] [0:22] [0:10] [0:6] [0:11] [0:8] [0:8] [0:9] [0:3] [0:12] [0:21] [0:4] [0:7] [0:6] [0:24] [0:12] [0:2] [0:14] [0:3] [0:3] [0:4] [0:3] [0:7] [0:9] [0:4] [0:7] [0:11] [0:2] [0:8] [0:3] [0:28] [0:18] [0:10] [0:11] [0:9] [0:3] [0:25] [0:8] [0:4] [0:7] [0:21] [0:8] [0:31] [0:30] [0:3] [0:3] [0:4] [0:2] [0:4] [0:4] [0:13] [0:9] [0:4] [0:13] [0:11] [0:6] [0:2] [0:4] [0:3] [0:4] [0:6] [0:4] [0:4] [0:4] [0:5] [0:3] [0:5] [0:18] [0:4] [0:5] [0:5] [0:7] [0:3] [0:3] [0:3] [0:2] [0:17] [0:17] [0:13] [0:4] [0:4] [0:3] [0:4] [0:6] [0:4] [0:19] [0:7] [0:4] [0:4] [0:5] [0:9] [0:13] [0:3] [0:8] [0:7] [0:6] [0:8] [0:5] [0:10] [0:6] [0:8] [0:7] [0:12] [0:7] [0:3] [0:6] [0:6] [0:4] [0:4] [0:3] [0:5] [0:3] [0:4] [0:4] [0:6] [0:23] [0:5] [0:11] [0:2] [0:6] [0:4] [0:7] [0:8] [0:5] [0:4] [0:8] [0:15] [0:6] [0:7] [0:8] [0:4] [0:7] [0:8] [0:10] [0:10] [0:8] [0:12] [0:9] [0:11] [0:7] [0:10] [0:5] [0:4] [0:7] [0:3] [0:4] [0:6] [0:3] [0:4] [0:2] [0:6] [0:5] [0:3] [0:10] [0:25] [0:3] [0:7] [0:5] [0:5] [0:3] [0:3] [0:8] [0:8] [0:8] [0:4] [0:7] [0:10] [0:7] [0:5] [0:2] [0:10] [0:6] [0:39] [0:23] [0:4] [0:7] [0:5] [0:4] [0:11] [0:10] [0:11] [0:4] [0:3] [0:14] [0:9] [0:3] [0:12] [0:10] [0:5] [0:9] [0:9] [0:9] [0:9] [0:4] [0:2] [0:9] [0:24] [0:7] [0:2] [0:2] [0:20] [0:4] [0:9] [0:9] [0:15] [0:14] [0:8] [0:4] [0:3] [0:8] [0:7] [0:4] [0:9] [0:5] [0:5] [0:6] [0:3] [0:15] [0:15] [0:8] [0:3] [0:3] [0:3] [0:4] [0:5] [0:3] [0:5] [0:3] [0:3] [0:3] [0:6] [0:3] [0:2] [0:5] [0:10] [0:4] [0:3] [0:6] [0:6] [0:8] [0:2] [0:5] [0:14] [0:8] [0:13] [0:9] [0:7] [0:9] [0:18] [0:9] [0:4] [0:6] [0:17] [0:22] [0:13] [0:14] [0:12] [0:7] [0:22] [0:18] [0:4] [0:7] [0:4] [0:8] [0:5] [0:21] [0:6] [0:3] [0:22] [0:4] [0:3] [0:3] [0:15] [0:15] [0:9] [0:10] [0:4] [0:8] [0:4] [0:12] [0:4] [0:23] [0:5] [0:10] [0:14] [0:14] [0:6] [0:5] [0:6] [0:4] [0:3] [0:12] [0:8] [0:3] [0:6] [0:11] [0:3] [0:11] [0:6] [0:10] [0:10] [0:10] [0:3] [0:3] [0:4] [0:20] [0:5] [0:6] [0:17] [0:5] [0:2] [0:7] [0:4] [0:7] [0:30] [0:9] [0:11] [0:9] [0:7] [0:5] [0:13] [0:11] [0:5] [0:6] [0:11] [0:2] [0:38] [0:8] [0:11] [0:4] [0:21] [0:3] [0:5] [0:10] [0:29] [0:6] [0:6] [0:21] [0:7] [0:12] [0:8] [0:10] [0:3] [0:26] [0:12] [0:8] [0:7] [0:7] [0:10] [0:12] [0:5] [0:5] [0:3] [0:12] [0:4] [0:6] [0:17] [0:15] [0:5] [0:23] [0:4] [0:8] [0:6] [0:8] [0:6] [0:20] [0:3] [0:3] [0:24] [0:9] [0:10] [0:11] [0:13] [0:11] [0:3] [0:3] [0:5] [0:6] [0:6] [0:10] [0:7] [0:7] [0:12] [0:5] [0:8] [0:12] [0:4] [0:5] [0:33] [0:33] [0:5] [0:5] [0:3] [0:14] [0:5] [0:4] [0:19] [0:17] [0:2] [0:7] [0:9] [0:5] [0:4] [0:2] [0:6] [0:9] [0:6] [0:6] [0:7] [0:8] [0:5] [0:5] [0:12] [0:14] [0:22] [0:8] [0:4] [0:6] [0:4] [0:8] [0:12] [0:13] [0:8] [0:4] [0:3] [0:12] [0:46] [0:5] [0:40] [0:12] [0:4] [0:3] [0:4] [0:8] [0:8] [0:14] [0:6] [0:6] [0:13] [0:7] [0:9] [0:4] [0:4] [0:13] [0:13] [0:17] [0:8] [0:2] [0:3] [0:3] [0:5] [0:4] [0:9] [0:2] [0:12] [0:3] [0:2] [0:3] [0:3] [0:3] [0:3] [0:3] [0:24] [0:3] [0:6] [0:13] [0:3] [0:6] [0:8] [0:5] [0:2] [0:17] [0:17] [0:4] [0:10] [0:12] [0:12] [0:9] [0:6] [0:2] [0:5] [0:2] [0:9] [0:19] [0:6] [0:12] [0:20] [0:3] [0:11] [0:5] [0:3] [0:5] [0:6] [0:2] [0:8] [0:4] [0:5] [0:6] [0:4] [0:3] [0:5] [0:9] [0:3] [0:11] [0:4] [0:3] [0:4] [0:4] [0:5] [0:4] [0:5] [0:38] [0:10] [0:10] [0:3] [0:19] [0:14] [0:17] [0:8] [0:6] [0:5] [0:4] [0:5] [0:28] [0:3] [0:6] [0:25] [0:5] [0:4] [0:11] [0:49] [0:6] [0:5] [0:21] [0:8] [0:8] [0:8] [0:21] [0:8] [0:5] [0:2] [0:13] [0:13] [0:3] [0:5] [0:6] [0:6] [0:22] [0:8] [0:4] [0:13] [0:10] [0:11] [0:3] [0:6] [0:5] [0:9] [0:3] [0:11] [0:5] [0:4] [0:5] [0:24] [0:3] [0:3] [0:22] [0:4] [0:6] [0:3] [0:8] [0:14] [0:3] [0:3] [0:22] [0:3] [0:4] [0:3] [0:15] [0:6] [0:8] [0:6] [0:14] [0:10] [0:10] [0:3] [0:4] [0:7] [0:21] [0:15] [0:4] [0:4] [0:5] [0:7] [0:5] [0:5] [0:13] [0:10] [0:3] [0:4] [0:3] [0:9] [0:10] [0:4] [0:4] [0:6] [0:4] [0:9] [0:5] [0:3] [0:6] [0:7] [0:9] [0:6] [0:6] [0:5] [0:5] [0:27] [0:18] [0:5] [0:3] [0:22] [0:5] [0:5] [0:9] [0:3] [0:3] [0:5] [0:3] [0:2] [0:6] [0:3] [0:4] [0:2] [0:3] [0:9] [0:4] [0:4] [0:4] [0:6] [0:4] [0:6] [0:3] [0:5] [0:16] [0:6] [0:4] [0:4] [0:10] [0:10] [0:16] [0:16] [0:3] [0:14] [0:11] [0:5] [0:9] [0:9] [0:6] [0:15] [0:4] [0:4] [0:4] [0:5] [0:3] [0:3] [0:10] [0:8] [0:12] [0:12] [0:9] [0:3] [0:18] [0:2] [0:7] [0:9] [0:5] [0:12] [0:13] [0:11] [0:4] [0:5] [0:10] [0:35] [0:7] [0:6] [0:11] [0:12] [0:11] [0:20] [0:7] [0:7] [0:19] [0:5] [0:6] [0:10] [0:4] [0:9] [0:4] [0:14] [0:13] [0:9] [0:4] [0:6] [0:12] [0:9] [0:4] [0:10] [0:9] [0:9] [0:8] [0:6] [0:3] [0:4] [0:8] [0:7] [0:2] [0:5] [0:14] [0:8] [0:3] [0:20] [0:10] [0:8] [0:7] [0:8] [0:8] [0:3] [0:9] [0:12] [0:3] [0:3] [0:7] [0:7] [0:5] [0:9] [0:10] [0:4] [0:6] [0:4] [0:5] [0:9] [0:8] [0:4] [0:14] [0:3] [0:13] [0:9] [0:9] [0:3] [0:8] [0:8] [0:6] [0:2] [0:19] [0:5] [0:18] [0:4] [0:3] [0:9] [0:14] [0:12] [0:3] [0:4] [0:3] [0:5] [0:4] [0:2] [0:5] [0:2] [0:12] [0:11] [0:11] [0:3] [0:1] [0:4] [0:15] [0:4] [0:4] [0:5] [0:4] [0:5] [0:11] [0:8] [0:5] [0:6] [0:7] [0:16] [0:7] [0:11] [0:9] [0:9] [0:10] [0:10] [0:7] [0:7] [0:3] [0:8] [0:8] [0:14] [0:4] [0:4] [0:4] [0:8] [0:7] [0:3] [0:7] [0:18] [0:4] [0:10] [0:4] [0:5] [0:4] [0:10] [0:7] [0:5] [0:2] [0:15] [0:6] [0:7] [0:7] [0:14] [0:14] [0:5] [0:2] [0:7] [0:6] [0:7] [0:7] [0:7] [0:4] [0:4] [0:5] [0:10] [0:15] [0:6] [0:3] [0:4] [0:21] [0:4] [0:3] [0:14] [0:28] [0:19] [0:5] [0:6] [0:6] [0:6] [0:11] [0:9] [0:6] [0:6] [0:25] [0:4] [0:8] [0:7] [0:9] [0:4] [0:13] [0:3] [0:5] [0:7] [0:20] [0:6] [0:3] [0:40] [0:3] [0:6] [0:9] [0:39] [0:9] [0:5] [0:9] [0:17] [0:11] [0:2] [0:9] [0:3] [0:10] [0:7] [0:12] [0:9] [0:8] [0:7] [0:10] [0:6] [0:9] [0:8] [0:10] [0:4] [0:10] [0:6] [0:8] [0:10] [0:12] [0:6] [0:5] [0:14] [0:14] [0:4] [0:7] [0:8] [0:4] [0:5] [0:5] [0:6] [0:2] [0:4] [0:9] [0:7] [0:5] [0:9] [0:13] [0:5] [0:6] [0:2] [0:6] [0:8] [0:4] [0:14] [0:5] [0:8] [0:8] [0:14] [0:4] [0:14] [0:9] [0:7] [0:4] [0:13] [0:4] [0:8] [0:9] [0:9] [0:6] [0:8] [0:16] [0:4] [0:9] [0:9] [0:4] [0:13] [0:15] [0:20] [0:6] [0:3] [0:20] [0:9] [0:7] [0:3] [0:4] [0:6] [0:27] [0:6] [0:2] [0:8] [0:7] [0:4] [0:7] [0:21] [0:15] [0:8] [0:7] [0:4] [0:16] [0:4] [0:13] [0:6] [0:18] [0:4] [0:10] [0:6] [0:14] [0:10] [0:5] [0:6] [0:7] [0:10] [0:13] [0:20] [0:7] [0:7] [0:6] [0:6] [0:6] [0:6] [0:24] [0:8] [0:4] [0:19] [0:4] [0:2] [0:10] [0:9] [0:9] [0:12] [0:15] [0:3] [0:10] [0:25] [0:4] [0:7] [0:6] [0:15] [0:3] [0:5] [0:4] [0:13] [0:3] [0:3] [0:25] [0:3] [0:7] [0:15] [0:3] [0:13] [0:9] [0:7] [0:20] [0:3] [0:8] [0:16] [0:25] [0:7] [0:20] [0:3] [0:11] [0:8] [0:7] [0:7] [0:6] [0:20] [0:4] [0:4] [0:37] [0:11] [0:20] [0:7] [0:2] [0:5] [0:31] [0:9] [0:3] [0:3] [0:3] [0:7] [0:28] [0:11] [0:4] [0:22] [0:8] [0:16] [0:14] [0:12] [0:8] [0:29] [0:21] [0:2] [0:3] [0:3] [0:11] [0:8] [0:6] [0:4] [0:12] [0:5] [0:6] [0:5] [0:11] [0:8] [0:7] [0:19] [0:4] [0:2] [0:3] [0:2] [0:3] [0:4] [0:4] [0:4] [0:4] [0:6] [0:10] [0:9] [0:3] [0:7] [0:2] [0:2] [0:3] [0:3] [0:15] [0:9] [0:6] [0:4] [0:13] [0:10] [0:5] [0:6] [0:5] [0:4] [0:6] [0:8] [0:4] [0:10] [0:15] [0:11] [0:4] [0:4] [0:4] [0:17] [0:10] [0:6] [0:7] [0:17] [0:13] [0:3] [0:5] [0:6] [0:37] [0:17] [0:20] [0:6] [0:14] [0:2] [0:3] [0:3] [0:3] [0:28] [0:5] [0:8] [0:4] [0:13] [0:15] [0:8] [0:5] [0:5] [0:15] [0:7] [0:5] [0:3] [0:15] [0:3] [0:9] [0:28] [0:26] [0:5] [0:13] [0:10] [0:10] [0:6] [0:3] [0:4] [0:14] [0:5] [0:13] [0:8] [0:14] [0:9] [0:8] [0:10] [0:10] [0:4] [0:9] [0:6] [0:4] [0:10] [0:7] [0:11] [0:7] [0:11] [0:13] [0:7] [0:6] [0:14] [0:3] [0:5] [0:7] [0:8] [0:6] [0:8] [0:9] [0:5] [0:12] [0:17] [0:17] [0:15] [0:10] [0:5] [0:6] [0:6] [0:7] [0:7] [0:6] [0:10] [0:5] [0:9] [0:4] [0:4] [0:40] [0:2] [0:7] [0:4] [0:6] [0:13] [0:4] [0:4] [0:25] [0:13] [0:9] [0:14] [0:4] [0:8] [0:9] [0:6] [0:2] [0:4] [0:14] [0:13] [0:10] [0:11] [0:8] [0:3] [0:5] [0:3] [0:4] [0:5] [0:14] [0:9] [0:11] [0:10] [0:7] [0:5] [0:7] [0:4] [0:10] [0:8] [0:6] [0:5] [0:24] [0:5] [0:5] [0:8] [0:7] [0:3] [0:9] [0:5] [0:9] [0:39] [0:13] [0:3] [0:10] [0:7] [0:7] [0:7] [0:3] [0:10] [0:12] [0:11] [0:8] [0:6] [0:39] [0:9] [0:7] [0:2] [0:3] [0:4] [0:3] [0:21] [0:7] [0:21] [0:3] [0:21] [0:7] [0:4] [0:9] [0:7] [0:3] [0:4] [0:13] [0:8] [0:6] [0:3] [0:4] [0:6] [0:7] [0:7] [0:13] [0:14] [0:4] [0:13] [0:8] [0:16] [0:7] [0:15] [0:7] [0:4] [0:4] [0:11] [0:9] [0:6] [0:4] [0:3] [0:8] [0:3] [0:3] [0:4] [0:8] [0:26] [0:4] [0:5] [0:16] [0:9] [0:8] [0:12] [0:8] [0:38] [0:15] [0:8] [0:4] [0:24] [0:9] [0:10] [0:5] [0:6] [0:9] [0:6] [0:6] [0:3] [0:9] [0:6] [0:6] [0:6] [0:4] [0:17] [0:12] [0:3] [0:4] [0:6] [0:3] [0:4] [0:5] [0:5] [0:7] [0:3] [0:3] [0:3] [0:3] [0:3] [0:10] [0:23] [0:8] [0:8] [0:8] [0:5] [0:12] [0:17] [0:7] [0:3] [0:7] [0:13] [0:13] [0:16] [0:10] [0:5] [0:23] [0:7] [0:7] [0:15] [0:6] [0:5] [0:5] [0:6] [0:6] [0:18] [0:18] [0:5] [0:27] [0:9] [0:26] [0:4] [0:5] [0:5] [0:23] [0:8] [0:5] [0:6] [0:9] [0:18] [0:7] [0:3] [0:3] [0:3] [0:11] [0:8] [0:14] [0:6] [0:10] [0:13] [0:9] [0:9] [0:3] [0:25] [0:4] [0:3] [0:11] [0:4] [0:14] [0:9] [0:6] [0:13] [0:10] [0:6] [0:10] [0:4] [0:2] [0:2] [0:3] [0:14] [0:5] [0:6] [0:6] [0:7] [0:13] [0:32] [0:3] [0:7] [0:3] [0:21] [0:5] [0:4] [0:4] [0:8] [0:9] [0:13] [0:11] [0:10] [0:7] [0:6] [0:8] [0:5] [0:3] [0:4] [0:8] [0:7] [0:6] [0:2] [0:15] [0:15] [0:6] [0:6] [0:8] [0:8] [0:3] [0:12] [0:3] [0:7] [0:8] [0:8] [0:14] [0:14] [0:3] [0:11] [0:10] [0:14] [0:11] [0:8] [0:6] [0:6] [0:9] [0:15] [0:15] [0:28] [0:20] [0:6] [0:3] [0:10] [0:5] [0:14] [0:12] [0:15] [0:6] [0:17] [0:3] [0:3] [0:17] [0:19] [0:10] [0:3] [0:7] [0:10] [0:11] [0:32] [0:6] [0:33] [0:2] [0:4] [0:9] [0:4] [0:3] [0:8] [0:3] [0:6] [0:4] [0:15] [0:12] [0:6] [0:6] [0:3] [0:13] [0:3] [0:13] [0:5] [0:5] [0:3] [0:6] [0:16] [0:11] [0:16] [0:12] [0:9] [0:7] [0:4] [0:10] [0:23] [0:3] [0:6] [0:8] [0:7] [0:6] [0:13] [0:7] [0:11] [0:11] [0:9] [0:11] [0:16] [0:6] [0:8] [0:9] [0:9] [0:9] [0:9] [0:3] [0:10] [0:4] [0:8] [0:3] [0:3] [0:27] [0:4] [0:7] [0:5] [0:9] [0:5] [0:12] [0:6] [0:5] [0:20] [0:4] [0:4] [0:4] [0:4] [0:31] [0:5] [0:7] [0:18] [0:17] [0:13] [0:10] [0:12] [0:19] [0:8] [0:3] [0:20] [0:35] [0:7] [0:12] [0:5] [0:8] [0:27] [0:25] [0:6] [0:4] [0:8] [0:6] [0:11] [0:6] [0:10] [0:7] [0:11] [0:14] [0:28] [0:5] [0:11] [0:3] [0:11] [0:8] [0:6] [0:5] [0:5] [0:5] [0:5] [0:2] [0:3] [0:7] [0:5] [0:12] [0:6] [0:4] [0:5] [0:32] [0:4] [0:9] [0:20] [0:9] [0:8] [0:13] [0:7] [0:6] [0:7] [0:29] [0:28] [0:3] [0:7] [0:4] [0:13] [0:11] [0:8] [0:5] [0:5] [0:36] [0:8] [0:32] [0:4] [0:5] [0:15] [0:8] [0:8] [0:3] [0:4] [0:13] [0:11] [0:3] [0:3] [0:4] [0:31] [0:9] [0:2] [0:17] [0:5] [0:2] [0:3] [0:7] [0:5] [0:3] [0:4] [0:5] [0:7] [0:4] [0:7] [0:4] [0:10] [0:9] [0:6] [0:3] [0:2] [0:13] [0:5] [0:9] [0:4] [0:4] [0:9] [0:5] [0:2] [0:13] [0:3] [0:7] [0:10] [0:6] [0:32] [0:32] [0:4] [0:2] [0:16] [0:9] [0:7] [0:6] [0:3] [0:9] [0:6] [0:6] [0:4] [0:7] [0:3] [0:4] [0:7] [0:8] [0:2] [0:5] [0:3] [0:6] [0:7] [0:22] [0:22] [0:6] [0:13] [0:28] [0:2] [0:6] [0:6] [0:3] [0:12] [0:11] [0:9] [0:5] [0:21] [0:5] [0:3] [0:6] [0:11] [0:10] [0:6] [0:17] [0:3] [0:4] [0:7] [0:19] [0:7] [0:15] [0:3] [0:35] [0:23] [0:9] [0:11] [0:14] [0:7] [0:9] [0:6] [0:8] [0:4] [0:4] [0:8] [0:9] [0:4] [0:33] [0:6] [0:7] [0:8] [0:18] [0:9] [0:24] [0:4] [0:7] [0:4] [0:2] [0:14] [0:2] [0:18] [0:3] [0:3] [0:14] [0:23] [0:10] [0:12] [0:3] [0:7] [0:9] [0:10] [0:10] [0:4] [0:6] [0:8] [0:2] [0:3] [0:3] [0:4] [0:3] [0:4] [0:11] [0:11] [0:6] [0:30] [0:32] [0:8] [0:3] [0:16] [0:8] [0:9] [0:4] [0:15] [0:5] [0:9] [0:6] [0:4] [0:42] [0:6] [0:6] [0:4] [0:40] [0:22] [0:3] [0:2] [0:3] [0:3] [0:3] [0:3] [0:4] [0:9] [0:3] [0:3] [0:3] [0:7] [0:9] [0:4] [0:5] [0:3] [0:3] [0:3] [0:2] [0:23] [0:5] [0:10] [0:10] [0:8] [0:19] [0:3] [0:9] [0:11] [0:11] [0:38] [0:34] [0:4] [0:4] [0:3] [0:2] [0:5] [0:4] [0:10] [0:3] [0:10] [0:14] [0:7] [0:12] [0:9] [0:23] [0:17] [0:8] [0:3] [0:12] [0:4] [0:12] [0:11] [0:2] [0:26] [0:4] [0:8] [0:13] [0:22] [0:6] [0:3] [0:5] [0:7] [0:7] [0:26] [0:4] [0:8] [0:2] [0:6] [0:4] [0:4] [0:5] [0:7] [0:7] [0:22] [0:7] [0:21] [0:14] [0:8] [0:8] [0:3] [0:3] [0:5] [0:18] [0:7] [0:10] [0:6] [0:8] [0:9] [0:6] [0:9] [0:8] [0:4] [0:3] [0:6] [0:5] [0:4] [0:9] [0:11] [0:4] [0:8] [0:11] [0:6] [0:6] [0:9] [0:7] [0:3] [0:4] [0:4] [0:9] [0:8] [0:8] [0:3] [0:7] [0:2] [0:3] [0:7] [0:4] [0:6] [0:6] [0:6] [0:5] [0:4] [0:4] [0:2] [0:9] [0:9] [0:5] [0:39] [0:5] [0:3] [0:39] [0:4] [0:4] [0:22] [0:12] [0:5] [0:3] [0:19] [0:9] [0:9] [0:3] [0:9] [0:3] [0:8] [0:6] [0:8] [0:5] [0:5] [0:4] [0:4] [0:3] [0:2] [0:2074] [0:2072] [0:2072]
tree_sizes=1439 1457 1437 1426 1421 1433 1440 1437 1433 1435 1429 1450 1435 1420 1436 1433 1442 1431 1425 1443 1448 1439 1440 1451 1434 1442 1442 1456 1437 1431 1436 1445 1435 1445 1442 1432 1442 1442 1441 1447 1454 1449 1425 1447 1455 1433 1448 1443 1457 1444 1436 1451 1435 1452 1436 1423 1440 1453 1450 1448 1446 1453 1449 1441 1451 1443 1437 1450 1442 1441 1451 1445 1448 1437 1449 1445 1446 1448 1447 1445 1454 1451 1438 1455 1440 1415 1457 1450 1435 1462 1454 1456 1450 1456 1456 1454 1441 1452 1425 1431 1462 1452 1462 1455 1441 1455 1464 1457 1474 1452 1458 1459 1444 1455 1469 1461 1456 1466 1440 1467 1456 1459 1469 1455 1441 1457 1452 1456 1458 1474 1458 1472 1458 1452 1468 1468 1462 1466 1439 1458 1455 1463 1465 1455 1441 1471 1474 1466 1468 1464 1466 1467 1469 1451 1445 1446 1457 1461 1484 1437 1457 1463 1462 1473 1464 1469 1464 1425 1470 1466 1429 1481 1470 1465 1443 1478 1470 1444 1480 1480 1473 1471 1481 1459 1466 1480 1473 1469 1429 1475 1422 1478 1427 1484 1439 1478 1474 1465 1475 1467 1484 1466 1487 1480 1469 1468 1448 1448 1478 1481 1472 1482 1463 1474 1483 1483 1480 1487 1486 1466 1474 1476 1486 1477 1462 1475 1483 1483 1477 1477 1489 1476 1473 1482 1477 1472 1486 1478 1481 1490 1473 1481 1483 1477 1472 1472 1475 1453 1460 1462 1427 1486 1497 1488 1467 1483 1474 1485 1458 1488 1468 1461 1488 1485 1475 1489 1454 1496 1450 1491 1484 1491 1433 1498 1501 1498 1477 1496 1472 1490 1485 1471 1485 1492 1448 1478 1490 1482 1491 1467 1490 1493 1481 1481 1449 1493 1481 1498 1490 1478 1459 1482 1471 1469 1471 1473 1493 1491 1495 1484 1483 1470 1478 1484 1492 1481 1469 1468 1472 1478 1478 1470 1476 1448 1477 1458 1444 1484 1489 1483 1467 1489 1455 1490 1449 1476 1446 1462 1462 1491 1492 1439 1467 1456 1503 1493 1458 1468 1475 1476 1491 1472 1506 1502 1473 1498 1474 1503 1458 1483 1481 1499 1484 1475 1468 1487 1486 1498 1492 1474 1501 1469 1486 1503 1484 1508 1498 1482 1503 1459 1483 1493 1461 1482 1473 1470 1497 1487 1461 1441 1443 1482 1490 1466 1487 1500 1488 1423 1471 1489 1483 1471 1459 1468 1482 1463 1477 1491 1476 1472 1469 1493 1480 1487 1498 1472 1496 1501 1479 1457 1441 1476 1473 1471 1492 1469 1476 1481 1485 1482 1437 1496 1447 1470 1488 1496 1468 1461 1481 1476 1470 1484 1499 1479 1457 1490 1491 1421 1500 1466 1475 1470 1473 1464 1491 1491 1493 1462 1501 1488 1468 1487 1465 1496 1460 1471 1441 1480 1498 1477 1474 1482 1489 1475 1484 1491 1496 1445 1466 1464 1481 1494 1489 1458 1486 1490 1490 1466 1491 1476 1474 1479 1485 1469 1492 1454 1475 1488 1469 1451 1417 1465 1490 1473 1491 1470 1453 1460 1477 1473 1470 1457

Tree=0
num_leaves=15
num_cat=0
split_feature=40 15 32 157 15 119 2249 2678 3223 2830 484 440 173 163
split_gain=949.133 184.803 165.171 52.1775 43.3829 33.6121 31.0515 28.2687 26.5728 24.7834 22.6749 22.5743 20.669 19.6571
threshold=101.50000000000001 9.5000000000000018 537.50000000000011 0.1000922274044803 14.500000000000002 0.15785292338008319 5.5000000000000009 4.5000000000000009 2.5000000000000004 14.500000000000002 1.0000000180025095e-35 4.5000000000000009 0.086062451489723982 0.10600720368706652
decision_type=2 2 2 2 2 2 2 2 2 2 2 2 2 2
left_child=1 -1 5 9 8 6 11 -6 10 -4 -3 -2 -7 -5
right_child=2 4 3 13 7 12 -8 -9 -10 -11 -12 -13 -14 -15
leaf_value=-0.0095882503942833052 0.00016774696481577805 -0.0028743624144818829 0.010866813886794877 0.0025630456700253905 -0.0033455437244499513 0.0033072007288900778 0.007253843803170644 0.0025023793946863633 -0.0020549134113739625 0.018402591931267774 -0.0075626338344670432 0.0047983013126394079 -0.0021095222229182368 0.0095376934328833748
leaf_weight=162 47 46 37 20 34 32 66 50 91 23 69 62 37 24
leaf_count=162 47 46 37 20 34 32 66 50 91 23 69 62 37 24
internal_value=0 -0.00531648 0.00565722 0.0109217 -0.0029035 0.00337682 0.00453873 0.000102547 -0.00413459 0.0139926 -0.00573741 0.00283563 0.000383041 0.00651442
internal_weight=0 452 348 104 290 244 175 84 206 60 115 109 69 44
internal_count=800 452 348 104 290 244 175 84 206 60 115 109 69 44
is_linear=0
shrinkage=0.005


Tree=1
num_leaves=15
num_cat=0
split_feature=15 15 15 43 3338 3223 41 3509 484 148 1583 148 41 1861
split_gain=944.791 173.927 147.716 65.1856 46.0154 42.2829 32.8489 29.1377 28.727 27.5381 26.1775 23.2743 19.0387 18.9216
threshold=14.500000000000002 22.500000000000004 9.5000000000000018 68.500000000000014 4.5000000000000009 2.5000000000000004 69.500000000000014 1.0000000180025095e-35 1.0000000180025095e-35 0.095712376003293381 1.0000000180025095e-35 0.071534988083488446 99.500000000000014 1.0000000180025095e-35
decision_type=2 2 2 2 2 2 2 2 2 2 2 2 2 2
left_child=2 4 13 7 6 8 -2 10 -4 -8 -3 -7 -6 -1
right_child=1 3 5 -5 12 11 9 -9 -10 -11 -12 -13 -14 -15
leaf_value=-0.010144771543450112 -0.0035057307998051447 0.0026646100312055334 -0.0023308714144268492 0.017653184684046034 0.0035956031421833009 -0.0056688056052310257 0.0041722557928661561 0.011796777565641084 -0.0073959767855930978 -0.0020346915255329578 0.010043495298394612 -0.00014317130360203529 0.007751824243009792 -0.004709304954627889
leaf_weight=144 35 33 49 24 124 23 56 34 73 25 20 100 38 22
leaf_count=144 35 33 49 24 124 23 56 34 73 25 20 100 38 22
internal_value=0 0.00503792 -0.00582221 0.0103157 0.00289988 -0.00332486 0.000470753 0.00812638 -0.00540636 0.00223092 0.00559421 -0.00122253 0.00461611 -0.00946244
internal_weight=0 389 411 111 278 245 116 87 122 81 53 123 162 166
internal_count=800 389 411 111 278 245 116 87 122 81 53 123 162 166
is_linear=0
shrinkage=0.005


Tree=2
num_leaves=15
num_cat=0
split_feature=39 39 15 157 3175 21 247 39 211 1718 39 49 2877 163
split_gain=988.127 175.216 151.213 58.3598 47.6627 35.6035 40.017 32.1185 30.6273 24.6686 22.1556 22.7937 25.9573 21.5646
threshold=139.50000000000003 218.00000000000003 9.5000000000000018 0.1000922274044803 2.5000000000000004 350.25000000000006 5.0000000000000009 112.50000000000001 0.10503617696904295 3.5000000000000004 181.50000000000003 0.09288711857643632 1.0000000180025095e-35 0.10626007538498856
decision_type=2 2 2 2 2 2 2 2 2 2 2 2 2 2
left_child=2 5 -1 4 -3 -2 -7 -4 9 -9 11 12 -8 -5
right_child=1 3 7 13 -6 6 10 8 -10 -11 -12 -13 -14 -15
leaf_value=-0.0095749646765740555 -0.0010560370318753664 0.0094353951436340414 -0.0051330122413255361 0.0021166663906031038 0.019006686405175263 -0.0023048990162338637 0.0035172071256265218 -0.0051711001967291014 0.0019901004151838342 0.00023747949530200175 0.0068699471748819184 0.0061022692782929048 -0.0023917034925178215 0.0095750182538417196
leaf_weight=162 40 32 132 20 28 22 64 57 40 32 75 50 25 21
leaf_count=162 40 32 132 20 28 22 64 57 40 32 75 50 25 21
internal_value=0 0.00533866 -0.00578191 0.0109591 0.0141262 0.00324895 0.00398815 -0.00339789 -0.00158632 -0.00321938 0.00465059 0.00340633 0.00182861 0.00609479
internal_weight=0 377 423 101 60 276 236 261 129 89 214 139 89 41
internal_count=800 377 423 101 60 276 236 261 129 89 214 139 89 41
is_linear=0
shrinkage=0.005


Tree=3
num_leaves=15
num_cat=0
split_feature=39 39 15 157 3175 21 17 28 39 3514 211 1718 39 49
split_gain=985.978 174.844 150.873 58.2389 47.57 35.5319 39.9384 35.2155 28.2693 25.229 22.1368 22.5831 22.107 22.7491
threshold=139.50000000000003 218.00000000000003 9.5000000000000018 0.1000922274044803 2.5000000000000004 350.25000000000006 3.5000000000000004 99.250000000000014 111.50000000000001 3.5000000000000004 0.10274057217181852 3.5000000000000004 181.50000000000003 0.09288711857643632
decision_type=2 2 2 2 2 2 2 2 2 2 2 2 2 2
left_child=2 5 -1 4 -3 -2 -7 8 -4 -5 11 -10 13 -8
right_child=1 3 7 9 -6 6 12 -9 10 -11 -12 -13 -14 -15
leaf_value=-0.0095643690117195486 -0.0010552221004121855 0.0094249272407060068 -0.00449898874975946 0.0020137886410400724 0.018986985290216075 -0.002302951430993792 0.0018265170749665275 -0.008284868137852756 -0.0049450297457097978 0.010027849324620688 0.0018136471452661292 0.00051724943643288192 0.0068626033848587431 0.0060960355811540638
leaf_weight=162 40 32 110 21 28 22 89 32 43 20 44 32 75 50
leaf_count=162 40 32 110 21 28 22 89 32 43 20 44 32 75 50
internal_value=0 0.00533289 -0.00577557 0.0109474 0.0141112 0.00324539 0.00398386 -0.00339422 -0.00267564 0.00608803 -0.000954717 -0.00260721 0.00464565 0.00340272
internal_weight=0 377 423 101 60 276 236 261 229 41 119 75 214 139
internal_count=800 377 423 101 60 276 236 261 229 41 119 75 214 139
is_linear=0
shrinkage=0.005


Tree=4
num_leaves=15
num_cat=0
split_feature=39 39 15 157 3175 28 14 2818 39 3514 95 18 211 1718
split_gain=983.284 174.376 150.447 58.0851 47.4506 35.1344 33.5082 30.232 28.1962 25.1709 23.7226 22.8078 22.083 22.5284
threshold=139.50000000000003 218.00000000000003 9.5000000000000018 0.1000922274044803 2.5000000000000004 99.250000000000014 14.500000000000002 1.5000000000000002 111.50000000000001 3.5000000000000004 0.08552736477079026 406.13095238095246 0.10274057217181852 3.5000000000000004
decision_type=2 2 2 2 2 2 2 2 2 2 2 2 2 2
left_child=2 6 -1 4 -3 8 -2 10 -4 -5 -8 -12 13 -10
right_child=1 3 5 9 -6 -7 7 -9 12 -11 11 -13 -14 -15
leaf_value=-0.0095510846882124936 -0.0017568545822708886 0.009411841237609379 -0.0044928481751869663 0.0020100152680196173 0.018962020940250818 -0.0082746473600500189 0.0040500536921554194 0.006004240005564444 -0.0049386391651574275 0.010014895487290162 -0.0042851397616183165 0.0020972587432617866 0.0018118343807691419 0.00051696623770645033
leaf_weight=162 29 32 110 21 28 32 87 98 43 20 20 42 44 32
leaf_count=162 29 32 110 21 28 32 87 98 43 20 20 42 44 32
internal_value=0 0.00532566 -0.00576762 0.0109326 0.0140923 -0.00338962 0.00324094 0.00383957 -0.00267186 0.00607962 0.00237801 0 -0.000953136 -0.00260364
internal_weight=0 377 423 101 60 261 276 247 229 41 149 62 119 75
internal_count=800 377 423 101 60 261 276 247 229 41 149 62 119 75
is_linear=0
shrinkage=0.005


Tree=5
num_leaves=15
num_cat=0
split_feature=40 32 32 25 43 2899 1348 176 157 32 3522 3262 526 8
split_gain=939.023 169.06 163.544 53.1959 51.9505 34.7281 37.8836 42.462 31.0887 30.6371 26.495 26.0868 23.6815 22.2697
threshold=101.50000000000001 258.50000000000006 537.50000000000011 120.00000000000001 68.500000000000014 3.5000000000000004 2.5000000000000004 0.084053311437136777 0.1000922274044803 355.50000000000006 1.0000000180025095e-35 5.5000000000000009 4.5000000000000009 11.247221817620417
decision_type=2 2 2 2 2 2 2 2 2 2 2 2 2 2
left_child=1 13 5 9 8 6 7 -2 -4 -3 -11 -9 -8 -1
right_child=2 3 4 -5 -6 -7 12 11 -10 10 -12 -13 -14 -15
leaf_value=-0.0075218383699233718 -0.0056648338229264364 -0.0029196577899010326 0.011803990549866712 -0.0094504087864486289 0.017249020714070935 0.0066955428997814504 0.0013019539780336317 -0.0001303823523081119 0.0052288244598724734 -0.0030992003916400245 0.0036421390279604538 0.0058517756890765181 0.0068447488237112358 -0.011454080067406194
leaf_weight=133 23 172 40 25 25 59 33 51 39 22 39 27 51 61
leaf_count=133 23 172 40 25 25 59 33 51 39 22 39 27 51 61
internal_value=0 -0.00528782 0.00562728 -0.00261222 0.0108658 0.00335809 0.0022587 0.000168001 0.00866805 -0.00184013 0.00116983 0.00195337 0.00472363 -0.00881049
internal_weight=0 452 348 258 104 244 185 101 79 233 61 78 84 194
internal_count=800 452 348 258 104 244 185 101 79 233 61 78 84 194
is_linear=0
shrinkage=0.005


Tree=6
num_leaves=15
num_cat=0
split_feature=39 39 16 3155 28 21 247 13 3100 39 39 49 2877 2250
split_gain=976.439 173.208 140.146 44.4576 39.1731 35.2788 39.6567 31.6877 31.2526 25.9553 21.9251 22.6039 25.7999 14.5238
threshold=139.50000000000003 218.00000000000003 7.5000000000000009 4.5000000000000009 99.250000000000014 350.25000000000006 5.0000000000000009 12.500000000000002 1.0000000180025095e-35 111.50000000000001 181.50000000000003 0.09288711857643632 1.0000000180025095e-35 5.5000000000000009
decision_type=2 2 2 2 2 2 2 2 2 2 2 2 2 2
left_child=2 5 7 -3 9 -2 -7 -1 -5 -4 11 12 -8 -11
right_child=1 3 4 8 -6 6 10 -9 -10 13 -12 -13 -14 -15
leaf_value=-0.010781430838209287 -0.0010556483999826863 0.0061257206937143172 -0.0042415982582562446 0.016253473132114865 -0.0078406413483595415 -0.0022990433092835651 0.0034992859692472311 -0.0064824857935415481 0.0083947462099119245 -0.0015818526018540119 0.0068326685173072397 0.006071561429791982 -0.0023916108039076451 0.0025776882533054368
leaf_weight=106 40 36 84 40 36 22 64 87 25 83 75 50 25 27
leaf_count=106 40 36 84 40 36 22 64 87 25 83 75 50 25 27
internal_value=0 0.00530721 -0.00574738 0.0108954 -0.00308112 0.00322945 0.0039653 -0.00888864 0.0134001 -0.00215907 0.00462478 0.00338688 0.0018157 -0.000531584
internal_weight=0 377 423 101 230 276 236 193 65 194 214 139 89 110
internal_count=800 377 423 101 230 276 236 193 65 194 214 139 89 110
is_linear=0
shrinkage=0.005


Tree=7
num_leaves=15
num_cat=0
split_feature=16 16 14 157 14 14 414 24 303 3560 2228 21 234 2584
split_gain=883.459 216.928 115.517 65.8141 60.9775 49.5322 46.0055 33.2355 32.2283 25.1034 22.2928 21.2127 18.9923 17.5415
threshold=12.500000000000002 8.5000000000000018 26.500000000000004 0.1000922274044803 12.500000000000002 18.500000000000004 3.5000000000000004 614.50000000000011 1.0000000180025095e-35 1.0000000180025095e-35 3.5000000000000004 362.25000000000006 0.097924772106860195 5.5000000000000009
decision_type=2 2 2 2 2 2 2 2 2 2 2 2 2 2
left_child=1 4 6 13 -1 12 8 -8 -2 -5 -10 -7 -3 -4
right_child=2 5 3 9 -6 11 7 -9 10 -11 -12 -13 -14 -15
leaf_value=-0.0098845239995854033 -0.0039051433435611615 -0.004204511816885876 0.010391889915716513 0.0019797783300714187 -0.0048099707768981623 -0.0016400195848557185 0.0013357472410319953 0.0072781580679770917 0.0050679312729572925 0.0099717970018816868 -0.0012148765874213459 0.0044412147675490952 -0.00082986079461145408 0.017918962836265564
leaf_weight=153 22 89 20 21 104 20 32 104 42 20 20 44 82 27
leaf_count=153 22 89 20 21 104 20 32 104 42 20 20 44 82 27
internal_value=0 -0.00469105 0.00609467 0.0109332 -0.00786006 -0.00120197 0.00411759 0.00591055 0.00116274 0.00604241 0.00301971 0.00251318 -0.0026093 0.0149853
internal_weight=0 492 308 88 257 235 220 136 84 41 62 64 171 47
internal_count=800 492 308 88 257 235 220 136 84 41 62 64 171 47
is_linear=0
shrinkage=0.005


Tree=8
num_leaves=15
num_cat=0
split_feature=39 39 15 157 3175 21 17 28 39 226 211 1718 39 158
split_gain=967.752 171.722 148.15 57.3269 46.9761 35.0038 39.3581 34.7481 27.7704 25.0505 21.8537 22.3306 21.7375 22.2421
threshold=139.50000000000003 218.00000000000003 9.5000000000000018 0.1000922274044803 2.5000000000000004 350.25000000000006 3.5000000000000004 99.250000000000014 111.50000000000001 0.093125353984488984 0.10274057217181852 3.5000000000000004 181.50000000000003 0.10038451634154806
decision_type=2 2 2 2 2 2 2 2 2 2 2 2 2 2
left_child=2 5 -1 4 -3 -2 -7 8 -4 -5 11 -10 13 -8
right_child=1 3 7 9 -6 6 12 -9 10 -11 -12 -13 -14 -15
leaf_value=-0.0094760975708752526 -0.0010533647571012398 0.0093311691775111623 -0.0044551251001575358 0.0099517171826517797 0.018831316232681274 -0.002292635943771242 0.001693319573973659 -0.0082197893846626749 -0.0049089688184079999 0.0019687188646986807 0.001808321986501694 0.00052239327644290428 0.0068033731711713849 0.0058392479013606932
leaf_weight=162 40 32 110 20 28 22 84 32 43 21 44 32 75 55
leaf_count=162 40 32 110 20 28 22 84 32 43 21 44 32 75 55
internal_value=0 0.00528372 -0.00572159 0.0108479 0.0139869 0.00321485 0.00394783 -0.00336174 -0.00264793 0.00602665 -0.000942116 -0.00258415 0.00460484 0.00337213
internal_weight=0 377 423 101 60 276 236 261 229 41 119 75 214 139
internal_count=800 377 423 101 60 276 236 261 229 41 119 75 214 139
is_linear=0
shrinkage=0.005


Tree=9
num_leaves=15
num_cat=0
split_feature=39 39 15 157 3175 21 17 39 211 2722 226 39 49 2877
split_gain=962.533 170.818 147.344 57.0321 46.7505 34.8291 39.1643 31.3951 30.0166 26.7182 24.9447 21.6215 22.3956 25.5918
threshold=139.50000000000003 218.00000000000003 9.5000000000000018 0.1000922274044803 2.5000000000000004 350.25000000000006 3.5000000000000004 112.50000000000001 0.10503617696904295 3.5000000000000004 0.093125353984488984 181.50000000000003 0.09288711857643632 1.0000000180025095e-35
decision_type=2 2 2 2 2 2 2 2 2 2 2 2 2 2
left_child=2 5 -1 4 -3 -2 -7 -4 9 -9 -5 12 13 -8
right_child=1 3 7 10 -6 6 11 8 -10 -11 -12 -13 -14 -15
leaf_value=-0.0094503447291136924 -0.0010513387945702206 0.009305394739792798 -0.0050680915686966014 0.0099268038765316872 0.018782870715690982 -0.0022876683042360175 0.0034761678141361097 -0.0016232229615721781 0.0019788800610461422 -0.0081780840889908949 0.0019606785942509839 0.0067853940456631383 0.0060353956227012055 -0.002390836359188615
leaf_weight=162 40 32 132 20 28 22 64 69 40 20 21 75 50 25
leaf_count=162 40 32 132 20 28 22 64 69 40 20 21 75 50 25
internal_value=0 0.00526954 -0.00570605 0.0108191 0.0139501 0.0032061 0.00393726 -0.00335259 -0.00156138 -0.00317823 0.00601006 0.00459266 0.00336316 0.00179924
internal_weight=0 377 423 101 60 276 236 261 129 89 41 214 139 89
internal_count=800 377 423 101 60 276 236 261 129 89 41 214 139 89
is_linear=0
shrinkage=0.005


Tree=10
num_leaves=15
num_cat=0
split_feature=39 39 16 157 3175 25 21 247 39 0 3514 39 49 2877
split_gain=956.82 169.828 137.684 56.7074 46.5004 35.2879 34.6362 38.9502 28.0286 27.7392 24.8546 21.4945 22.2789 25.4677
threshold=139.50000000000003 218.00000000000003 7.5000000000000009 0.1000922274044803 2.5000000000000004 120.00000000000001 350.25000000000006 5.0000000000000009 112.50000000000001 12.500000000000002 3.5000000000000004 181.50000000000003 0.09288711857643632 1.0000000180025095e-35
decision_type=2 2 2 2 2 2 2 2 2 2 2 2 2 2
left_child=2 6 9 4 -3 8 -2 -8 -4 -1 -5 12 13 -9
right_child=1 3 5 10 -6 -7 7 11 -10 -11 -12 -13 -14 -15
leaf_value=-0.010640856638830694 -0.0010490281673723003 0.0092771671624945068 -0.004368915813187592 0.0019500635795876246 0.018729478365017309 -0.0089982746194296505 -0.0022820913921449367 0.0034662797907717676 -0.00066219750642557444 -0.0066014835908639741 0.0099014517435660736 0.0067656077484423314 0.0060185710044887552 -0.0023864068038107877
leaf_weight=103 40 32 95 21 28 22 22 64 113 90 20 75 50 25
leaf_count=103 40 32 95 21 28 22 22 64 113 90 20 75 50 25
internal_value=0 0.00525397 -0.005689 0.0107874 0.0139095 -0.00304619 0.0031965 0.00392564 -0.002375 -0.00880256 0.0059919 0.00457925 0.00335328 0.00179338
internal_weight=0 377 423 101 60 230 276 236 208 193 41 214 139 89
internal_count=800 377 423 101 60 230 276 236 208 193 41 214 139 89
is_linear=0
shrinkage=0.005


Tree=11
num_leaves=15
num_cat=0
split_feature=40 15 15 1348 44 15 493 526 2678 61 598 234 1861 1559
split_gain=911.111 177.306 141.56 45.1456 42.9415 41.7765 40.9976 29.3355 27.6201 26.7739 23.6624 22.0633 19.8893 19.7168
threshold=101.50000000000001 9.5000000000000018 24.500000000000004 2.5000000000000004 26.500000000000004 14.500000000000002 1.0000000180025095e-35 3.5000000000000004 4.5000000000000009 0.2037896715418738 1.0000000180025095e-35 0.088002840897583895 1.0000000180025095e-35 1.5000000000000002
decision_type=2 2 2 2 2 2 2 2 2 2 2 2 2 2
left_child=1 12 3 6 -4 9 -2 -5 -7 11 -8 -3 -1 -11
right_child=2 5 4 7 -6 8 10 -9 -10 13 -12 -13 -14 -15
leaf_value=-0.010107967499670023 0.0047011316529497376 -0.0048501728671328575 0.0067156069845242319 0.0017478753951305909 0.014835317430219482 -0.0033029180451708746 -0.0024584082778746435 0.0072476345744313447 0.0024774432234419617 -0.0104165356704431 0.0037921903335581398 -0.0010677439850287603 -0.0045561329944451391 -0.0036664318042208578
leaf_weight=140 64 80 31 34 44 34 54 101 50 25 20 78 22 23
leaf_count=140 64 80 31 34 44 34 54 101 50 25 20 78 22 23
internal_value=0 -0.00520806 0.00554359 0.00384012 0.0116119 -0.00284432 0.00179244 0.00589569 0.000105101 -0.00405242 -0.000719829 -0.00301028 -0.00939239 -0.00733622
internal_weight=0 452 348 273 75 290 138 135 84 206 74 158 162 48
internal_count=800 452 348 273 75 290 138 135 84 206 74 158 162 48
is_linear=0
shrinkage=0.005


Tree=12
num_leaves=15
num_cat=0
split_feature=15 32 16 157 148 231 42 15 581 32 223 2830 178 32
split_gain=902.324 173.68 145.908 59.4677 42.0406 41.4291 30.3163 27.3701 25.6295 24.4647 24.3769 23.9783 18.4257 17.9343
threshold=14.500000000000002 537.50000000000011 7.5000000000000009 0.1000922274044803 0.058156003584030953 0.057021364680141025 36.500000000000007 10.500000000000002 4.5000000000000009 359.00000000000006 0.11087239997898446 14.500000000000002 0.10683692154522788 333.50000000000006
decision_type=2 2 2 2 2 2 2 2 2 2 2 2 2 2
left_child=2 5 7 11 -4 8 12 -1 -2 -7 -5 -3 -6 -8
right_child=1 3 4 10 6 9 13 -9 -10 -11 -12 -13 -14 -15
leaf_value=-0.0098640998182921245 -0.0044884369680530259 0.010612171706078309 -0.0089618263845404177 0.0093615133161539174 -0.0023469234444227212 0.00018670974158527083 -0.0019996669927021473 -0.0046703657483182564 0.002560038132130309 0.0044935027618286201 0.0018392671424315491 0.018019263476540311 -0.0067095999054639357 0.0028319764267249782
leaf_weight=153 27 37 25 23 88 41 38 35 23 193 22 23 35 37
leaf_count=153 27 37 25 23 88 41 38 35 23 193 22 23 35 37
internal_value=0 0.00492441 -0.00568883 0.0104039 -0.00292388 0.00286796 -0.00211845 -0.00893166 -0.00121751 0.00375062 0.005824 0.0136842 -0.00363983 0.000362291
internal_weight=0 389 411 105 223 284 198 188 50 234 45 60 123 75
internal_count=800 389 411 105 223 284 198 188 50 234 45 60 123 75
is_linear=0
shrinkage=0.005


Tree=13
num_leaves=15
num_cat=0
split_feature=39 39 16 157 3175 28 14 14 2818 39 226 95 18 491
split_gain=937.622 166.645 135.1 55.7857 45.8355 38.0336 32.3195 30.1256 29.3629 24.9776 24.6049 23.1725 22.0517 16.6732
threshold=139.50000000000003 218.00000000000003 7.5000000000000009 0.1000922274044803 2.5000000000000004 99.250000000000014 14.500000000000002 13.500000000000002 1.5000000000000002 111.50000000000001 0.093125353984488984 0.08552736477079026 406.13095238095246 1.5000000000000002
decision_type=2 2 2 2 2 2 2 2 2 2 2 2 2 2
left_child=2 6 7 4 -3 9 -2 -1 11 -4 -5 -8 -13 -10
right_child=1 3 5 10 -6 -7 8 -9 13 -11 -12 12 -14 -15
leaf_value=-0.0099933414800650842 -0.0017443046713913571 0.0091809621345388098 -0.0041476785002346594 0.0098155066783790698 0.018564088514281644 -0.0077030543635761293 0.0039634068328967768 -0.0053764530419502209 0.0071315899696891907 -0.00050803069887728604 0.0019062443617987659 -0.0042518627576366552 0.0020235866946075767 0.0022457373880871586
leaf_weight=138 29 32 84 20 28 36 87 55 72 110 21 20 42 26
leaf_count=138 29 32 84 20 28 36 87 55 72 110 21 20 42 26
internal_value=0 0.00520128 -0.00563135 0.0106827 0.0137793 -0.00301337 0.00316309 -0.00871559 0.0037511 -0.00210479 0.00592628 0.0023108 0 0.00588427
internal_weight=0 377 423 101 60 230 276 193 247 194 41 149 62 98
internal_count=800 377 423 101 60 230 276 193 247 194 41 149 62 98
is_linear=0
shrinkage=0.005


Tree=14
num_leaves=15
num_cat=0
split_feature=39 39 15 237 157 21 17 39 211 2722 3175 39 158 1861
split_gain=930.261 165.372 142.44 55.3959 43.8565 33.9151 38.1498 30.4115 29.3842 26.3168 23.3697 20.997 21.7685 19.6761
threshold=139.50000000000003 218.00000000000003 9.5000000000000018 0.071829446484726153 0.10361650521611038 350.25000000000006 3.5000000000000004 112.50000000000001 0.10503617696904295 3.5000000000000004 2.5000000000000004 181.50000000000003 0.10038451634154806 1.0000000180025095e-35
decision_type=2 2 2 2 2 2 2 2 2 2 2 2 2 2
left_child=2 5 13 -3 10 -2 -7 -4 9 -9 -5 12 -8 -1
right_child=1 3 7 4 -6 6 11 8 -10 -11 -12 -13 -14 -15
leaf_value=-0.010002085491856137 -0.0010501232765347916 0.0033452825807443443 -0.0049834154055756093 0.010976810185238719 0.0069699027609723295 -0.0022708054969757144 0.0016464283508777853 -0.0015885025854109483 0.001970707331572211 -0.0080934106409012406 0.018851019727240362 0.0066800761022076686 0.0057475252295478632 -0.004483611049751441
leaf_weight=140 40 22 132 25 27 22 84 69 40 20 27 75 55 22
leaf_count=140 40 22 132 25 27 22 84 69 40 20 27 75 55 22
internal_value=0 0.00518093 -0.00560909 0.0106414 0.0125943 0.0031505 0.00387206 -0.00329493 -0.00153171 -0.00313163 0.0153269 0.00451899 0.00330707 -0.00929066
internal_weight=0 377 423 101 79 276 236 261 129 89 52 214 139 162
internal_count=800 377 423 101 79 276 236 261 129 89 52 214 139 162
is_linear=0
shrinkage=0.005


Tree=15
num_leaves=15
num_cat=0
split_feature=15 32 16 157 147 231 42 15 44 32 3177 2249 178 32
split_gain=881.684 169.878 142.679 58.2167 41.341 40.7897 29.658 26.7913 24.0817 23.8915 22.7729 22.0955 18.2193 17.6071
threshold=14.500000000000002 537.50000000000011 7.5000000000000009 0.1000922274044803 0.08310524138327334 0.057021364680141025 36.500000000000007 10.500000000000002 25.500000000000004 359.00000000000006 2.5000000000000004 3.5000000000000004 0.10683692154522788 333.50000000000006
decision_type=2 2 2 2 2 2 2 2 2 2 2 2 2 2
left_child=2 5 7 10 -4 11 12 -1 -5 -7 -3 -2 -6 -8
right_child=1 3 4 8 6 9 13 -9 -10 -11 -12 -13 -14 -15
leaf_value=-0.0097523573534538961 -0.0046289475343702742 0.010328852055729601 -0.0088761167565375113 0.0022586606333552055 -0.0023093487985530736 0.00018751958218842088 -0.0019765658338779836 -0.004613007977136604 0.0097751904485854687 0.0044442807664751395 0.017482416186366201 0.0018977126817535193 -0.0066468066691847613 0.0028106378864314629
leaf_weight=153 24 35 25 25 88 41 38 35 20 193 25 26 35 37
leaf_count=153 24 35 25 25 88 41 38 35 20 193 25 26 35 37
internal_value=0 0.00486818 -0.00562296 0.0102875 -0.00288864 0.00283427 -0.00208991 -0.00882976 0.0057554 0.00371014 0.0135332 -0.00121928 -0.00359472 0.000363474
internal_weight=0 389 411 105 223 284 198 188 45 234 60 50 123 75
internal_count=800 389 411 105 223 284 198 188 45 234 60 50 123 75
is_linear=0
shrinkage=0.005


Tree=16
num_leaves=15
num_cat=0
split_feature=40 15 32 43 15 119 2249 157 3338 1603 3223 94 440 1861
split_gain=876.897 170.459 153.445 49.4079 40.1841 32.2304 29.6692 29.2844 26.9719 25.3356 25.3306 22.2066 21.569 19.4839
threshold=101.50000000000001 9.5000000000000018 537.50000000000011 68.500000000000014 14.500000000000002 0.15785292338008319 5.5000000000000009 0.1000922274044803 4.5000000000000009 1.5000000000000002 2.5000000000000004 0.080232649082111793 4.5000000000000009 1.0000000180025095e-35
decision_type=2 2 2 2 2 2 2 2 2 2 2 2 2 2
left_child=1 13 5 7 10 6 12 -4 -6 -7 11 -3 -2 -1
right_child=2 4 3 -5 8 9 -8 -9 -10 -11 -12 -13 -14 -15
leaf_value=-0.0099192776301325388 0.00010669394524959911 -0.0033462991696988869 0.011414688695769977 0.016737197551500889 -0.0032660992017775866 0.0022686133901429662 0.007032026314015589 0.0050321775517103515 0.002446049765418339 -0.0042955255975203523 -0.0019455769271965186 -0.0078971439078076317 0.0046320161187078119 -0.004429906139052228
leaf_weight=140 47 61 40 25 34 49 66 39 50 20 91 54 62 22
leaf_count=140 47 61 40 25 34 49 66 39 50 20 91 54 62 22
internal_value=0 -0.00510867 0.00543916 0.0105135 -0.00279082 0.00324085 0.00437844 0.00837093 0.000101404 0.000309886 -0.00397567 -0.00554028 0.00271394 -0.00921152
internal_weight=0 452 348 104 290 244 175 79 84 69 206 115 109 162
internal_count=800 452 348 104 290 244 175 79 84 69 206 115 109 162
is_linear=0
shrinkage=0.005


Tree=17
num_leaves=15
num_cat=0
split_feature=39 39 16 218 28 24 14 13 2818 39 95 18 491 212
split_gain=906.358 161.381 130.949 54.5581 37.145 34.9744 31.4925 29.8711 28.7238 24.2076 22.7102 21.5319 16.3639 13.8925
threshold=139.50000000000003 218.00000000000003 7.5000000000000009 0.07136459588734205 99.250000000000014 850.00000000000011 14.500000000000002 12.500000000000002 1.5000000000000002 111.50000000000001 0.08552736477079026 406.13095238095246 1.5000000000000002 0.11302569791363092
decision_type=2 2 2 2 2 2 2 2 2 2 2 2 2 2
left_child=2 6 7 -3 9 -5 -2 -1 10 -4 -8 -12 -10 -11
right_child=1 3 4 5 -6 -7 8 -9 12 13 11 -13 -14 -15
leaf_value=-0.010410357436465191 -0.001735088244243056 0.0032699185881861731 -0.0040717498384161303 0.0070470322902465975 -0.0075930260482962942 0.014770201413185221 0.0039006120658667642 -0.0062364951803896293 0.0070341813900881532 -0.0015163968988192889 -0.0042239531459703225 0.0019765721187300148 0.0021948541702056274 0.0025520484361893046
leaf_weight=106 29 22 84 25 36 54 87 87 72 83 20 42 26 27
leaf_count=106 29 22 84 25 36 54 87 87 72 83 20 42 26 27
internal_value=0 0.00511433 -0.00553616 0.0105086 -0.00295856 0.0124464 0.00310845 -0.00857271 0.00368896 -0.00206063 0.00226444 -2.00786e-05 0.00579869 -0.000488512
internal_weight=0 377 423 101 230 79 276 193 247 194 149 62 98 110
internal_count=800 377 423 101 230 79 276 193 247 194 149 62 98 110
is_linear=0
shrinkage=0.005


Tree=18
num_leaves=15
num_cat=0
split_feature=40 15 32 157 15 119 2249 2678 61 2830 3223 440 214 44
split_gain=860.698 167.32 150.787 47.7995 39.4724 31.8286 29.2629 26.6249 26.0138 23.1709 23.041 21.2803 19.628 17.7881
threshold=101.50000000000001 9.5000000000000018 537.50000000000011 0.1000922274044803 14.500000000000002 0.15785292338008319 5.5000000000000009 4.5000000000000009 0.2037896715418738 14.500000000000002 2.5000000000000004 4.5000000000000009 0.092557266619152187 25.500000000000004
decision_type=2 2 2 2 2 2 2 2 2 2 2 2 2 2
left_child=1 -1 5 9 8 6 11 -6 10 -4 -3 -2 -7 -5
right_child=2 4 3 13 7 12 -8 -9 -10 -11 -12 -13 -14 -15
leaf_value=-0.0091259551173446737 9.7195036839849646e-05 -0.004766760530311177 0.010342524331063032 0.0030160402301548706 -0.0032438220090805505 0.0040145596680368351 0.0069754890686885354 0.002431433715168756 -0.0071749200624844148 0.017617122221331133 -0.00090604844763767282 0.0045921269474012757 -0.00155581160078164 0.0096588344049926556
leaf_weight=162 47 81 37 24 34 23 66 50 48 23 77 62 46 20
leaf_count=162 47 81 37 24 34 23 66 50 48 23 77 62 46 20
internal_value=0 -0.005061 0.00538895 0.0104192 -0.0027645 0.00320968 0.00434013 0.00010179 -0.00393882 0.0133591 -0.00291191 0.00268699 0.000297056 0.0061987
internal_weight=0 452 348 104 290 244 175 84 206 60 158 109 69 44
internal_count=800 452 348 104 290 244 175 84 206 60 158 109 69 44
is_linear=0
shrinkage=0.005


Tree=19
num_leaves=15
num_cat=0
split_feature=39 39 15 218 24 28 14 2818 643 184 20 526 1861 9
split_gain=888.759 158.387 136.042 53.8735 34.4104 32.9315 31.0341 28.308 26.2271 22.8447 21.8187 20.4365 19.2193 18.3211
threshold=139.50000000000003 218.00000000000003 9.5000000000000018 0.07136459588734205 850.00000000000011 99.250000000000014 14.500000000000002 1.5000000000000002 1.0000000180025095e-35 0.10174438079161018 251.87500000000003 5.5000000000000009 1.0000000180025095e-35 13.375000000000002
decision_type=2 2 2 2 2 2 2 2 2 2 2 2 2 2
left_child=2 6 12 -3 -5 8 -2 10 9 -4 -8 13 -1 -10
right_child=1 3 5 4 -6 -7 7 -9 11 -11 -12 -13 -14 -15
leaf_value=-0.0097824529593344787 -0.0017303185962431989 0.0032168457844997185 -0.0072230644865963513 0.0069781734323663301 0.014639295632713031 -0.007948929221687339 -0.0012808190057498556 0.0057481669827514261 -0.0037442134512742343 -0.0018522984947600923 0.0032600547610790059 0.0019334425279336597 -0.0043352724425494669 0.00055115702166127134
leaf_weight=140 29 22 44 25 54 32 33 98 73 39 116 37 22 36
leaf_count=140 29 22 44 25 54 32 33 98 73 39 116 37 22 36
internal_value=0 0.00506472 -0.00548185 0.0104088 0.0123342 -0.00322 0.00307745 0.00365376 -0.00252511 -0.00476509 0.00223954 -0.00121905 -0.00907994 -0.00231366
internal_weight=0 377 423 101 79 261 276 247 229 83 149 146 162 109
internal_count=800 377 423 101 79 261 276 247 229 83 149 146 162 109
is_linear=0
shrinkage=0.005


Tree=20
num_leaves=15
num_cat=0
split_feature=39 39 39 218 20 157 14 2818 20 1020 149 81 303 158
split_gain=879.433 156.767 125.388 53.4048 48.4026 42.0342 30.7421 28.0535 21.615 21.2912 19.4642 26.3481 15.7751 14.9309
threshold=139.50000000000003 218.00000000000003 92.500000000000014 0.07136459588734205 471.25000000000006 0.10361650521611038 14.500000000000002 1.5000000000000002 251.87500000000003 1.0000000180025095e-35 0.13657795972134593 0.14038139624809645 1.0000000180025095e-35 0.10038451634154806
decision_type=2 2 2 2 2 2 2 2 2 2 2 2 2 2
left_child=2 6 9 -3 10 -5 -2 8 -8 -1 -4 -12 -13 -10
right_child=1 3 4 5 -6 -7 7 -9 13 -11 11 12 -14 -15
leaf_value=-0.0093929210620808355 -0.0017238466505112827 0.0031942349826720984 -0.00093414665227697609 0.014946777831664253 -0.0093382011464019747 0.006766379336900206 -0.0012769556209391959 0.0057196336742626327 0.0017406608698604901 -0.0043077900783262324 -0.0070378486259826747 -0.0042788667316890237 0.0010180113994827989 0.0054965926612235254
leaf_weight=151 29 22 123 52 27 27 33 98 71 28 40 27 27 45
leaf_count=151 29 22 123 52 27 27 33 98 71 28 40 27 27 45
internal_value=0 0.00503816 -0.00545294 0.0103549 -0.00309251 0.0122719 0.00306102 0.00363463 0.00222672 -0.00863131 -0.00227476 -0.00398519 -0.00161773 0.00324249
internal_weight=0 377 423 101 244 79 276 247 149 179 217 94 54 116
internal_count=800 377 423 101 244 79 276 247 149 179 217 94 54 116
is_linear=0
shrinkage=0.005


Tree=21
num_leaves=15
num_cat=0
split_feature=39 39 15 218 157 28 21 248 39 211 1718 39 49 2877
split_gain=869.848 155.097 133.297 52.9176 41.6102 32.3599 32.2619 36.4768 25.1932 20.4913 21.2029 19.9485 21.0897 24.3259
threshold=139.50000000000003 218.00000000000003 9.5000000000000018 0.07136459588734205 0.10361650521611038 99.250000000000014 350.25000000000006 2.5000000000000004 111.50000000000001 0.10274057217181852 3.5000000000000004 181.50000000000003 0.09288711857643632 1.0000000180025095e-35
decision_type=2 2 2 2 2 2 2 2 2 2 2 2 2 2
left_child=2 6 -1 -3 -5 8 -2 -8 -4 10 -10 12 13 -9
right_child=1 3 5 4 -6 -7 7 11 9 -11 -12 -13 -14 -15
leaf_value=-0.0089847088652532502 -0.0010517821578365579 0.0031711136874040232 -0.0042164769550845941 0.014868786278970992 0.0067291255702646513 -0.0078718117276978944 -0.0022570346657920979 0.0033176830843562421 -0.0047266686499356962 0.0017927242269992611 0.0005644904675172279 0.0064873564439410425 0.0057917069200441006 -0.0024019703885419441
leaf_weight=162 40 22 110 52 27 32 22 64 43 44 32 75 50 25
leaf_count=162 40 22 110 52 27 32 22 64 43 44 32 75 50 25
