tree
version=v4
num_class=1
num_tree_per_iteration=1
label_index=0
max_feature_idx=3586
feature_names=sent_count sent_len_mean sent_len_std sent_len_q1 sent_len_median sent_len_q3 sent_len_max sent_word_count_mean sent_word_count_std sent_word_count_q1 sent_word_count_median sent_word_count_q3 sent_word_count_max sent_len_ge_20_count sent_len_ge_40_count sent_len_ge_60_count sent_len_ge_80_count paragraph_count paragraph_len_mean paragraph_len_std paragraph_len_q1 paragraph_len_median paragraph_len_q3 paragraph_len_min paragraph_len_max paragraph_word_count_mean paragraph_word_count_std paragraph_word_count_q1 paragraph_word_count_median paragraph_word_count_q3 paragraph_word_count_min paragraph_word_count_max word_len_count word_len_mean word_len_std word_len_q1 word_len_median word_len_q3 word_len_max word_len_ge_5_count word_len_ge_6_count word_len_ge_7_count word_len_ge_8_count word_len_ge_9_count word_len_ge_10_count word_len_ge_11_count word_len_ge_12_count new_tokenizer_tfidf_0 new_tokenizer_tfidf_1 new_tokenizer_tfidf_2 new_tokenizer_tfidf_3 new_tokenizer_tfidf_4 new_tokenizer_tfidf_5 new_tokenizer_tfidf_6 new_tokenizer_tfidf_7 new_tokenizer_tfidf_8 new_tokenizer_tfidf_9 new_tokenizer_tfidf_10 new_tokenizer_tfidf_11 new_tokenizer_tfidf_12 new_tokenizer_tfidf_13 new_tokenizer_tfidf_14 new_tokenizer_tfidf_15 new_tokenizer_tfidf_16 new_tokenizer_tfidf_17 new_tokenizer_tfidf_18 new_tokenizer_tfidf_19 new_tokenizer_tfidf_20 new_tokenizer_tfidf_21 new_tokenizer_tfidf_22 new_tokenizer_tfidf_23 new_tokenizer_tfidf_24 new_tokenizer_tfidf_25 new_tokenizer_tfidf_26 new_tokenizer_tfidf_27 new_tokenizer_tfidf_28 new_tokenizer_tfidf_29 new_tokenizer_tfidf_30 new_tokenizer_tfidf_31 new_tokenizer_tfidf_32 new_tokenizer_tfidf_33 new_tokenizer_tfidf_34 new_tokenizer_tfidf_35 new_tokenizer_tfidf_36 new_tokenizer_tfidf_37 new_tokenizer_tfidf_38 new_tokenizer_tfidf_39 new_tokenizer_tfidf_40 new_tokenizer_tfidf_41 new_tokenizer_tfidf_42 new_tokenizer_tfidf_43 new_tokenizer_tfidf_44 new_tokenizer_tfidf_45 new_tokenizer_tfidf_46 new_tokenizer_tfidf_47 new_tokenizer_tfidf_48 new_tokenizer_tfidf_49 new_tokenizer_tfidf_50 new_tokenizer_tfidf_51 new_tokenizer_tfidf_52 new_tokenizer_tfidf_53 new_tokenizer_tfidf_54 new_tokenizer_tfidf_55 new_tokenizer_tfidf_56 new_tokenizer_tfidf_57 new_tokenizer_tfidf_58 new_tokenizer_tfidf_59 new_tokenizer_tfidf_60 new_tokenizer_tfidf_61 new_tokenizer_tfidf_62 new_tokenizer_tfidf_63 new_tokenizer_tfidf_64 new_tokenizer_tfidf_65 new_tokenizer_tfidf_66 new_tokenizer_tfidf_67 new_tokenizer_tfidf_68 new_tokenizer_tfidf_69 new_tokenizer_tfidf_70 new_tokenizer_tfidf_71 new_tokenizer_tfidf_72 new_tokenizer_tfidf_73 new_tokenizer_tfidf_74 new_tokenizer_tfidf_75 new_tokenizer_tfidf_76 new_tokenizer_tfidf_77 new_tokenizer_tfidf_78 new_tokenizer_tfidf_79 new_tokenizer_tfidf_80 new_tokenizer_tfidf_81 new_tokenizer_tfidf_82 new_tokenizer_tfidf_83 new_tokenizer_tfidf_84 new_tokenizer_tfidf_85 new_tokenizer_tfidf_86 new_tokenizer_tfidf_87 new_tokenizer_tfidf_88 new_tokenizer_tfidf_89 new_tokenizer_tfidf_90 new_tokenizer_tfidf_91 new_tokenizer_tfidf_92 new_tokenizer_tfidf_93 new_tokenizer_tfidf_94 new_tokenizer_tfidf_95 new_tokenizer_tfidf_96 new_tokenizer_tfidf_97 new_tokenizer_tfidf_98 new_tokenizer_tfidf_99 tfidf_0 tfidf_1 tfidf_2 tfidf_3 tfidf_4 tfidf_5 tfidf_6 tfidf_7 tfidf_8 tfidf_9 tfidf_10 tfidf_11 tfidf_12 tfidf_13 tfidf_14 tfidf_15 tfidf_16 tfidf_17 tfidf_18 tfidf_19 tfidf_20 tfidf_21 tfidf_22 tfidf_23 tfidf_24 tfidf_25 tfidf_26 tfidf_27 tfidf_28 tfidf_29 tfidf_30 tfidf_31 tfidf_32 tfidf_33 tfidf_34 tfidf_35 tfidf_36 tfidf_37 tfidf_38 tfidf_39 tfidf_40 tfidf_41 tfidf_42 tfidf_43 tfidf_44 tfidf_45 tfidf_46 tfidf_47 tfidf_48 tfidf_49 tfidf_50 tfidf_51 tfidf_52 tfidf_53 tfidf_54 tfidf_55 tfidf_56 tfidf_57 tfidf_58 tfidf_59 tfidf_60 tfidf_61 tfidf_62 tfidf_63 tfidf_64 tfidf_65 tfidf_66 tfidf_67 tfidf_68 tfidf_69 tfidf_70 tfidf_71 tfidf_72 tfidf_73 tfidf_74 tfidf_75 tfidf_76 tfidf_77 tfidf_78 tfidf_79 tfidf_80 tfidf_81 tfidf_82 tfidf_83 tfidf_84 tfidf_85 tfidf_86 tfidf_87 tfidf_88 tfidf_89 tfidf_90 tfidf_91 tfidf_92 tfidf_93 tfidf_94 tfidf_95 tfidf_96 tfidf_97 tfidf_98 tfidf_99 count_0 count_1 count_2 count_3 count_4 count_5 count_6 count_7 count_8 count_9 count_10 count_11 count_12 count_13 count_14 count_15 count_16 count_17 count_18 count_19 count_20 count_21 count_22 count_23 count_24 count_25 count_26 count_27 count_28 count_29 count_30 count_31 count_32 count_33 count_34 count_35 count_36 count_37 count_38 count_39 count_40 count_41 count_42 count_43 count_44 count_45 count_46 count_47 count_48 count_49 count_50 count_51 count_52 count_53 count_54 count_55 count_56 count_57 count_58 count_59 count_60 count_61 count_62 count_63 count_64 count_65 count_66 count_67 count_68 count_69 count_70 count_71 count_72 count_73 count_74 count_75 count_76 count_77 count_78 count_79 count_80 count_81 count_82 count_83 count_84 count_85 count_86 count_87 count_88 count_89 count_90 count_91 count_92 count_93 count_94 count_95 count_96 count_97 count_98 count_99 count_100 count_101 count_102 count_103 count_104 count_105 count_106 count_107 count_108 count_109 count_110 count_111 count_112 count_113 count_114 count_115 count_116 count_117 count_118 count_119 count_120 count_121 count_122 count_123 count_124 count_125 count_126 count_127 count_128 count_129 count_130 count_131 count_132 count_133 count_134 count_135 count_136 count_137 count_138 count_139 count_140 count_141 count_142 count_143 count_144 count_145 count_146 count_147 count_148 count_149 count_150 count_151 count_152 count_153 count_154 count_155 count_156 count_157 count_158 count_159 count_160 count_161 count_162 count_163 count_164 count_165 count_166 count_167 count_168 count_169 count_170 count_171 count_172 count_173 count_174 count_175 count_176 count_177 count_178 count_179 count_180 count_181 count_182 count_183 count_184 count_185 count_186 count_187 count_188 count_189 count_190 count_191 count_192 count_193 count_194 count_195 count_196 count_197 count_198 count_199 count_200 count_201 count_202 count_203 count_204 count_205 count_206 count_207 count_208 count_209 count_210 count_211 count_212 count_213 count_214 count_215 count_216 count_217 count_218 count_219 count_220 count_221 count_222 count_223 count_224 count_225 count_226 count_227 count_228 count_229 count_230 count_231 count_232 count_233 count_234 count_235 count_236 count_237 count_238 count_239 count_240 count_241 count_242 count_243 count_244 count_245 count_246 count_247 count_248 count_249 count_250 count_251 count_252 count_253 count_254 count_255 count_256 count_257 count_258 count_259 count_260 count_261 count_262 count_263 count_264 count_265 count_266 count_267 count_268 count_269 count_270 count_271 count_272 count_273 count_274 count_275 count_276 count_277 count_278 count_279 count_280 count_281 count_282 count_283 count_284 count_285 count_286 count_287 count_288 count_289 count_290 count_291 count_292 count_293 count_294 count_295 count_296 count_297 count_298 count_299 count_300 count_301 count_302 count_303 count_304 count_305 count_306 count_307 count_308 count_309 count_310 count_311 count_312 count_313 count_314 count_315 count_316 count_317 count_318 count_319 count_320 count_321 count_322 count_323 count_324 count_325 count_326 count_327 count_328 count_329 count_330 count_331 count_332 count_333 count_334 count_335 count_336 count_337 count_338 count_339 count_340 count_341 count_342 count_343 count_344 count_345 count_346 count_347 count_348 count_349 count_350 count_351 count_352 count_353 count_354 count_355 count_356 count_357 count_358 count_359 count_360 count_361 count_362 count_363 count_364 count_365 count_366 count_367 count_368 count_369 count_370 count_371 count_372 count_373 count_374 count_375 count_376 count_377 count_378 count_379 count_380 count_381 count_382 count_383 count_384 count_385 count_386 count_387 count_388 count_389 count_390 count_391 count_392 count_393 count_394 count_395 count_396 count_397 count_398 count_399 count_400 count_401 count_402 count_403 count_404 count_405 count_406 count_407 count_408 count_409 count_410 count_411 count_412 count_413 count_414 count_415 count_416 count_417 count_418 count_419 count_420 count_421 count_422 count_423 count_424 count_425 count_426 count_427 count_428 count_429 count_430 count_431 count_432 count_433 count_434 count_435 count_436 count_437 count_438 count_439 count_440 count_441 count_442 count_443 count_444 count_445 count_446 count_447 count_448 count_449 count_450 count_451 count_452 count_453 count_454 count_455 count_456 count_457 count_458 count_459 count_460 count_461 count_462 count_463 count_464 count_465 count_466 count_467 count_468 count_469 count_470 count_471 count_472 count_473 count_474 count_475 count_476 count_477 count_478 count_479 count_480 count_481 count_482 count_483 count_484 count_485 count_486 count_487 count_488 count_489 count_490 count_491 count_492 count_493 count_494 count_495 count_496 count_497 count_498 count_499 count_500 count_501 count_502 count_503 count_504 count_505 count_506 count_507 count_508 count_509 count_510 count_511 count_512 count_513 count_514 count_515 count_516 count_517 count_518 count_519 count_520 count_521 count_522 count_523 count_524 count_525 count_526 count_527 count_528 count_529 count_530 count_531 count_532 count_533 count_534 count_535 count_536 count_537 count_538 count_539 count_540 count_541 count_542 count_543 count_544 count_545 count_546 count_547 count_548 count_549 count_550 count_551 count_552 count_553 count_554 count_555 count_556 count_557 count_558 count_559 count_560 count_561 count_562 count_563 count_564 count_565 count_566 count_567 count_568 count_569 count_570 count_571 count_572 count_573 count_574 count_575 count_576 count_577 count_578 count_579 count_580 count_581 count_582 count_583 count_584 count_585 count_586 count_587 count_588 count_589 count_590 count_591 count_592 count_593 count_594 count_595 count_596 count_597 count_598 count_599 count_600 count_601 count_602 count_603 count_604 count_605 count_606 count_607 count_608 count_609 count_610 count_611 count_612 count_613 count_614 count_615 count_616 count_617 count_618 count_619 count_620 count_621 count_622 count_623 count_624 count_625 count_626 count_627 count_628 count_629 count_630 count_631 count_632 count_633 count_634 count_635 count_636 count_637 count_638 count_639 count_640 count_641 count_642 count_643 count_644 count_645 count_646 count_647 count_648 count_649 count_650 count_651 count_652 count_653 count_654 count_655 count_656 count_657 count_658 count_659 count_660 count_661 count_662 count_663 count_664 count_665 count_666 count_667 count_668 count_669 count_670 count_671 count_672 count_673 count_674 count_675 count_676 count_677 count_678 count_679 count_680 count_681 count_682 count_683 count_684 count_685 count_686 count_687 count_688 count_689 count_690 count_691 count_692 count_693 count_694 count_695 count_696 count_697 count_698 count_699 count_700 count_701 count_702 count_703 count_704 count_705 count_706 count_707 count_708 count_709 count_710 count_711 count_712 count_713 count_714 count_715 count_716 count_717 count_718 count_719 count_720 count_721 count_722 count_723 count_724 count_725 count_726 count_727 count_728 count_729 count_730 count_731 count_732 count_733 count_734 count_735 count_736 count_737 count_738 count_739 count_740 count_741 count_742 count_743 count_744 count_745 count_746 count_747 count_748 count_749 count_750 count_751 count_752 count_753 count_754 count_755 count_756 count_757 count_758 count_759 count_760 count_761 count_762 count_763 count_764 count_765 count_766 count_767 count_768 count_769 count_770 count_771 count_772 count_773 count_774 count_775 count_776 count_777 count_778 count_779 count_780 count_781 count_782 count_783 count_784 count_785 count_786 count_787 count_788 count_789 count_790 count_791 count_792 count_793 count_794 count_795 count_796 count_797 count_798 count_799 count_800 count_801 count_802 count_803 count_804 count_805 count_806 count_807 count_808 count_809 count_810 count_811 count_812 count_813 count_814 count_815 count_816 count_817 count_818 count_819 count_820 count_821 count_822 count_823 count_824 count_825 count_826 count_827 count_828 count_829 count_830 count_831 count_832 count_833 count_834 count_835 count_836 count_837 count_838 count_839 count_840 count_841 count_842 count_843 count_844 count_845 count_846 count_847 count_848 count_849 count_850 count_851 count_852 count_853 count_854 count_855 count_856 count_857 count_858 count_859 count_860 count_861 count_862 count_863 count_864 count_865 count_866 count_867 count_868 count_869 count_870 count_871 count_872 count_873 count_874 count_875 count_876 count_877 count_878 count_879 count_880 count_881 count_882 count_883 count_884 count_885 count_886 count_887 count_888 count_889 count_890 count_891 count_892 count_893 count_894 count_895 count_896 count_897 count_898 count_899 count_900 count_901 count_902 count_903 count_904 count_905 count_906 count_907 count_908 count_909 count_910 count_911 count_912 count_913 count_914 count_915 count_916 count_917 count_918 count_919 count_920 count_921 count_922 count_923 count_924 count_925 count_926 count_927 count_928 count_929 count_930 count_931 count_932 count_933 count_934 count_935 count_936 count_937 count_938 count_939 count_940 count_941 count_942 count_943 count_944 count_945 count_946 count_947 count_948 count_949 count_950 count_951 count_952 count_953 count_954 count_955 count_956 count_957 count_958 count_959 count_960 count_961 count_962 count_963 count_964 count_965 count_966 count_967 count_968 count_969 count_970 count_971 count_972 count_973 count_974 count_975 count_976 count_977 count_978 count_979 count_980 count_981 count_982 count_983 count_984 count_985 count_986 count_987 count_988 count_989 count_990 count_991 count_992 count_993 count_994 count_995 count_996 count_997 count_998 count_999 count_1000 count_1001 count_1002 count_1003 count_1004 count_1005 count_1006 count_1007 count_1008 count_1009 count_1010 count_1011 count_1012 count_1013 count_1014 count_1015 count_1016 count_1017 count_1018 count_1019 count_1020 count_1021 count_1022 count_1023 count_1024 count_1025 count_1026 count_1027 count_1028 count_1029 count_1030 count_1031 count_1032 count_1033 count_1034 count_1035 count_1036 count_1037 count_1038 count_1039 count_1040 count_1041 count_1042 count_1043 count_1044 count_1045 count_1046 count_1047 count_1048 count_1049 count_1050 count_1051 count_1052 count_1053 count_1054 count_1055 count_1056 count_1057 count_1058 count_1059 count_1060 count_1061 count_1062 count_1063 count_1064 count_1065 count_1066 count_1067 count_1068 count_1069 count_1070 count_1071 count_1072 count_1073 count_1074 count_1075 count_1076 count_1077 count_1078 count_1079 count_1080 count_1081 count_1082 count_1083 count_1084 count_1085 count_1086 count_1087 count_1088 count_1089 count_1090 count_1091 count_1092 count_1093 count_1094 count_1095 count_1096 count_1097 count_1098 count_1099 count_1100 count_1101 count_1102 count_1103 count_1104 count_1105 count_1106 count_1107 count_1108 count_1109 count_1110 count_1111 count_1112 count_1113 count_1114 count_1115 count_1116 count_1117 count_1118 count_1119 count_1120 count_1121 count_1122 count_1123 count_1124 count_1125 count_1126 count_1127 count_1128 count_1129 count_1130 count_1131 count_1132 count_1133 count_1134 count_1135 count_1136 count_1137 count_1138 count_1139 count_1140 count_1141 count_1142 count_1143 count_1144 count_1145 count_1146 count_1147 count_1148 count_1149 count_1150 count_1151 count_1152 count_1153 count_1154 count_1155 count_1156 count_1157 count_1158 count_1159 count_1160 count_1161 count_1162 count_1163 count_1164 count_1165 count_1166 count_1167 count_1168 count_1169 count_1170 count_1171 count_1172 count_1173 count_1174 count_1175 count_1176 count_1177 count_1178 count_1179 count_1180 count_1181 count_1182 count_1183 count_1184 count_1185 count_1186 count_1187 count_1188 count_1189 count_1190 count_1191 count_1192 count_1193 count_1194 count_1195 count_1196 count_1197 count_1198 count_1199 count_1200 count_1201 count_1202 count_1203 count_1204 count_1205 count_1206 count_1207 count_1208 count_1209 count_1210 count_1211 count_1212 count_1213 count_1214 count_1215 count_1216 count_1217 count_1218 count_1219 count_1220 count_1221 count_1222 count_1223 count_1224 count_1225 count_1226 count_1227 count_1228 count_1229 count_1230 count_1231 count_1232 count_1233 count_1234 count_1235 count_1236 count_1237 count_1238 count_1239 count_1240 count_1241 count_1242 count_1243 count_1244 count_1245 count_1246 count_1247 count_1248 count_1249 count_1250 count_1251 count_1252 count_1253 count_1254 count_1255 count_1256 count_1257 count_1258 count_1259 count_1260 count_1261 count_1262 count_1263 count_1264 count_1265 count_1266 count_1267 count_1268 count_1269 count_1270 count_1271 count_1272 count_1273 count_1274 count_1275 count_1276 count_1277 count_1278 count_1279 count_1280 count_1281 count_1282 count_1283 count_1284 count_1285 count_1286 count_1287 count_1288 count_1289 count_1290 count_1291 count_1292 count_1293 count_1294 count_1295 count_1296 count_1297 count_1298 count_1299 count_1300 count_1301 count_1302 count_1303 count_1304 count_1305 count_1306 count_1307 count_1308 count_1309 count_1310 count_1311 count_1312 count_1313 count_1314 count_1315 count_1316 count_1317 count_1318 count_1319 count_1320 count_1321 count_1322 count_1323 count_1324 count_1325 count_1326 count_1327 count_1328 count_1329 count_1330 count_1331 count_1332 count_1333 count_1334 count_1335 count_1336 count_1337 count_1338 count_1339 count_1340 count_1341 count_1342 count_1343 count_1344 count_1345 count_1346 count_1347 count_1348 count_1349 count_1350 count_1351 count_1352 count_1353 count_1354 count_1355 count_1356 count_1357 count_1358 count_1359 count_1360 count_1361 count_1362 count_1363 count_1364 count_1365 count_1366 count_1367 count_1368 count_1369 count_1370 count_1371 count_1372 count_1373 count_1374 count_1375 count_1376 count_1377 count_1378 count_1379 count_1380 count_1381 count_1382 count_1383 count_1384 count_1385 count_1386 count_1387 count_1388 count_1389 count_1390 count_1391 count_1392 count_1393 count_1394 count_1395 count_1396 count_1397 count_1398 count_1399 count_1400 count_1401 count_1402 count_1403 count_1404 count_1405 count_1406 count_1407 count_1408 count_1409 count_1410 count_1411 count_1412 count_1413 count_1414 count_1415 count_1416 count_1417 count_1418 count_1419 count_1420 count_1421 count_1422 count_1423 count_1424 count_1425 count_1426 count_1427 count_1428 count_1429 count_1430 count_1431 count_1432 count_1433 count_1434 count_1435 count_1436 count_1437 count_1438 count_1439 count_1440 count_1441 count_1442 count_1443 count_1444 count_1445 count_1446 count_1447 count_1448 count_1449 count_1450 count_1451 count_1452 count_1453 count_1454 count_1455 count_1456 count_1457 count_1458 count_1459 count_1460 count_1461 count_1462 count_1463 count_1464 count_1465 count_1466 count_1467 count_1468 count_1469 count_1470 count_1471 count_1472 count_1473 count_1474 count_1475 count_1476 count_1477 count_1478 count_1479 count_1480 count_1481 count_1482 count_1483 count_1484 count_1485 count_1486 count_1487 count_1488 count_1489 count_1490 count_1491 count_1492 count_1493 count_1494 count_1495 count_1496 count_1497 count_1498 count_1499 count_1500 count_1501 count_1502 count_1503 count_1504 count_1505 count_1506 count_1507 count_1508 count_1509 count_1510 count_1511 count_1512 count_1513 count_1514 count_1515 count_1516 count_1517 count_1518 count_1519 count_1520 count_1521 count_1522 count_1523 count_1524 count_1525 count_1526 count_1527 count_1528 count_1529 count_1530 count_1531 count_1532 count_1533 count_1534 count_1535 count_1536 count_1537 count_1538 count_1539 count_1540 count_1541 count_1542 count_1543 count_1544 count_1545 count_1546 count_1547 count_1548 count_1549 count_1550 count_1551 count_1552 count_1553 count_1554 count_1555 count_1556 count_1557 count_1558 count_1559 count_1560 count_1561 count_1562 count_1563 count_1564 count_1565 count_1566 count_1567 count_1568 count_1569 count_1570 count_1571 count_1572 count_1573 count_1574 count_1575 count_1576 count_1577 count_1578 count_1579 count_1580 count_1581 count_1582 count_1583 count_1584 count_1585 count_1586 count_1587 count_1588 count_1589 count_1590 count_1591 count_1592 count_1593 count_1594 count_1595 count_1596 count_1597 count_1598 count_1599 count_1600 count_1601 count_1602 count_1603 count_1604 count_1605 count_1606 count_1607 count_1608 count_1609 count_1610 count_1611 count_1612 count_1613 count_1614 count_1615 count_1616 count_1617 count_1618 count_1619 count_1620 count_1621 count_1622 count_1623 count_1624 count_1625 count_1626 count_1627 count_1628 count_1629 count_1630 count_1631 count_1632 count_1633 count_1634 count_1635 count_1636 count_1637 count_1638 count_1639 count_1640 count_1641 count_1642 count_1643 count_1644 count_1645 count_1646 count_1647 count_1648 count_1649 count_1650 count_1651 count_1652 count_1653 count_1654 count_1655 count_1656 count_1657 count_1658 count_1659 count_1660 count_1661 count_1662 count_1663 count_1664 count_1665 count_1666 count_1667 count_1668 count_1669 count_1670 count_1671 count_1672 count_1673 count_1674 count_1675 count_1676 count_1677 count_1678 count_1679 count_1680 count_1681 count_1682 count_1683 count_1684 count_1685 count_1686 count_1687 count_1688 count_1689 count_1690 count_1691 count_1692 count_1693 count_1694 count_1695 count_1696 count_1697 count_1698 count_1699 count_1700 count_1701 count_1702 count_1703 count_1704 count_1705 count_1706 count_1707 count_1708 count_1709 count_1710 count_1711 count_1712 count_1713 count_1714 count_1715 count_1716 count_1717 count_1718 count_1719 count_1720 count_1721 count_1722 count_1723 count_1724 count_1725 count_1726 count_1727 count_1728 count_1729 count_1730 count_1731 count_1732 count_1733 count_1734 count_1735 count_1736 count_1737 count_1738 count_1739 count_1740 count_1741 count_1742 count_1743 count_1744 count_1745 count_1746 count_1747 count_1748 count_1749 count_1750 count_1751 count_1752 count_1753 count_1754 count_1755 count_1756 count_1757 count_1758 count_1759 count_1760 count_1761 count_1762 count_1763 count_1764 count_1765 count_1766 count_1767 count_1768 count_1769 count_1770 count_1771 count_1772 count_1773 count_1774 count_1775 count_1776 count_1777 count_1778 count_1779 count_1780 count_1781 count_1782 count_1783 count_1784 count_1785 count_1786 count_1787 count_1788 count_1789 count_1790 count_1791 count_1792 count_1793 count_1794 count_1795 count_1796 count_1797 count_1798 count_1799 count_1800 count_1801 count_1802 count_1803 count_1804 count_1805 count_1806 count_1807 count_1808 count_1809 count_1810 count_1811 count_1812 count_1813 count_1814 count_1815 count_1816 count_1817 count_1818 count_1819 count_1820 count_1821 count_1822 count_1823 count_1824 count_1825 count_1826 count_1827 count_1828 count_1829 count_1830 count_1831 count_1832 count_1833 count_1834 count_1835 count_1836 count_1837 count_1838 count_1839 count_1840 count_1841 count_1842 count_1843 count_1844 count_1845 count_1846 count_1847 count_1848 count_1849 count_1850 count_1851 count_1852 count_1853 count_1854 count_1855 count_1856 count_1857 count_1858 count_1859 count_1860 count_1861 count_1862 count_1863 count_1864 count_1865 count_1866 count_1867 count_1868 count_1869 count_1870 count_1871 count_1872 count_1873 count_1874 count_1875 count_1876 count_1877 count_1878 count_1879 count_1880 count_1881 count_1882 count_1883 count_1884 count_1885 count_1886 count_1887 count_1888 count_1889 count_1890 count_1891 count_1892 count_1893 count_1894 count_1895 count_1896 count_1897 count_1898 count_1899 count_1900 count_1901 count_1902 count_1903 count_1904 count_1905 count_1906 count_1907 count_1908 count_1909 count_1910 count_1911 count_1912 count_1913 count_1914 count_1915 count_1916 count_1917 count_1918 count_1919 count_1920 count_1921 count_1922 count_1923 count_1924 count_1925 count_1926 count_1927 count_1928 count_1929 count_1930 count_1931 count_1932 count_1933 count_1934 count_1935 count_1936 count_1937 count_1938 count_1939 count_1940 count_1941 count_1942 count_1943 count_1944 count_1945 count_1946 count_1947 count_1948 count_1949 count_1950 count_1951 count_1952 count_1953 count_1954 count_1955 count_1956 count_1957 count_1958 count_1959 count_1960 count_1961 count_1962 count_1963 count_1964 count_1965 count_1966 count_1967 count_1968 count_1969 count_1970 count_1971 count_1972 count_1973 count_1974 count_1975 count_1976 count_1977 count_1978 count_1979 count_1980 count_1981 count_1982 count_1983 count_1984 count_1985 count_1986 count_1987 count_1988 count_1989 count_1990 count_1991 count_1992 count_1993 count_1994 count_1995 count_1996 count_1997 count_1998 count_1999 count_2000 count_2001 count_2002 count_2003 count_2004 count_2005 count_2006 count_2007 count_2008 count_2009 count_2010 count_2011 count_2012 count_2013 count_2014 count_2015 count_2016 count_2017 count_2018 count_2019 count_2020 count_2021 count_2022 count_2023 count_2024 count_2025 count_2026 count_2027 count_2028 count_2029 count_2030 count_2031 count_2032 count_2033 count_2034 count_2035 count_2036 count_2037 count_2038 count_2039 count_2040 count_2041 count_2042 count_2043 count_2044 count_2045 count_2046 count_2047 count_2048 count_2049 count_2050 count_2051 count_2052 count_2053 count_2054 count_2055 count_2056 count_2057 count_2058 count_2059 count_2060 count_2061 count_2062 count_2063 count_2064 count_2065 count_2066 count_2067 count_2068 count_2069 count_2070 count_2071 count_2072 count_2073 count_2074 count_2075 count_2076 count_2077 count_2078 count_2079 count_2080 count_2081 count_2082 count_2083 count_2084 count_2085 count_2086 count_2087 count_2088 count_2089 count_2090 count_2091 count_2092 count_2093 count_2094 count_2095 count_2096 count_2097 count_2098 count_2099 count_2100 count_2101 count_2102 count_2103 count_2104 count_2105 count_2106 count_2107 count_2108 count_2109 count_2110 count_2111 count_2112 count_2113 count_2114 count_2115 count_2116 count_2117 count_2118 count_2119 count_2120 count_2121 count_2122 count_2123 count_2124 count_2125 count_2126 count_2127 count_2128 count_2129 count_2130 count_2131 count_2132 count_2133 count_2134 count_2135 count_2136 count_2137 count_2138 count_2139 count_2140 count_2141 count_2142 count_2143 count_2144 count_2145 count_2146 count_2147 count_2148 count_2149 count_2150 count_2151 count_2152 count_2153 count_2154 count_2155 count_2156 count_2157 count_2158 count_2159 count_2160 count_2161 count_2162 count_2163 count_2164 count_2165 count_2166 count_2167 count_2168 count_2169 count_2170 count_2171 count_2172 count_2173 count_2174 count_2175 count_2176 count_2177 count_2178 count_2179 count_2180 count_2181 count_2182 count_2183 count_2184 count_2185 count_2186 count_2187 count_2188 count_2189 count_2190 count_2191 count_2192 count_2193 count_2194 count_2195 count_2196 count_2197 count_2198 count_2199 count_2200 count_2201 count_2202 count_2203 count_2204 count_2205 count_2206 count_2207 count_2208 count_2209 count_2210 count_2211 count_2212 count_2213 count_2214 count_2215 count_2216 count_2217 count_2218 count_2219 count_2220 count_2221 count_2222 count_2223 count_2224 count_2225 count_2226 count_2227 count_2228 count_2229 count_2230 count_2231 count_2232 count_2233 count_2234 count_2235 count_2236 count_2237 count_2238 count_2239 count_2240 count_2241 count_2242 count_2243 count_2244 count_2245 count_2246 count_2247 count_2248 count_2249 count_2250 count_2251 count_2252 count_2253 count_2254 count_2255 count_2256 count_2257 count_2258 count_2259 count_2260 count_2261 count_2262 count_2263 count_2264 count_2265 count_2266 count_2267 count_2268 count_2269 count_2270 count_2271 count_2272 count_2273 count_2274 count_2275 count_2276 count_2277 count_2278 count_2279 count_2280 count_2281 count_2282 count_2283 count_2284 count_2285 count_2286 count_2287 count_2288 count_2289 count_2290 count_2291 count_2292 count_2293 count_2294 count_2295 count_2296 count_2297 count_2298 count_2299 count_2300 count_2301 count_2302 count_2303 count_2304 count_2305 count_2306 count_2307 count_2308 count_2309 count_2310 count_2311 count_2312 count_2313 count_2314 count_2315 count_2316 count_2317 count_2318 count_2319 count_2320 count_2321 count_2322 count_2323 count_2324 count_2325 count_2326 count_2327 count_2328 count_2329 count_2330 count_2331 count_2332 count_2333 count_2334 count_2335 count_2336 count_2337 count_2338 count_2339 count_2340 count_2341 count_2342 count_2343 count_2344 count_2345 count_2346 count_2347 count_2348 count_2349 count_2350 count_2351 count_2352 count_2353 count_2354 count_2355 count_2356 count_2357 count_2358 count_2359 count_2360 count_2361 count_2362 count_2363 count_2364 count_2365 count_2366 count_2367 count_2368 count_2369 count_2370 count_2371 count_2372 count_2373 count_2374 count_2375 count_2376 count_2377 count_2378 count_2379 count_2380 count_2381 count_2382 count_2383 count_2384 count_2385 count_2386 count_2387 count_2388 count_2389 count_2390 count_2391 count_2392 count_2393 count_2394 count_2395 count_2396 count_2397 count_2398 count_2399 count_2400 count_2401 count_2402 count_2403 count_2404 count_2405 count_2406 count_2407 count_2408 count_2409 count_2410 count_2411 count_2412 count_2413 count_2414 count_2415 count_2416 count_2417 count_2418 count_2419 count_2420 count_2421 count_2422 count_2423 count_2424 count_2425 count_2426 count_2427 count_2428 count_2429 count_2430 count_2431 count_2432 count_2433 count_2434 count_2435 count_2436 count_2437 count_2438 count_2439 count_2440 count_2441 count_2442 count_2443 count_2444 count_2445 count_2446 count_2447 count_2448 count_2449 count_2450 count_2451 count_2452 count_2453 count_2454 count_2455 count_2456 count_2457 count_2458 count_2459 count_2460 count_2461 count_2462 count_2463 count_2464 count_2465 count_2466 count_2467 count_2468 count_2469 count_2470 count_2471 count_2472 count_2473 count_2474 count_2475 count_2476 count_2477 count_2478 count_2479 count_2480 count_2481 count_2482 count_2483 count_2484 count_2485 count_2486 count_2487 count_2488 count_2489 count_2490 count_2491 count_2492 count_2493 count_2494 count_2495 count_2496 count_2497 count_2498 count_2499 count_2500 count_2501 count_2502 count_2503 count_2504 count_2505 count_2506 count_2507 count_2508 count_2509 count_2510 count_2511 count_2512 count_2513 count_2514 count_2515 count_2516 count_2517 count_2518 count_2519 count_2520 count_2521 count_2522 count_2523 count_2524 count_2525 count_2526 count_2527 count_2528 count_2529 count_2530 count_2531 count_2532 count_2533 count_2534 count_2535 count_2536 count_2537 count_2538 count_2539 count_2540 count_2541 count_2542 count_2543 count_2544 count_2545 count_2546 count_2547 count_2548 count_2549 count_2550 count_2551 count_2552 count_2553 count_2554 count_2555 count_2556 count_2557 count_2558 count_2559 count_2560 count_2561 count_2562 count_2563 count_2564 count_2565 count_2566 count_2567 count_2568 count_2569 count_2570 count_2571 count_2572 count_2573 count_2574 count_2575 count_2576 count_2577 count_2578 count_2579 count_2580 count_2581 count_2582 count_2583 count_2584 count_2585 count_2586 count_2587 count_2588 count_2589 count_2590 count_2591 count_2592 count_2593 count_2594 count_2595 count_2596 count_2597 count_2598 count_2599 count_2600 count_2601 count_2602 count_2603 count_2604 count_2605 count_2606 count_2607 count_2608 count_2609 count_2610 count_2611 count_2612 count_2613 count_2614 count_2615 count_2616 count_2617 count_2618 count_2619 count_2620 count_2621 count_2622 count_2623 count_2624 count_2625 count_2626 count_2627 count_2628 count_2629 count_2630 count_2631 count_2632 count_2633 count_2634 count_2635 count_2636 count_2637 count_2638 count_2639 count_2640 count_2641 count_2642 count_2643 count_2644 count_2645 count_2646 count_2647 count_2648 count_2649 count_2650 count_2651 count_2652 count_2653 count_2654 count_2655 count_2656 count_2657 count_2658 count_2659 count_2660 count_2661 count_2662 count_2663 count_2664 count_2665 count_2666 count_2667 count_2668 count_2669 count_2670 count_2671 count_2672 count_2673 count_2674 count_2675 count_2676 count_2677 count_2678 count_2679 count_2680 count_2681 count_2682 count_2683 count_2684 count_2685 count_2686 count_2687 count_2688 count_2689 count_2690 count_2691 count_2692 count_2693 count_2694 count_2695 count_2696 count_2697 count_2698 count_2699 count_2700 count_2701 count_2702 count_2703 count_2704 count_2705 count_2706 count_2707 count_2708 count_2709 count_2710 count_2711 count_2712 count_2713 count_2714 count_2715 count_2716 count_2717 count_2718 count_2719 count_2720 count_2721 count_2722 count_2723 count_2724 count_2725 count_2726 count_2727 count_2728 count_2729 count_2730 count_2731 count_2732 count_2733 count_2734 count_2735 count_2736 count_2737 count_2738 count_2739 count_2740 count_2741 count_2742 count_2743 count_2744 count_2745 count_2746 count_2747 count_2748 count_2749 count_2750 count_2751 count_2752 count_2753 count_2754 count_2755 count_2756 count_2757 count_2758 count_2759 count_2760 count_2761 count_2762 count_2763 count_2764 count_2765 count_2766 count_2767 count_2768 count_2769 count_2770 count_2771 count_2772 count_2773 count_2774 count_2775 count_2776 count_2777 count_2778 count_2779 count_2780 count_2781 count_2782 count_2783 count_2784 count_2785 count_2786 count_2787 count_2788 count_2789 count_2790 count_2791 count_2792 count_2793 count_2794 count_2795 count_2796 count_2797 count_2798 count_2799 count_2800 count_2801 count_2802 count_2803 count_2804 count_2805 count_2806 count_2807 count_2808 count_2809 count_2810 count_2811 count_2812 count_2813 count_2814 count_2815 count_2816 count_2817 count_2818 count_2819 count_2820 count_2821 count_2822 count_2823 count_2824 count_2825 count_2826 count_2827 count_2828 count_2829 count_2830 count_2831 count_2832 count_2833 count_2834 count_2835 count_2836 count_2837 count_2838 count_2839 count_2840 count_2841 count_2842 count_2843 count_2844 count_2845 count_2846 count_2847 count_2848 count_2849 count_2850 count_2851 count_2852 count_2853 count_2854 count_2855 count_2856 count_2857 count_2858 count_2859 count_2860 count_2861 count_2862 count_2863 count_2864 count_2865 count_2866 count_2867 count_2868 count_2869 count_2870 count_2871 count_2872 count_2873 count_2874 count_2875 count_2876 count_2877 count_2878 count_2879 count_2880 count_2881 count_2882 count_2883 count_2884 count_2885 count_2886 count_2887 count_2888 count_2889 count_2890 count_2891 count_2892 count_2893 count_2894 count_2895 count_2896 count_2897 count_2898 count_2899 count_2900 count_2901 count_2902 count_2903 count_2904 count_2905 count_2906 count_2907 count_2908 count_2909 count_2910 count_2911 count_2912 count_2913 count_2914 count_2915 count_2916 count_2917 count_2918 count_2919 count_2920 count_2921 count_2922 count_2923 count_2924 count_2925 count_2926 count_2927 count_2928 count_2929 count_2930 count_2931 count_2932 count_2933 count_2934 count_2935 count_2936 count_2937 count_2938 count_2939 count_2940 count_2941 count_2942 count_2943 count_2944 count_2945 count_2946 count_2947 count_2948 count_2949 count_2950 count_2951 count_2952 count_2953 count_2954 count_2955 count_2956 count_2957 count_2958 count_2959 count_2960 count_2961 count_2962 count_2963 count_2964 count_2965 count_2966 count_2967 count_2968 count_2969 count_2970 count_2971 count_2972 count_2973 count_2974 count_2975 count_2976 count_2977 count_2978 count_2979 count_2980 count_2981 count_2982 count_2983 count_2984 count_2985 count_2986 count_2987 count_2988 count_2989 count_2990 count_2991 count_2992 count_2993 count_2994 count_2995 count_2996 count_2997 count_2998 count_2999 count_3000 count_3001 count_3002 count_3003 count_3004 count_3005 count_3006 count_3007 count_3008 count_3009 count_3010 count_3011 count_3012 count_3013 count_3014 count_3015 count_3016 count_3017 count_3018 count_3019 count_3020 count_3021 count_3022 count_3023 count_3024 count_3025 count_3026 count_3027 count_3028 count_3029 count_3030 count_3031 count_3032 count_3033 count_3034 count_3035 count_3036 count_3037 count_3038 count_3039 count_3040 count_3041 count_3042 count_3043 count_3044 count_3045 count_3046 count_3047 count_3048 count_3049 count_3050 count_3051 count_3052 count_3053 count_3054 count_3055 count_3056 count_3057 count_3058 count_3059 count_3060 count_3061 count_3062 count_3063 count_3064 count_3065 count_3066 count_3067 count_3068 count_3069 count_3070 count_3071 count_3072 count_3073 count_3074 count_3075 count_3076 count_3077 count_3078 count_3079 count_3080 count_3081 count_3082 count_3083 count_3084 count_3085 count_3086 count_3087 count_3088 count_3089 count_3090 count_3091 count_3092 count_3093 count_3094 count_3095 count_3096 count_3097 count_3098 count_3099 count_3100 count_3101 count_3102 count_3103 count_3104 count_3105 count_3106 count_3107 count_3108 count_3109 count_3110 count_3111 count_3112 count_3113 count_3114 count_3115 count_3116 count_3117 count_3118 count_3119 count_3120 count_3121 count_3122 count_3123 count_3124 count_3125 count_3126 count_3127 count_3128 count_3129 count_3130 count_3131 count_3132 count_3133 count_3134 count_3135 count_3136 count_3137 count_3138 count_3139 count_3140 count_3141 count_3142 count_3143 count_3144 count_3145 count_3146 count_3147 count_3148 count_3149 count_3150 count_3151 count_3152 count_3153 count_3154 count_3155 count_3156 count_3157 count_3158 count_3159 count_3160 count_3161 count_3162 count_3163 count_3164 count_3165 count_3166 count_3167 count_3168 count_3169 count_3170 count_3171 count_3172 count_3173 count_3174 count_3175 count_3176 count_3177 count_3178 count_3179 count_3180 count_3181 count_3182 count_3183 count_3184 count_3185 count_3186 count_3187 count_3188 count_3189 count_3190 count_3191 count_3192 count_3193 count_3194 count_3195 count_3196 count_3197 count_3198 count_3199 count_3200 count_3201 count_3202 count_3203 count_3204 count_3205 count_3206 count_3207 count_3208 count_3209 count_3210 count_3211 count_3212 count_3213 count_3214 count_3215 count_3216 count_3217 count_3218 count_3219 count_3220 count_3221 count_3222 count_3223 count_3224 count_3225 count_3226 count_3227 count_3228 count_3229 count_3230 count_3231 count_3232 count_3233 count_3234 count_3235 count_3236 count_3237 count_3238 count_3239 count_3240 count_3241 count_3242 count_3243 count_3244 count_3245 count_3246 count_3247 count_3248 count_3249 count_3250 count_3251 count_3252 count_3253 count_3254 count_3255 count_3256 count_3257 count_3258 count_3259 count_3260 count_3261 count_3262 count_3263 count_3264 count_3265 count_3266 count_3267 count_3268 count_3269 count_3270 count_3271 count_3272 count_3273 count_3274 count_3275 count_3276 count_3277 count_3278 count_3279 count_3280 count_3281 count_3282 count_3283 count_3284 count_3285 count_3286 count_3287 count_3288 count_3289 count_3290 count_3291 count_3292 count_3293 count_3294 count_3295 count_3296 count_3297 count_3298 count_3299 count_3300 count_3301 count_3302 count_3303 count_3304 count_3305 count_3306 count_3307 count_3308 count_3309 count_3310 count_3311 count_3312 count_3313 count_3314 count_3315 count_3316 count_3317 count_3318 count_3319 count_3320 count_3321 count_3322 count_3323 count_3324 count_3325 count_3326 count_3327 count_3328 count_3329 count_3330 count_3331 count_3332 count_3333 count_3334 count_3335 count_3336 count_3337 count_3338 count_3339
feature_infos=[3:58] [39.5:670.66666666666663] [14.574240862975545:543.14761652181937] [3.75:467] [35.5:880] [54:979] [87:1078] [8:127.33333333333333] [2.9110752265029114:101.64808573373791] [1.5:91.5] [7:172] [10.75:185.5] [17:199] [3:54] [3:51] [2:45] [1:41] [1:53] [44.433962264150942:2727] [0:6077.346005962675] [8.25:2727] [14:2727] [55:2727] [1:2727] [94:16367] [8.7735849056603765:2117.7142857142858] [0:5298.1554247456634] [2.5:527] [4:527] [11:1183] [1:527] [19:14128] [154:2379] [1.3791509037410676:5.6363636363636367] [1.194324588016779:16.706145031546612] [1:4] [1:5] [1:8] [9:268] [42:479] [24:375] [13:270] [2:184] [2:129] [0:68] [0:42] [0:22] [0:0.28373252713677743] [0:0.28373252713677743] [0:0.36204263469327019] [0:0.35907066318138198] [0:0.37704302519744087] [0:0.42669598953434307] [0:0.58226488457994319] none [0:0.86058141068555294] [0:0.34012176704580244] [0:0.28987671082599786] none none [0:0.58959868760038736] [0:0.53615573668092631] [0:0.33811429527136783] [0:0.40990363041585559] [0:0.35963822526535222] [0:0.56620967851405524] [0:0.31181092547307149] [0:0.38450807362152656] none [0:0.43238630361790875] [0:0.60904174065134142] [0:0.3081985267058196] [0:0.35403928359450815] [0:0.45158476734315089] [0:0.38573655633844228] [0:0.54359055554336821] [0:0.39749252206757169] [0:0.37852941272322005] [0:0.30336859244921283] [0:0.35852597989072432] none [0:0.32704631764497949] [0:0.32314361897835031] [0:0.4378882594805702] [0:0.39936421580601694] [0:0.51570299735619018] [0:0.46404182914766301] none [0:0.37144857367187512] [0:0.40480561429753509] [0:0.36201680533496866] [0:0.45076428633164389] [0:0.39824809091900404] [0:0.3924833716358892] [0:0.30005714728197297] [0:0.36657686252524457] [0:0.40710134043988677] [0:0.37385247093924129] [0:0.43552321208576805] [0:0.43406073397725053] [0:0.43914312655469601] none [0:0.44124880135777789] [0:0.37855291010679221] [0:0.33258141620783782] [0:0.33982297843082759] [0:0.45552664922393005] [0:0.33404943449359653] [0:0.61286909216281882] [0:0.53021496579131078] [0:0.33751815892962139] [0:0.42302823500961195] [0:0.5635749252925687] [0:0.39676390575040416] [0:0.44270195995622508] [0:0.42750299554113741] [0:0.42035343185872093] none [0:0.39215136576716164] [0:0.38462648089086721] [0:0.57290494609010989] none [0:0.32005530173938485] [0:0.55408607638755514] [0:0.39401898673063118] [0:0.47941358364736869] [0:0.35247321894979844] [0:0.38879174667541677] [0:0.47062950872999781] [0:0.49218334329112945] [0:0.4345940741024325] [0:0.37429563685236589] [0:0.56999430232195958] none [0:0.45985187279763623] [0:0.43816531314878354] [0:0.33529541078576142] [0:0.44474574720178572] [0:0.47075454961907404] [0:0.41267164813799462] [0:0.46955153889281759] [0:0.32665229192900236] [0:0.36572795545006331] [0:0.35279556155297281] [0:0.33671823175456317] [0:0.50708365339507377] [0:0.41244905425899409] [0:0.24515837638411822] [0:0.20891712961198994] [0:0.51816736268204489] [0:0.52572211142571068] [0:0.20580977810374462] [0:0.16850777802410721] [0:0.20241121621854485] [0:0.19176524586090915] [0:0.20305621130813045] [0:0.17286433213610908] [0:0.19644583822611039] [0:0.17675678592543803] [0:0.16598593075466841] [0:0.19711730469806538] [0:0.18217813008746078] [0:0.18606883914162511] [0:0.18563770985266878] [0:0.24393575427751502] [0:0.20971466597514107] [0:0.17653518551073155] [0:0.20094859249815436] [0:0.26358527310408536] [0:0.28874720860148512] [0:0.29949873255395326] [0:0.21820329440126504] [0:0.23209885317032455] [0:0.225861329549471] [0:0.19949064354766574] [0:0.19343534863126671] [0:0.19616464014636895] [0:0.2161150561518323] [0:0.17964605521794602] [0:0.17181762963372066] [0:0.17577626677505179] [0:0.19462519188969638] [0:0.19513505201852688] [0:0.1805246753560889] [0:0.17511175528839512] [0:0.30239658419981119] [0:0.19347717139049869] [0:0.22046760748255237] [0:0.17623264289288953] [0:0.18777090743790509] [0:0.18259919702104557] [0:0.2233971137624991] [0:0.18186014644155021] [0:0.16988164206401846] [0:0.19776211891947937] [0:0.19821999010282645] [0:0.18043224293388499] [0:0.21091445028574757] [0:0.19210358810048059] [0:0.18196371960290447] [0:0.17547517225858711] [0:0.17142479250030623] [0:0.17384642190068994] [0:0.192247125724928] [0:0.20435936353946726] [0:0.21259356301438687] [0:0.21193964459617781] [0:0.19999492277476258] [0:0.16675951270247685] [0:0.19239579595382733] [0:0.18772658521042909] [0:0.17349198059662554] [0:0.17689848261827953] [0:0.17689494641370193] [0:0.19420774717205705] [0:0.17498621844606899] [0:0.18908589399896061] [0:0.19500805422319326] [0:0.19781201114071995] [0:0.20009035537410536] [0:0.20049000545038617] [0:0.18263090648593724] [0:0.194662624992163] [0:0.18958971649040349] [0:0.1965999113630226] [0:0.1898922494303881] [0:0.17757446499049059] [0:0.18664620226321021] [0:0.17610646127561891] [0:0.20096421562154923] [0:0.17001876155737089] [0:0.19354539641765936] [0:0.17722557955077403] [0:0.21128263876456405] [0:0.1815810366026363] [0:0.21350271043456046] [0:0.21577141016662243] [0:0.19840713044339797] [0:0.22201099722460441] [0:0.17013215797790773] [0:0.18989327985768323] [0:0.20733492376737706] [0:0.19590363164459471] [0:0.17337599882398175] [0:0.19775299479412689] [0:0.26061224156253343] [0:0.28874720860148512] [0:104] [0:52] [0:23] [0:11] [0:3] [0:2] [0:4] [0:2] [0:3] [0:2] [0:8] [0:2] [0:3] [0:2] [0:4] [0:2] [0:3] [0:9] [0:3] [0:6] [0:23] [0:11] [0:3] [0:10] [0:3] [0:2] [0:4] [0:4] [0:2] [0:3] [0:2] [0:2] [0:8] [0:4] [0:3] [0:3] [0:2] [0:2] [0:3] [0:2] [0:2] [0:4] [0:3] [0:2] [0:3] [0:2] [0:2] [0:9] [0:9] [0:2] [0:3] [0:6] [0:5] [0:12444] [0:10370] [0:2074] [0:18] [0:12] [0:3] [0:3] [0:6] [0:2] [0:5] [0:2] [0:8] [0:9] [0:29] [0:25] [0:16] [0:11] [0:7] [0:6] [0:7] [0:6] [0:5] [0:4] [0:8] [0:7] [0:4] [0:4] [0:3] [0:3] [0:2] [0:2] [0:2] [0:2] [0:16] [0:4] [0:10] [0:2] [0:5] [0:9] [0:6] [0:3] [0:3] [0:4] [0:2] [0:7] [0:3] [0:5] [0:6] [0:21] [0:9] [0:5] [0:21] [0:7] [0:4] [0:3] [0:7] [0:20] [0:19] [0:19] [0:7] [0:3] [0:5] [0:15] [0:15] [0:4] [0:5] [0:5] [0:4] [0:4] [0:6] [0:4] [0:5] [0:3] [0:4] [0:43] [0:35] [0:4] [0:7] [0:8] [0:10] [0:10] [0:2] [0:4] [0:22] [0:5] [0:22] [0:19] [0:17] [0:2] [0:4] [0:8] [0:12] [0:11] [0:2] [0:4] [0:6] [0:4] [0:2] [0:16] [0:5] [0:4] [0:4] [0:12] [0:7] [0:4] [0:16] [0:15] [0:2] [0:9] [0:5] [0:5] [0:13] [0:20] [0:4] [0:17] [0:4] [0:5] [0:5] [0:39] [0:39] [0:6] [0:12] [0:4] [0:10] [0:6] [0:6] [0:3] [0:12] [0:3] [0:12] [0:15] [0:10] [0:8] [0:8] [0:6] [0:4] [0:8] [0:21] [0:6] [0:5] [0:24] [0:11] [0:9] [0:23] [0:5] [0:5] [0:10] [0:9] [0:5] [0:9] [0:7] [0:12] [0:15] [0:43] [0:5] [0:20] [0:11] [0:21] [0:10] [0:8] [0:11] [0:11] [0:18] [0:25] [0:33] [0:5] [0:11] [0:6] [0:6] [0:4] [0:45] [0:19] [0:12] [0:3] [0:3] [0:3] [0:21] [0:25] [0:3] [0:16] [0:13] [0:7] [0:5] [0:20] [0:9] [0:14] [0:40] [0:10] [0:11] [0:9] [0:24] [0:8] [0:22] [0:11] [0:16] [0:11] [0:10] [0:12] [0:12] [0:6] [0:11] [0:14] [0:13] [0:13] [0:18] [0:13] [0:17] [0:12] [0:14] [0:21] [0:17] [0:11] [0:19] [0:11] [0:9] [0:21] [0:10] [0:9] [0:9] [0:16] [0:6] [0:21] [0:9] [0:7] [0:5] [0:5] [0:23] [0:5] [0:17] [0:9] [0:16] [0:5] [0:6] [0:13] [0:22] [0:9] [0:15] [0:18] [0:16] [0:23] [0:8] [0:6] [0:6] [0:4] [0:25] [0:10] [0:14] [0:7] [0:19] [0:13] [0:14] [0:14] [0:10] [0:3] [0:5] [0:16] [0:20] [0:11] [0:40] [0:26] [0:4] [0:13] [0:10] [0:26] [0:8] [0:14] [0:5] [0:5] [0:4] [0:29] [0:12] [0:7] [0:21] [0:46] [0:6] [0:22] [0:7] [0:43] [0:21] [0:25] [0:21] [0:26] [0:6] [0:40] [0:5] [0:39] [0:4] [0:2074] [0:2072] [0:16] [0:10] [0:47] [0:10] [0:10] [0:25] [0:9] [0:3] [0:4] [0:6] [0:3] [0:3] [0:3] [0:6] [0:6] [0:4] [0:3] [0:3] [0:8] [0:6] [0:3] [0:8] [0:2] [0:2] [0:6] [0:5] [0:4] [0:2] [0:5] [0:2] [0:6] [0:6] [0:37] [0:7] [0:3] [0:7] [0:7] [0:6] [0:6] [0:20] [0:17] [0:14] [0:14] [0:9] [0:9] [0:6] [0:7] [0:7] [0:2] [0:2] [0:64] [0:8] [0:5] [0:8] [0:18] [0:8] [0:3] [0:4] [0:3] [0:3] [0:2] [0:4] [0:8] [0:2] [0:3] [0:4] [0:3] [0:8] [0:5] [0:4] [0:7] [0:11] [0:2] [0:7] [0:8] [0:8] [0:7] [0:5] [0:5] [0:13] [0:6] [0:4] [0:3] [0:4] [0:4] [0:3] [0:39] [0:39] [0:2] [0:8] [0:8] [0:7] [0:7] [0:4] [0:3] [0:4] [0:4] [0:6] [0:21] [0:2] [0:8] [0:4] [0:4] [0:3] [0:5] [0:6] [0:18] [0:4] [0:9] [0:11] [0:3] [0:4] [0:5] [0:14] [0:9] [0:7] [0:10] [0:4] [0:5] [0:4] [0:24] [0:7] [0:3] [0:4] [0:2] [0:3] [0:11] [0:4] [0:5] [0:4] [0:4] [0:11] [0:4] [0:3] [0:2] [0:2] [0:6] [0:3] [0:8] [0:6] [0:8] [0:4] [0:2] [0:4] [0:4] [0:9] [0:7] [0:6] [0:3] [0:9] [0:5] [0:3] [0:3] [0:5] [0:3] [0:3] [0:8] [0:4] [0:3] [0:3] [0:3] [0:5] [0:3] [0:2] [0:2] [0:9] [0:2] [0:2] [0:2] [0:3] [0:3] [0:3] [0:12] [0:12] [0:6] [0:6] [0:12] [0:6] [0:6] [0:12] [0:5] [0:3] [0:4] [0:24] [0:12] [0:3] [0:3] [0:3] [0:2] [0:12] [0:12] [0:12] [0:4] [0:9] [0:2] [0:2] [0:6] [0:2] [0:3] [0:5] [0:10] [0:10] [0:14] [0:14] [0:4] [0:3] [0:3] [0:3] [0:4] [0:3] [0:2] [0:7] [0:4] [0:2] [0:2] [0:5] [0:6] [0:5] [0:3] [0:3] [0:21] [0:10] [0:2] [0:10] [0:5] [0:4] [0:5] [0:21] [0:12] [0:19] [0:3] [0:4] [0:14] [0:9] [0:5] [0:1] [0:3] [0:5] [0:3] [0:9] [0:3] [0:9] [0:20] [0:19] [0:18] [0:19] [0:19] [0:7] [0:7] [0:3] [0:3] [0:5] [0:5] [0:16] [0:16] [0:16] [0:3] [0:5] [0:2] [0:4] [0:4] [0:5] [0:2] [0:7] [0:4] [0:4] [0:5] [0:5] [0:4] [0:6] [0:5] [0:5] [0:5] [0:5] [0:3] [0:3] [0:4] [0:4] [0:45] [0:36] [0:5] [0:5] [0:3] [0:7] [0:4] [0:5] [0:7] [0:3] [0:10] [0:9] [0:10] [0:7] [0:11] [0:11] [0:3] [0:9] [0:9] [0:10] [0:9] [0:3] [0:2] [0:14] [0:2] [0:2] [0:4] [0:22] [0:3] [0:2] [0:5] [0:5] [0:3] [0:22] [0:22] [0:20] [0:17] [0:3] [0:17] [0:3] [0:4] [0:10] [0:5] [0:4] [0:4] [0:4] [0:13] [0:12] [0:12] [0:2] [0:4] [0:4] [0:3] [0:9] [0:5] [0:4] [0:4] [0:2] [0:2] [0:18] [0:7] [0:7] [0:4] [0:4] [0:4] [0:4] [0:18] [0:18] [0:9] [0:4] [0:4] [0:17] [0:9] [0:12] [0:12] [0:6] [0:15] [0:15] [0:2] [0:4] [0:2] [0:2] [0:12] [0:6] [0:4] [0:5] [0:5] [0:5] [0:5] [0:13] [0:13] [0:23] [0:4] [0:21] [0:4] [0:20] [0:12] [0:3] [0:6] [0:6] [0:6] [0:5] [0:5] [0:39] [0:5] [0:39] [0:39] [0:6] [0:15] [0:4] [0:10] [0:8] [0:4] [0:3] [0:9] [0:3] [0:7] [0:3] [0:3] [0:7] [0:7] [0:4] [0:4] [0:3] [0:15] [0:3] [0:15] [0:15] [0:3] [0:5] [0:7] [0:4] [0:6] [0:15] [0:7] [0:7] [0:5] [0:6] [0:4] [0:7] [0:6] [0:8] [0:3] [0:6] [0:6] [0:10] [0:7] [0:5] [0:8] [0:6] [0:6] [0:6] [0:2] [0:4] [0:15] [0:6] [0:11] [0:9] [0:41] [0:9] [0:24] [0:23] [0:13] [0:5] [0:9] [0:22] [0:12] [0:5] [0:3] [0:4] [0:3] [0:9] [0:6] [0:4] [0:6] [0:8] [0:5] [0:3] [0:22] [0:10] [0:9] [0:12] [0:20] [0:6] [0:20] [0:3] [0:15] [0:7] [0:4] [0:4] [0:3] [0:18] [0:7] [0:4] [0:6] [0:9] [0:8] [0:13] [0:5] [0:3] [0:3] [0:15] [0:5] [0:15] [0:6] [0:29] [0:4] [0:2] [0:5] [0:4] [0:20] [0:10] [0:19] [0:4] [0:8] [0:5] [0:12] [0:6] [0:6] [0:5] [0:3] [0:15] [0:12] [0:6] [0:5] [0:7] [0:5] [0:5] [0:6] [0:4] [0:4] [0:3] [0:2] [0:4] [0:7] [0:16] [0:11] [0:9] [0:2] [0:5] [0:5] [0:10] [0:10] [0:6] [0:17] [0:2] [0:10] [0:3] [0:7] [0:10] [0:2] [0:23] [0:3] [0:6] [0:6] [0:7] [0:4] [0:10] [0:7] [0:22] [0:6] [0:6] [0:4] [0:3] [0:3] [0:15] [0:7] [0:3] [0:34] [0:21] [0:4] [0:4] [0:24] [0:2] [0:2] [0:10] [0:6] [0:6] [0:5] [0:2] [0:12] [0:18] [0:10] [0:2] [0:4] [0:3] [0:3] [0:3] [0:53] [0:9] [0:17] [0:5] [0:5] [0:5] [0:8] [0:10] [0:24] [0:5] [0:13] [0:23] [0:22] [0:5] [0:18] [0:9] [0:5] [0:6] [0:3] [0:5] [0:6] [0:6] [0:4] [0:25] [0:12] [0:3] [0:5] [0:4] [0:4] [0:4] [0:9] [0:5] [0:5] [0:4] [0:5] [0:13] [0:6] [0:5] [0:5] [0:5] [0:11] [0:6] [0:19] [0:3] [0:4] [0:13] [0:6] [0:6] [0:3] [0:3] [0:6] [0:10] [0:8] [0:9] [0:5] [0:8] [0:13] [0:6] [0:5] [0:9] [0:5] [0:6] [0:6] [0:6] [0:15] [0:3] [0:12] [0:6] [0:6] [0:15] [0:4] [0:8] [0:4] [0:8] [0:11] [0:9] [0:3] [0:14] [0:7] [0:4] [0:6] [0:6] [0:3] [0:5] [0:4] [0:3] [0:13] [0:5] [0:5] [0:7] [0:10] [0:10] [0:15] [0:15] [0:9] [0:2] [0:2] [0:2] [0:4] [0:4] [0:2] [0:10] [0:5] [0:19] [0:4] [0:39] [0:4] [0:10] [0:13] [0:12] [0:4] [0:8] [0:5] [0:5] [0:20] [0:6] [0:5] [0:5] [0:5] [0:5] [0:2] [0:8] [0:6] [0:9] [0:41] [0:12] [0:11] [0:21] [0:6] [0:16] [0:11] [0:18] [0:14] [0:8] [0:12] [0:3] [0:4] [0:4] [0:6] [0:11] [0:14] [0:12] [0:7] [0:2] [0:5] [0:2] [0:23] [0:18] [0:11] [0:12] [0:3] [0:9] [0:20] [0:16] [0:14] [0:4] [0:6] [0:4] [0:20] [0:5] [0:8] [0:10] [0:6] [0:10] [0:4] [0:3] [0:6] [0:4] [0:57] [0:11] [0:2] [0:3] [0:6] [0:16] [0:3] [0:31] [0:8] [0:5] [0:15] [0:12] [0:5] [0:8] [0:5] [0:7] [0:6] [0:5] [0:3] [0:2] [0:4] [0:4] [0:5] [0:6] [0:12] [0:13] [0:12] [0:7] [0:6] [0:8] [0:7] [0:10] [0:11] [0:7] [0:3] [0:6] [0:7] [0:8] [0:11] [0:7] [0:6] [0:8] [0:5] [0:2] [0:8] [0:7] [0:9] [0:9] [0:8] [0:5] [0:7] [0:16] [0:2] [0:11] [0:15] [0:10] [0:6] [0:2] [0:3] [0:8] [0:2] [0:13] [0:6] [0:4] [0:2] [0:5] [0:3] [0:3] [0:5] [0:33] [0:7] [0:5] [0:11] [0:7] [0:7] [0:6] [0:11] [0:11] [0:6] [0:6] [0:29] [0:3] [0:4] [0:14] [0:5] [0:16] [0:2] [0:14] [0:3] [0:5] [0:6] [0:9] [0:3] [0:6] [0:5] [0:3] [0:4] [0:7] [0:6] [0:7] [0:25] [0:11] [0:3] [0:8] [0:4] [0:11] [0:4] [0:5] [0:33] [0:3] [0:5] [0:32] [0:4] [0:11] [0:11] [0:2] [0:3] [0:9] [0:3] [0:8] [0:5] [0:4] [0:9] [0:8] [0:5] [0:8] [0:8] [0:5] [0:8] [0:3] [0:4] [0:5] [0:4] [0:4] [0:4] [0:2] [0:18] [0:14] [0:2] [0:4] [0:5] [0:3] [0:11] [0:4] [0:11] [0:5] [0:14] [0:11] [0:26] [0:19] [0:38] [0:21] [0:18] [0:10] [0:3] [0:9] [0:11] [0:12] [0:13] [0:22] [0:3] [0:12] [0:14] [0:13] [0:22] [0:10] [0:6] [0:6] [0:6] [0:6] [0:16] [0:16] [0:6] [0:14] [0:6] [0:13] [0:6] [0:4] [0:4] [0:11] [0:4] [0:18] [0:10] [0:15] [0:6] [0:12] [0:3] [0:7] [0:17] [0:14] [0:10] [0:3] [0:4] [0:2] [0:13] [0:4] [0:16] [0:8] [0:8] [0:10] [0:5] [0:50] [0:7] [0:5] [0:7] [0:4] [0:6] [0:4] [0:5] [0:8] [0:8] [0:11] [0:5] [0:2] [0:13] [0:7] [0:12] [0:13] [0:5] [0:3] [0:8] [0:16] [0:7] [0:6] [0:8] [0:6] [0:5] [0:6] [0:24] [0:6] [0:23] [0:7] [0:3] [0:6] [0:11] [0:11] [0:20] [0:4] [0:8] [0:16] [0:3] [0:3] [0:2] [0:8] [0:3] [0:4] [0:4] [0:48] [0:10] [0:10] [0:14] [0:6] [0:21] [0:8] [0:2] [0:6] [0:6] [0:36] [0:16] [0:4] [0:4] [0:2] [0:6] [0:12] [0:19] [0:6] [0:7] [0:23] [0:4] [0:2] [0:3] [0:4] [0:10] [0:9] [0:8] [0:8] [0:7] [0:5] [0:4] [0:4] [0:16] [0:42] [0:39] [0:10] [0:15] [0:8] [0:15] [0:6] [0:15] [0:10] [0:4] [0:5] [0:3] [0:9] [0:4] [0:6] [0:6] [0:6] [0:4] [0:8] [0:8] [0:8] [0:25] [0:3] [0:4] [0:10] [0:21] [0:6] [0:7] [0:6] [0:4] [0:20] [0:6] [0:6] [0:10] [0:7] [0:8] [0:9] [0:3] [0:26] [0:21] [0:5] [0:7] [0:6] [0:24] [0:12] [0:3] [0:13] [0:3] [0:3] [0:4] [0:3] [0:7] [0:9] [0:6] [0:7] [0:10] [0:3] [0:8] [0:3] [0:28] [0:18] [0:10] [0:11] [0:8] [0:3] [0:25] [0:8] [0:4] [0:7] [0:21] [0:8] [0:21] [0:20] [0:3] [0:3] [0:5] [0:2] [0:4] [0:4] [0:8] [0:9] [0:4] [0:13] [0:11] [0:6] [0:3] [0:4] [0:3] [0:4] [0:6] [0:4] [0:4] [0:4] [0:5] [0:2] [0:5] [0:24] [0:3] [0:5] [0:5] [0:8] [0:3] [0:3] [0:3] [0:3] [0:17] [0:17] [0:13] [0:4] [0:4] [0:3] [0:4] [0:5] [0:5] [0:20] [0:10] [0:4] [0:3] [0:5] [0:9] [0:13] [0:3] [0:7] [0:16] [0:6] [0:8] [0:5] [0:17] [0:6] [0:16] [0:9] [0:13] [0:9] [0:3] [0:6] [0:6] [0:4] [0:5] [0:2] [0:5] [0:3] [0:4] [0:2] [0:8] [0:25] [0:5] [0:11] [0:2] [0:6] [0:6] [0:7] [0:12] [0:5] [0:11] [0:12] [0:15] [0:5] [0:7] [0:8] [0:4] [0:7] [0:8] [0:10] [0:10] [0:14] [0:12] [0:9] [0:10] [0:5] [0:9] [0:5] [0:4] [0:7] [0:3] [0:5] [0:6] [0:3] [0:5] [0:2] [0:8] [0:4] [0:3] [0:7] [0:25] [0:3] [0:7] [0:6] [0:7] [0:3] [0:3] [0:8] [0:8] [0:7] [0:4] [0:6] [0:10] [0:6] [0:6] [0:2] [0:10] [0:6] [0:39] [0:23] [0:3] [0:7] [0:5] [0:3] [0:11] [0:10] [0:11] [0:9] [0:3] [0:14] [0:9] [0:3] [0:12] [0:10] [0:5] [0:9] [0:9] [0:9] [0:9] [0:7] [0:2] [0:9] [0:24] [0:7] [0:2] [0:3] [0:20] [0:3] [0:9] [0:9] [0:14] [0:13] [0:8] [0:4] [0:6] [0:8] [0:7] [0:4] [0:6] [0:2] [0:5] [0:6] [0:5] [0:15] [0:15] [0:8] [0:3] [0:3] [0:4] [0:4] [0:5] [0:3] [0:5] [0:2] [0:3] [0:2] [0:3] [0:3] [0:2] [0:5] [0:9] [0:4] [0:3] [0:6] [0:6] [0:8] [0:4] [0:5] [0:9] [0:8] [0:13] [0:9] [0:7] [0:9] [0:18] [0:9] [0:4] [0:6] [0:17] [0:22] [0:13] [0:14] [0:24] [0:7] [0:20] [0:18] [0:2] [0:6] [0:4] [0:8] [0:5] [0:21] [0:6] [0:3] [0:18] [0:5] [0:3] [0:3] [0:16] [0:16] [0:9] [0:10] [0:4] [0:8] [0:4] [0:9] [0:4] [0:23] [0:5] [0:10] [0:14] [0:14] [0:6] [0:5] [0:6] [0:4] [0:3] [0:12] [0:8] [0:3] [0:6] [0:11] [0:3] [0:11] [0:7] [0:10] [0:10] [0:10] [0:3] [0:3] [0:4] [0:20] [0:5] [0:6] [0:17] [0:5] [0:2] [0:7] [0:4] [0:7] [0:32] [0:9] [0:14] [0:9] [0:7] [0:5] [0:13] [0:11] [0:5] [0:6] [0:12] [0:5] [0:38] [0:8] [0:15] [0:4] [0:21] [0:3] [0:5] [0:10] [0:29] [0:6] [0:4] [0:21] [0:6] [0:12] [0:8] [0:10] [0:4] [0:26] [0:12] [0:10] [0:16] [0:7] [0:10] [0:12] [0:5] [0:5] [0:3] [0:12] [0:8] [0:6] [0:17] [0:15] [0:4] [0:23] [0:4] [0:8] [0:5] [0:7] [0:6] [0:20] [0:3] [0:3] [0:24] [0:9] [0:9] [0:11] [0:13] [0:11] [0:3] [0:4] [0:5] [0:6] [0:6] [0:10] [0:7] [0:7] [0:13] [0:6] [0:9] [0:18] [0:4] [0:5] [0:33] [0:33] [0:5] [0:5] [0:3] [0:9] [0:5] [0:4] [0:19] [0:17] [0:2] [0:7] [0:11] [0:5] [0:3] [0:2] [0:6] [0:4] [0:5] [0:6] [0:7] [0:8] [0:5] [0:4] [0:12] [0:14] [0:22] [0:8] [0:3] [0:6] [0:4] [0:8] [0:13] [0:13] [0:8] [0:4] [0:3] [0:12] [0:46] [0:5] [0:40] [0:12] [0:4] [0:3] [0:4] [0:12] [0:12] [0:14] [0:6] [0:6] [0:13] [0:7] [0:9] [0:3] [0:6] [0:13] [0:13] [0:17] [0:8] [0:2] [0:3] [0:3] [0:3] [0:4] [0:7] [0:2] [0:12] [0:3] [0:2] [0:3] [0:3] [0:3] [0:3] [0:3] [0:21] [0:3] [0:7] [0:13] [0:2] [0:10] [0:6] [0:5] [0:3] [0:17] [0:17] [0:3] [0:10] [0:12] [0:12] [0:6] [0:6] [0:2] [0:5] [0:2] [0:9] [0:19] [0:7] [0:12] [0:20] [0:4] [0:11] [0:4] [0:5] [0:6] [0:6] [0:2] [0:8] [0:4] [0:6] [0:7] [0:4] [0:3] [0:5] [0:9] [0:3] [0:11] [0:4] [0:3] [0:4] [0:4] [0:7] [0:2] [0:5] [0:38] [0:6] [0:10] [0:3] [0:19] [0:14] [0:18] [0:8] [0:6] [0:5] [0:4] [0:5] [0:30] [0:3] [0:6] [0:25] [0:5] [0:4] [0:15] [0:49] [0:6] [0:5] [0:23] [0:8] [0:8] [0:5] [0:21] [0:6] [0:5] [0:2] [0:13] [0:13] [0:3] [0:4] [0:6] [0:6] [0:22] [0:10] [0:4] [0:13] [0:10] [0:11] [0:4] [0:6] [0:5] [0:6] [0:3] [0:10] [0:5] [0:4] [0:5] [0:24] [0:3] [0:4] [0:22] [0:4] [0:6] [0:3] [0:8] [0:14] [0:4] [0:4] [0:21] [0:3] [0:5] [0:4] [0:16] [0:6] [0:8] [0:6] [0:14] [0:10] [0:10] [0:4] [0:3] [0:7] [0:21] [0:15] [0:4] [0:4] [0:5] [0:7] [0:5] [0:5] [0:13] [0:10] [0:3] [0:3] [0:3] [0:9] [0:10] [0:5] [0:4] [0:6] [0:4] [0:9] [0:5] [0:2] [0:6] [0:7] [0:9] [0:6] [0:6] [0:5] [0:5] [0:33] [0:29] [0:5] [0:3] [0:22] [0:5] [0:5] [0:9] [0:3] [0:3] [0:3] [0:3] [0:2] [0:6] [0:3] [0:5] [0:2] [0:2] [0:9] [0:5] [0:4] [0:4] [0:6] [0:4] [0:6] [0:2] [0:5] [0:8] [0:6] [0:4] [0:3] [0:10] [0:9] [0:16] [0:15] [0:3] [0:14] [0:11] [0:5] [0:9] [0:9] [0:6] [0:15] [0:4] [0:4] [0:4] [0:5] [0:3] [0:3] [0:10] [0:8] [0:12] [0:12] [0:9] [0:3] [0:21] [0:3] [0:7] [0:7] [0:5] [0:12] [0:14] [0:11] [0:4] [0:5] [0:10] [0:35] [0:7] [0:5] [0:9] [0:17] [0:11] [0:19] [0:7] [0:4] [0:19] [0:7] [0:6] [0:10] [0:4] [0:9] [0:2] [0:14] [0:13] [0:9] [0:4] [0:6] [0:12] [0:9] [0:4] [0:10] [0:9] [0:9] [0:8] [0:6] [0:3] [0:3] [0:8] [0:7] [0:2] [0:5] [0:14] [0:8] [0:3] [0:20] [0:8] [0:9] [0:7] [0:8] [0:8] [0:3] [0:10] [0:12] [0:3] [0:3] [0:8] [0:7] [0:5] [0:9] [0:8] [0:4] [0:8] [0:4] [0:5] [0:9] [0:8] [0:4] [0:14] [0:4] [0:14] [0:9] [0:9] [0:3] [0:8] [0:8] [0:6] [0:2] [0:14] [0:5] [0:8] [0:4] [0:3] [0:9] [0:14] [0:12] [0:3] [0:4] [0:3] [0:5] [0:4] [0:3] [0:5] [0:2] [0:11] [0:11] [0:16] [0:5] [0:2] [0:4] [0:15] [0:2] [0:4] [0:5] [0:4] [0:5] [0:11] [0:8] [0:4] [0:6] [0:7] [0:15] [0:7] [0:11] [0:3] [0:9] [0:10] [0:10] [0:7] [0:7] [0:3] [0:8] [0:7] [0:14] [0:4] [0:4] [0:6] [0:8] [0:7] [0:3] [0:7] [0:18] [0:5] [0:10] [0:4] [0:5] [0:4] [0:10] [0:16] [0:5] [0:2] [0:15] [0:6] [0:6] [0:5] [0:14] [0:14] [0:2] [0:2] [0:7] [0:6] [0:9] [0:9] [0:10] [0:9] [0:5] [0:5] [0:10] [0:16] [0:6] [0:3] [0:4] [0:21] [0:4] [0:3] [0:14] [0:28] [0:19] [0:5] [0:6] [0:6] [0:9] [0:12] [0:9] [0:8] [0:4] [0:25] [0:4] [0:8] [0:7] [0:11] [0:4] [0:13] [0:3] [0:6] [0:8] [0:25] [0:5] [0:3] [0:40] [0:3] [0:6] [0:9] [0:39] [0:13] [0:5] [0:10] [0:17] [0:12] [0:4] [0:9] [0:3] [0:10] [0:7] [0:12] [0:9] [0:8] [0:8] [0:10] [0:6] [0:9] [0:8] [0:10] [0:3] [0:10] [0:6] [0:8] [0:10] [0:12] [0:6] [0:5] [0:14] [0:14] [0:4] [0:7] [0:8] [0:7] [0:5] [0:5] [0:6] [0:2] [0:4] [0:7] [0:7] [0:3] [0:4] [0:13] [0:5] [0:6] [0:3] [0:6] [0:8] [0:4] [0:14] [0:5] [0:8] [0:8] [0:14] [0:4] [0:14] [0:9] [0:7] [0:4] [0:13] [0:4] [0:8] [0:9] [0:9] [0:6] [0:12] [0:20] [0:4] [0:9] [0:9] [0:5] [0:13] [0:15] [0:23] [0:6] [0:3] [0:23] [0:9] [0:7] [0:3] [0:4] [0:6] [0:30] [0:6] [0:2] [0:8] [0:5] [0:4] [0:7] [0:22] [0:16] [0:8] [0:6] [0:2] [0:16] [0:4] [0:13] [0:6] [0:18] [0:4] [0:10] [0:6] [0:14] [0:10] [0:5] [0:7] [0:7] [0:10] [0:13] [0:16] [0:7] [0:7] [0:6] [0:6] [0:9] [0:6] [0:24] [0:7] [0:4] [0:19] [0:3] [0:3] [0:10] [0:9] [0:9] [0:9] [0:15] [0:5] [0:8] [0:25] [0:3] [0:7] [0:6] [0:15] [0:5] [0:5] [0:4] [0:13] [0:3] [0:3] [0:25] [0:3] [0:7] [0:19] [0:3] [0:13] [0:9] [0:8] [0:20] [0:3] [0:8] [0:12] [0:25] [0:7] [0:20] [0:3] [0:11] [0:8] [0:7] [0:7] [0:6] [0:20] [0:2] [0:5] [0:39] [0:12] [0:19] [0:8] [0:9] [0:5] [0:31] [0:18] [0:2] [0:4] [0:3] [0:9] [0:30] [0:11] [0:4] [0:22] [0:8] [0:16] [0:17] [0:15] [0:7] [0:29] [0:18] [0:2] [0:3] [0:3] [0:14] [0:7] [0:6] [0:4] [0:12] [0:5] [0:6] [0:5] [0:15] [0:8] [0:8] [0:19] [0:4] [0:2] [0:3] [0:2] [0:3] [0:4] [0:4] [0:4] [0:4] [0:6] [0:10] [0:4] [0:3] [0:7] [0:3] [0:3] [0:3] [0:3] [0:14] [0:9] [0:7] [0:5] [0:8] [0:10] [0:5] [0:6] [0:5] [0:4] [0:4] [0:4] [0:4] [0:10] [0:15] [0:11] [0:4] [0:4] [0:4] [0:9] [0:7] [0:6] [0:9] [0:17] [0:13] [0:3] [0:5] [0:6] [0:37] [0:17] [0:20] [0:6] [0:14] [0:2] [0:6] [0:5] [0:5] [0:28] [0:5] [0:8] [0:4] [0:13] [0:15] [0:8] [0:5] [0:5] [0:15] [0:7] [0:5] [0:3] [0:15] [0:3] [0:9] [0:28] [0:26] [0:5] [0:13] [0:10] [0:10] [0:5] [0:3] [0:4] [0:14] [0:5] [0:13] [0:8] [0:14] [0:9] [0:8] [0:8] [0:8] [0:3] [0:8] [0:6] [0:4] [0:10] [0:7] [0:10] [0:7] [0:11] [0:13] [0:7] [0:5] [0:14] [0:3] [0:4] [0:7] [0:8] [0:6] [0:9] [0:9] [0:5] [0:12] [0:17] [0:12] [0:15] [0:10] [0:7] [0:6] [0:6] [0:7] [0:6] [0:6] [0:10] [0:5] [0:9] [0:4] [0:3] [0:40] [0:4] [0:7] [0:4] [0:9] [0:8] [0:4] [0:3] [0:25] [0:13] [0:9] [0:7] [0:6] [0:8] [0:9] [0:6] [0:2] [0:4] [0:16] [0:16] [0:10] [0:11] [0:6] [0:3] [0:5] [0:3] [0:4] [0:5] [0:14] [0:9] [0:9] [0:10] [0:7] [0:5] [0:7] [0:5] [0:16] [0:8] [0:6] [0:5] [0:24] [0:5] [0:5] [0:8] [0:7] [0:3] [0:6] [0:5] [0:5] [0:39] [0:13] [0:3] [0:10] [0:7] [0:8] [0:7] [0:3] [0:10] [0:12] [0:6] [0:8] [0:6] [0:39] [0:9] [0:7] [0:3] [0:2] [0:4] [0:3] [0:21] [0:8] [0:21] [0:3] [0:21] [0:7] [0:5] [0:9] [0:7] [0:3] [0:4] [0:13] [0:15] [0:6] [0:3] [0:4] [0:12] [0:7] [0:7] [0:13] [0:14] [0:4] [0:13] [0:6] [0:16] [0:11] [0:15] [0:7] [0:4] [0:2] [0:11] [0:9] [0:4] [0:5] [0:3] [0:8] [0:4] [0:2] [0:4] [0:8] [0:34] [0:4] [0:5] [0:7] [0:6] [0:7] [0:10] [0:8] [0:38] [0:21] [0:8] [0:5] [0:24] [0:9] [0:10] [0:5] [0:4] [0:10] [0:3] [0:3] [0:7] [0:9] [0:6] [0:6] [0:6] [0:4] [0:13] [0:12] [0:2] [0:4] [0:6] [0:3] [0:4] [0:5] [0:4] [0:3] [0:4] [0:3] [0:5] [0:4] [0:3] [0:10] [0:23] [0:7] [0:8] [0:9] [0:5] [0:12] [0:17] [0:7] [0:3] [0:7] [0:7] [0:13] [0:16] [0:10] [0:5] [0:23] [0:7] [0:7] [0:18] [0:6] [0:7] [0:5] [0:6] [0:6] [0:18] [0:18] [0:5] [0:16] [0:9] [0:16] [0:4] [0:5] [0:5] [0:22] [0:8] [0:5] [0:4] [0:17] [0:16] [0:7] [0:3] [0:3] [0:3] [0:7] [0:8] [0:14] [0:5] [0:8] [0:13] [0:9] [0:4] [0:3] [0:31] [0:3] [0:3] [0:13] [0:4] [0:14] [0:9] [0:6] [0:13] [0:11] [0:6] [0:10] [0:5] [0:2] [0:4] [0:5] [0:15] [0:4] [0:6] [0:5] [0:7] [0:13] [0:32] [0:3] [0:7] [0:4] [0:21] [0:5] [0:8] [0:4] [0:8] [0:9] [0:13] [0:4] [0:10] [0:7] [0:6] [0:8] [0:5] [0:3] [0:4] [0:8] [0:7] [0:6] [0:2] [0:16] [0:16] [0:6] [0:5] [0:8] [0:8] [0:3] [0:11] [0:3] [0:7] [0:12] [0:8] [0:14] [0:14] [0:5] [0:12] [0:10] [0:14] [0:11] [0:8] [0:6] [0:6] [0:9] [0:15] [0:15] [0:28] [0:20] [0:6] [0:5] [0:10] [0:5] [0:14] [0:12] [0:15] [0:6] [0:17] [0:3] [0:3] [0:37] [0:19] [0:10] [0:3] [0:7] [0:9] [0:11] [0:32] [0:6] [0:33] [0:2] [0:6] [0:9] [0:5] [0:3] [0:8] [0:3] [0:6] [0:4] [0:15] [0:12] [0:5] [0:4] [0:5] [0:13] [0:3] [0:13] [0:6] [0:5] [0:3] [0:6] [0:15] [0:11] [0:16] [0:12] [0:9] [0:7] [0:4] [0:10] [0:23] [0:3] [0:6] [0:8] [0:8] [0:7] [0:13] [0:7] [0:11] [0:13] [0:9] [0:11] [0:16] [0:6] [0:8] [0:9] [0:9] [0:9] [0:9] [0:3] [0:10] [0:4] [0:8] [0:2] [0:2] [0:55] [0:4] [0:7] [0:5] [0:10] [0:6] [0:12] [0:6] [0:5] [0:40] [0:4] [0:4] [0:4] [0:4] [0:33] [0:4] [0:8] [0:18] [0:18] [0:13] [0:5] [0:12] [0:19] [0:8] [0:3] [0:20] [0:35] [0:7] [0:12] [0:5] [0:8] [0:27] [0:25] [0:6] [0:4] [0:8] [0:6] [0:11] [0:6] [0:10] [0:7] [0:11] [0:14] [0:28] [0:5] [0:11] [0:3] [0:8] [0:12] [0:7] [0:5] [0:6] [0:5] [0:5] [0:2] [0:3] [0:7] [0:5] [0:12] [0:6] [0:6] [0:6] [0:32] [0:4] [0:9] [0:22] [0:11] [0:8] [0:8] [0:7] [0:9] [0:7] [0:29] [0:28] [0:3] [0:7] [0:4] [0:12] [0:8] [0:7] [0:5] [0:5] [0:36] [0:5] [0:32] [0:4] [0:5] [0:15] [0:12] [0:12] [0:3] [0:4] [0:13] [0:11] [0:3] [0:4] [0:4] [0:31] [0:9] [0:2] [0:17] [0:5] [0:2] [0:3] [0:7] [0:5] [0:3] [0:4] [0:3] [0:7] [0:4] [0:7] [0:4] [0:11] [0:18] [0:6] [0:2] [0:2] [0:10] [0:5] [0:7] [0:4] [0:3] [0:9] [0:5] [0:2] [0:13] [0:3] [0:5] [0:10] [0:5] [0:32] [0:32] [0:4] [0:2] [0:8] [0:8] [0:6] [0:5] [0:2] [0:7] [0:6] [0:6] [0:4] [0:11] [0:3] [0:9] [0:9] [0:8] [0:3] [0:5] [0:2] [0:6] [0:7] [0:22] [0:22] [0:6] [0:13] [0:30] [0:7] [0:7] [0:6] [0:3] [0:12] [0:12] [0:9] [0:5] [0:22] [0:5] [0:3] [0:6] [0:11] [0:10] [0:3] [0:17] [0:2] [0:4] [0:8] [0:19] [0:7] [0:15] [0:5] [0:35] [0:23] [0:9] [0:16] [0:14] [0:7] [0:10] [0:6] [0:8] [0:4] [0:4] [0:8] [0:7] [0:5] [0:33] [0:6] [0:7] [0:8] [0:16] [0:9] [0:24] [0:4] [0:7] [0:2] [0:2] [0:14] [0:2] [0:16] [0:3] [0:3] [0:14] [0:23] [0:10] [0:12] [0:3] [0:6] [0:9] [0:10] [0:10] [0:4] [0:6] [0:8] [0:3] [0:3] [0:3] [0:3] [0:3] [0:4] [0:11] [0:11] [0:4] [0:30] [0:31] [0:8] [0:5] [0:16] [0:4] [0:9] [0:4] [0:15] [0:5] [0:10] [0:6] [0:4] [0:48] [0:6] [0:6] [0:5] [0:43] [0:20] [0:4] [0:2] [0:5] [0:3] [0:3] [0:3] [0:4] [0:4] [0:4] [0:3] [0:2] [0:7] [0:9] [0:3] [0:5] [0:3] [0:3] [0:3] [0:3] [0:23] [0:5] [0:9] [0:8] [0:14] [0:18] [0:3] [0:13] [0:14] [0:14] [0:27] [0:15] [0:3] [0:4] [0:3] [0:2] [0:5] [0:4] [0:12] [0:3] [0:7] [0:13] [0:7] [0:12] [0:9] [0:25] [0:16] [0:18] [0:2] [0:12] [0:4] [0:12] [0:11] [0:2] [0:26] [0:4] [0:8] [0:13] [0:22] [0:6] [0:3] [0:5] [0:7] [0:7] [0:26] [0:4] [0:8] [0:2] [0:7] [0:4] [0:4] [0:5] [0:7] [0:7] [0:22] [0:6] [0:21] [0:14] [0:8] [0:7] [0:5] [0:3] [0:5] [0:18] [0:7] [0:10] [0:7] [0:8] [0:9] [0:6] [0:9] [0:11] [0:4] [0:3] [0:6] [0:5] [0:5] [0:9] [0:11] [0:4] [0:8] [0:13] [0:6] [0:6] [0:9] [0:7] [0:3] [0:3] [0:3] [0:9] [0:8] [0:8] [0:3] [0:7] [0:2] [0:3] [0:7] [0:4] [0:6] [0:6] [0:6] [0:4] [0:4] [0:4] [0:2] [0:9] [0:9] [0:5] [0:39] [0:5] [0:5] [0:39] [0:4] [0:4] [0:22] [0:12] [0:5] [0:4] [0:19] [0:9] [0:9] [0:3] [0:12] [0:3] [0:12] [0:6] [0:12] [0:5] [0:5] [0:4] [0:4] [0:4] [0:3] [0:2074] [0:2072] [0:2072]
tree_sizes=1443 1443 1455 1447 1453 1440 1437 1432 1438 1440 1437 1432 1415 1441 1453 1436 1442 1456 1441 1445 1448 1454 1456 1440 1442 1458 1453 1455 1456 1432 1441 1419 1437 1451 1455 1460 1453 1452 1451 1445 1450 1437 1445 1453 1446 1454 1451 1448 1445 1459 1469 1456 1446 1432 1448 1449 1445 1455 1430 1455 1451 1452 1455 1452 1460 1454 1451 1463 1459 1457 1438 1449 1448 1445 1461 1459 1447 1446 1446 1446 1468 1452 1427 1439 1456 1468 1450 1440 1454 1448 1449 1463 1457 1458 1462 1450 1406 1447 1429 1456 1447 1460 1473 1454 1447 1442 1462 1457 1455 1461 1439 1450 1466 1455 1457 1462 1463 1435 1465 1452 1470 1434 1454 1466 1463 1476 1467 1464 1457 1441 1470 1466 1448 1462 1461 1458 1457 1456 1468 1463 1452 1465 1464 1473 1464 1464 1459 1475 1464 1461 1461 1474 1467 1465 1469 1466 1459 1468 1477 1447 1462 1452 1464 1462 1462 1488 1458 1449 1457 1483 1466 1470 1446 1424 1469 1410 1456 1464 1477 1466 1471 1483 1428 1455 1469 1447 1467 1457 1475 1465 1485 1479 1462 1429 1461 1465 1476 1459 1458 1476 1469 1471 1473 1475 1478 1473 1478 1479 1479 1473 1483 1466 1467 1461 1484 1446 1464 1463 1464 1494 1478 1456 1465 1460 1464 1473 1481 1467 1468 1472 1472 1482 1477 1470 1468 1473 1471 1476 1490 1475 1468 1479 1472 1472 1408 1448 1441 1474 1469 1458 1418 1455 1478 1476 1482 1474 1449 1475 1474 1455 1488 1475 1465 1476 1472 1482 1482 1483 1479 1480 1479 1480 1489 1485 1487 1498 1454 1464 1479 1475 1490 1493 1488 1478 1485 1485 1478 1479 1499 1489 1475 1481 1470 1483 1478 1492 1462 1470 1478 1493 1485 1488 1488 1470 1470 1488 1483 1477 1440 1463 1479 1477 1467 1440 1474 1490 1490 1477 1484 1475 1460 1477 1498 1504 1463 1482 1472 1481 1479 1468 1477 1453 1490 1477 1479 1488 1468 1478 1462 1483 1474 1481 1478 1484 1484 1483 1458 1480 1456 1479 1485 1489 1455 1496 1489 1457 1477 1484 1468 1479 1489 1493 1456 1502 1452 1481 1496 1477 1487 1476 1481 1411 1490 1471 1492 1493 1496 1478 1472 1481 1504 1462 1465 1494 1496 1475 1480 1470 1487 1456 1459 1492 1491 1480 1489 1472 1474 1455 1469 1480 1475 1465 1494 1459 1473 1419 1487 1462 1485 1482 1488 1487 1493 1486 1448 1490 1438 1474 1484 1484 1487 1482 1493 1485 1500 1483 1481 1499 1475 1474 1474 1481 1451 1487 1466 1453 1483 1459 1479 1479 1480 1455 1473 1495 1453 1490 1478 1456 1459 1495 1455 1459 1483 1473 1478 1476 1488 1476 1476 1494 1489 1487 1493 1496 1484 1484 1478 1478 1474 1458 1482 1465 1493 1480 1496 1470 1492 1460 1469 1483 1441 1480 1479 1449 1493 1492 1464 1489 1454 1446 1479 1437 1476 1488 1463 1470 1470 1477 1484 1487 1487 1461 1468 1449 1464 1464 1488 1476 1464 1459 1456 1402 1471 1466 1468 1465 1467 1471 1484 1489 1495 1480 1483 1483 1458 1480 1491 1487 1480 1476 1477 1458 1463 1495 1486 1475 1484 1497 1475 1509 1434 1464 1482 1474 1453 1475 1455 1495 1458 1457 1496 1444 1455 1485 1462 1485 1487 1479 1474 1476 1487 1471 1450 1498 1435 1512 1479 1433 1481 1494 1452 1481 1482 1474 1468 1511 1486 1457 1496 1472 1501 1484 1453 1506 1490 1446 1496 1468 1495 1477 1456 1484 1504 1469 1469 1482 1476 1455 1470 1473 1482 1460 1479 1480 1505 1473 1469 1508 1479 1473 1499 1483 1486 1481 1494 1475 1485 1504 1491 1492 1464 1509 1449 1440 1465 1491 1479 1484 1481 1486 1505 1468 1495 1453 1469 1428 1467 1483 1476 1489 1484 1478 1453 1472 1476 1485 1503 1499 1496 1481 1511 1506 1458 1442 1427 1514 1467 1501 1479 1495 1490 1464 1420 1509 1494 1513 1477 1496 1465 1505 1484 1464 1493 1485 1448 1449 1492 1475 1470 1484 1445 1448 1502 1492 1468 1494 1482 1487 1505 1478 1459 1449 1490 1477 1512 1479 1479 1503 1478 1454 1445 1484 1498 1481 1482 1467 1472 1480 1514 1511 1480 1502 1477 1498 1488 1506 1508 1495 1485 1456 1495 1494 1450 1492 1487 1477 1489 1494 1502 1488 1481 1454 1458 1510 1461 1492 1462 1489 1466 1463 1466 1492 1465 1455 1475 1443 1510 1500 1467 1496 1504 1515 1510 1502 1493 1498 1494 1496 1526 1489 1461 1478 1488 1494 1469 1476

Tree=0
num_leaves=15
num_cat=0
split_feature=15 32 15 157 231 1197 40 437 1006 8 2572 32 32 2421
split_gain=965.994 198.588 120.488 50.8262 38.8115 34.7624 30.9973 27.5516 27.2729 25.3409 23.4542 20.9338 19.9001 19.8535
threshold=14.500000000000002 523.50000000000011 9.5000000000000018 0.10011807552676465 0.056744718930777233 3.5000000000000004 91.500000000000014 3.5000000000000004 1.0000000180025095e-35 10.199822874800651 1.0000000180025095e-35 438.50000000000006 614.50000000000011 1.0000000180025095e-35
decision_type=2 2 2 2 2 2 2 2 2 2 2 2 2 2
left_child=2 4 -1 8 -2 7 -6 -4 -3 10 11 -8 -10 -7
right_child=1 3 5 -5 6 13 9 -9 12 -11 -12 -13 -14 -15
leaf_value=-0.0092467848149567437 -0.0016868222523681179 0.0083272841765220634 -0.0077451379806522313 0.0065449166776885316 -0.0006559492301543259 -0.0029438519765817507 0.0041507857848810548 -0.0027862894407985057 0.011687838123479019 0.00022356926078169513 0.00030633315255287132 0.0081008120805078059 0.020173640572107753 0.0016320466966703309
leaf_weight=168 41 21 65 48 37 82 94 54 21 34 24 59 20 32
leaf_count=168 41 21 65 48 37 82 94 54 21 34 24 59 20 32
internal_value=0 0.0049608 -0.00601642 0.0106619 0.00276051 -0.003655 0.00350685 -0.00554523 0.0136933 0.00424599 0.00500293 0.00572122 0.016182 -0.00163955
internal_weight=0 399 401 110 289 233 248 119 62 211 177 153 41 114
internal_count=800 399 401 110 289 233 248 119 62 211 177 153 41 114
is_linear=0
shrinkage=0.005


Tree=1
num_leaves=15
num_cat=0
split_feature=15 15 15 212 1348 563 1197 127 1006 41 437 15 2421 1638
split_gain=964.919 164.5 120.351 64.0387 44.632 36.3428 34.7236 33.1995 31.3271 37.0417 27.5202 20.0947 19.8314 18.3632
threshold=14.500000000000002 22.500000000000004 9.5000000000000018 0.080311568470492922 3.5000000000000004 1.5000000000000002 3.5000000000000004 0.11623738995968642 1.0000000180025095e-35 133.50000000000003 3.5000000000000004 17.500000000000004 1.0000000180025095e-35 1.0000000180025095e-35
decision_type=2 2 2 2 2 2 2 2 2 2 2 2 2 2
left_child=2 4 -1 -3 5 7 10 -2 -5 -10 13 -7 -8 -4
right_child=1 3 6 8 -6 11 12 -9 9 -11 -12 -13 -14 -15
leaf_value=-0.0092415761835520013 0.0010840658934035444 0.0027765279902278828 -0.0095313327653764636 0.0073219976015467094 0.0057546638852697231 0.00082606568816661935 -0.0029422004341546014 -0.0055834328196040358 0.010002489969980471 0.018713247600219231 -0.002784732728508254 0.0054044498957764031 0.0016311413751739056 -0.0034043206874496087
leaf_weight=168 66 25 45 29 93 42 82 25 32 27 54 60 32 20
leaf_count=168 66 25 45 29 93 42 82 25 32 27 54 60 32 20
internal_value=0 0.00495807 -0.00601304 0.010054 0.00291526 0.00151862 -0.00365296 -0.000758573 0.0120552 0.0142192 -0.00554214 0.00355979 -0.00163861 -0.0077408
internal_weight=0 399 401 113 286 193 233 91 88 59 119 102 114 65
internal_count=800 399 401 113 286 193 233 91 88 59 119 102 114 65
is_linear=0
shrinkage=0.005


Tree=2
num_leaves=15
num_cat=0
split_feature=39 39 15 13 1495 675 1197 153 64 2513 24 146 212 147
split_gain=997.072 176.141 133.169 61.2019 35.0206 33.827 30.3667 27.7717 24.5465 22.3573 24.0518 19.8572 17.7757 14.8167
threshold=139.50000000000003 257.50000000000006 9.5000000000000018 23.500000000000004 1.0000000180025095e-35 2.5000000000000004 3.5000000000000004 0.10022753203887329 1.0000000180025095e-35 1.0000000180025095e-35 640.00000000000011 0.097745524017526397 0.062884434461678809 0.10071827111883964
decision_type=2 2 2 2 2 2 2 2 2 2 2 2 2 2
left_child=2 3 13 4 5 -2 7 11 -3 -5 -11 -4 -9 -1
right_child=1 8 6 9 -6 -7 -8 12 -10 10 -12 -13 -14 -15
leaf_value=-0.011881149246723927 -0.0021366075424480691 0.010471428931538325 -0.0091274350017251215 0.0020298477197096187 -0.004090654225427222 0.0039061078138305488 -0.0016929297372454103 -0.0064849514592340432 0.018830858623752226 0.0036028694292795892 0.0083303134469185809 -0.0031005393913661112 -0.00077036644137553777 -0.0081843387330116785
leaf_weight=49 28 27 49 30 21 114 121 20 20 42 98 22 43 116
leaf_count=49 28 27 49 30 21 114 121 20 20 42 98 22 43 116
internal_value=0 0.00532105 -0.00584524 0.00401279 0.00179311 0.00269529 -0.00354991 -0.0051919 0.0143261 0.00611099 0.00695481 -0.00734316 -0.00267444 -0.00934627
internal_weight=0 380 420 333 163 142 255 134 47 170 140 71 63 165
internal_count=800 380 420 333 163 142 255 134 47 170 140 71 63 165
is_linear=0
shrinkage=0.005


Tree=3
num_leaves=15
num_cat=0
split_feature=39 39 15 13 55 2722 39 1694 550 416 215 227 213 369
split_gain=994.954 175.77 132.87 61.0707 34.9768 33.5888 36.9048 27.5129 27.0679 25.3202 23.1346 22.0945 16.4057 17.1542
threshold=139.50000000000003 257.50000000000006 9.5000000000000018 23.500000000000004 0.22323441279173739 4.5000000000000009 116.50000000000001 1.0000000180025095e-35 3.5000000000000004 1.5000000000000002 0.12613341041756801 0.097549488377660046 0.11756047948466948 1.0000000180025095e-35
decision_type=2 2 2 2 2 2 2 2 2 2 2 2 2 2
left_child=2 3 -1 4 7 6 10 11 -3 12 -4 -2 13 -5
right_child=1 8 5 9 -6 -7 -8 -9 -10 -11 -12 -13 -14 -15
leaf_value=-0.0093361218825692652 0.0040072299728418446 0.010165903674518521 -0.0036419454970824396 0.0057327312781187238 -0.0040888543411664278 -0.0087912218176454931 -0.00051917782852070019 0.0078985655716398238 0.01878986287007638 0.0010783291192503475 -0.0095570159734947643 -0.00023197112521114211 0.0030055130505947936 0.0098115953081788151
leaf_weight=165 56 26 111 66 21 27 97 21 21 23 20 65 26 55
leaf_count=165 56 26 111 66 21 27 97 21 21 23 20 65 26 55
internal_value=0 0.00531541 -0.00583901 0.00400852 0.0017912 -0.00354624 -0.00288781 0.00269283 0.014311 0.00610448 -0.00461271 0.00172699 0.00686726 0.00765545
internal_weight=0 380 420 333 163 255 228 142 47 170 131 121 147 121
internal_count=800 380 420 333 163 255 228 142 47 170 131 121 147 121
is_linear=0
shrinkage=0.005


Tree=4
num_leaves=15
num_cat=0
split_feature=39 39 15 13 1495 675 2722 39 2551 416 215 1185 1694 213
split_gain=992.319 175.307 132.499 60.9073 34.9106 33.7153 33.5115 36.8175 25.9513 25.2623 23.081 18.0974 17.9161 16.3697
threshold=139.50000000000003 257.50000000000006 9.5000000000000018 23.500000000000004 1.0000000180025095e-35 2.5000000000000004 4.5000000000000009 116.50000000000001 1.5000000000000002 1.5000000000000002 0.12613341041756801 1.0000000180025095e-35 1.0000000180025095e-35 0.11756047948466948
decision_type=2 2 2 2 2 2 2 2 2 2 2 2 2 2
left_child=2 3 -1 4 5 -2 7 10 -3 13 -4 -9 -7 -5
right_child=1 8 6 9 -6 12 -8 11 -10 -11 -12 -13 -14 -15
leaf_value=-0.0093234599098468828 -0.0021341819674327981 0.0095262747358330607 -0.003637153725010678 0.0076456262106921712 -0.0040855895792275086 0.0028489935256509162 -0.008780610103733006 -0.0024452751039410097 0.017983200240504833 0.0010759442136378395 -0.0095454329404030709 0.0018568544596918441 0.0079455815363172928 0.0030007515548239288
leaf_weight=165 28 22 111 121 21 92 27 54 25 23 20 43 22 26
leaf_count=165 28 22 111 121 21 92 27 54 25 23 20 43 22 26
internal_value=0 0.00530842 -0.00583123 0.00400324 0.00178886 0.00268965 -0.00354164 -0.00288396 0.0142922 0.0060964 -0.00460682 -0.000518107 0.00389848 0.0068583
internal_weight=0 380 420 333 163 142 255 228 47 170 131 97 114 147
internal_count=800 380 420 333 163 142 255 228 47 170 131 97 114 147
is_linear=0
shrinkage=0.005


Tree=5
num_leaves=15
num_cat=0
split_feature=40 32 32 2 157 119 11 231 1348 1070 1006 2572 32 32
split_gain=920.135 209.231 120.832 58.6613 50.533 42.9164 37.4841 30.3983 30.0287 27.7918 27.0473 19.9596 21.0567 19.6797
threshold=93.500000000000014 523.50000000000011 225.50000000000003 59.593717561529523 0.10011807552676465 0.20515492939551513 32.125000000000007 0.056744718930777233 2.5000000000000004 2.5000000000000004 1.0000000180025095e-35 1.0000000180025095e-35 438.50000000000006 614.50000000000011
decision_type=2 2 2 2 2 2 2 2 2 2 2 2 2 2
left_child=2 3 -1 5 10 7 9 -2 -5 -4 -3 12 -9 -12
right_child=1 4 6 8 -6 -7 -8 11 -10 -11 13 -13 -14 -15
leaf_value=-0.0098356083029561923 -0.00061998510259322513 0.0082865515883281445 -0.0041761388606866437 -0.0046419455007897983 0.0065037708873438302 -0.0024883049368579504 -0.0086094319052494091 0.0042923437148584308 0.0020299820230771821 -9.4278880024802563e-05 0.011636961512609359 0.00069299855643194643 0.008218174256496992 0.020080334859398693
leaf_weight=134 25 21 166 36 48 24 37 99 30 57 21 23 59 20
leaf_count=134 25 21 166 36 48 24 37 99 30 57 21 23 59 20
internal_value=0 0.00473869 -0.00597595 0.002528 0.0106082 0.00372015 -0.00395501 0.00445996 -0.00159132 -0.0031458 0.0136306 0.00517226 0.00580493 0.016109
internal_weight=0 406 394 296 110 230 260 206 66 223 62 181 158 41
internal_count=800 406 394 296 110 230 260 206 66 223 62 181 158 41
is_linear=0
shrinkage=0.005


Tree=6
num_leaves=15
num_cat=0
split_feature=39 39 32 13 81 55 5 1694 550 39 416 227 2858 94
split_gain=985.609 174.14 126.212 60.492 42.5931 34.7652 32.0682 27.3299 26.91 26.8087 25.1307 21.9789 18.6896 17.5188
threshold=139.50000000000003 257.50000000000006 225.50000000000003 23.500000000000004 0.13819276401303127 0.22323441279173739 163.75000000000003 1.0000000180025095e-35 3.5000000000000004 112.50000000000001 1.5000000000000002 0.097549488377660046 1.5000000000000002 0.10214272754092958
decision_type=2 2 2 2 2 2 2 2 2 2 2 2 2 2
left_child=2 3 -1 5 6 7 12 11 -3 -6 -5 -2 -4 -13
right_child=1 8 4 10 9 -7 -8 -9 -10 -11 -12 13 -14 -15
leaf_value=-0.0098175493747241892 0.003993422178625263 0.010112789554031455 -0.0081378492672875939 0.0068356661545195428 -0.0042914762632115253 -0.0040792766357894876 -0.011122881838384627 0.0078702235868261545 0.018709185796046475 -0.00026395733896610735 0.0010683898102739598 0.0017112980510586367 -0.0031244358448148917 -0.0035874979705688252
leaf_weight=134 56 26 28 147 81 21 26 21 21 86 23 41 65 24
leaf_count=134 56 26 28 147 81 21 26 21 21 86 23 41 65 24
internal_value=0 0.00529058 -0.00581134 0.00398973 -0.00390518 0.00178285 -0.00619408 0.00268179 0.0142444 -0.00224049 0.00607576 0.00171912 -0.00471171 -0.000234615
internal_weight=0 380 420 333 286 163 119 142 47 167 170 121 93 65
internal_count=800 380 420 333 286 163 119 142 47 167 170 121 93 65
is_linear=0
shrinkage=0.005


Tree=7
num_leaves=15
num_cat=0
split_feature=16 16 0 1 14 13 563 190 157 234 521 204 1889 460
split_gain=886.56 198.843 113.278 70.3406 55.9535 55.2848 52.3073 37.4498 36.7644 22.453 21.3227 20.9232 20.5405 18.6627
threshold=12.500000000000002 8.5000000000000018 26.500000000000004 104.51785714285715 18.500000000000004 12.500000000000002 1.5000000000000002 0.082647557564618793 0.10011807552676465 0.092209554964066395 4.5000000000000009 0.10419180945841192 1.0000000180025095e-35 1.5000000000000002
decision_type=2 2 2 2 2 2 2 2 2 2 2 2 2 2
left_child=1 5 6 8 9 13 7 -2 10 -3 -4 -5 -9 -1
right_child=2 4 3 11 -6 -7 -8 12 -10 -11 -12 -13 -14 -15
leaf_value=-0.010883782185668463 -0.0055988052827251524 -0.0051629978120815668 0.0052668396295283085 0.017901028495642447 0.0023636391751135181 -0.0051439223065849575 0.0055468301964141185 -0.00019849866844945144 0.0024729853032277797 -0.0013365880951826559 0.012260108514262052 0.0101735542683051 0.0059130664863199893 -0.0057710986375714909
leaf_weight=114 20 69 23 24 68 113 109 33 35 91 28 24 22 27
leaf_count=114 20 69 23 24 68 113 109 33 35 91 28 24 22 27
internal_value=0 -0.00480889 0.0059345 0.00943045 -0.0014006 -0.00784644 0.00334792 0.00010097 0.00657805 -0.00301664 0.00927494 0.0143084 0.00226001 -0.00995694
internal_weight=0 482 318 134 228 254 184 75 86 160 51 48 55 141
internal_count=800 482 318 134 228 254 184 75 86 160 51 48 55 141
is_linear=0
shrinkage=0.005


Tree=8
num_leaves=15
num_cat=0
split_feature=39 39 15 13 55 1197 643 550 416 1303 2221 303 2249 14
split_gain=977.059 172.689 130.438 59.9593 34.525 29.9767 31.7444 26.7453 24.9577 23.4846 23.8203 23.1757 22.7427 15.6532
threshold=139.50000000000003 257.50000000000006 9.5000000000000018 23.500000000000004 0.22323441279173739 3.5000000000000004 1.5000000000000002 3.5000000000000004 1.5000000000000002 1.5000000000000002 1.0000000180025095e-35 2.5000000000000004 1.5000000000000002 8.5000000000000018
decision_type=2 2 2 2 2 2 2 2 2 2 2 2 2 2
left_child=2 3 13 4 9 6 12 -3 -5 10 11 -2 -4 -1
right_child=1 7 5 8 -6 -7 -8 -9 -10 -11 -12 -13 -14 -15
leaf_value=-0.011129869747336521 -0.0029971689348968007 0.010066040570451532 -0.011453828772023451 0.0068064263429328401 -0.0040666218190251024 -0.0016690998573165579 -0.0018940392077403645 0.018634824654377928 0.0010590171681530186 0.0058410874537696764 0.0044169305952827835 0.0031072708503616158 -0.0052904802157208441 -0.0076553660974504646
leaf_weight=73 38 26 22 147 21 121 50 21 23 41 38 25 62 92
leaf_count=73 38 26 22 147 21 121 50 21 23 41 38 25 62 92
internal_value=0 0.00526776 -0.0057859 0.0039723 0.00177509 -0.00351409 -0.00514545 0.0141843 0.00604915 0.00267095 0.00132863 -0.000534836 -0.0070211 -0.00925092
internal_weight=0 380 420 333 163 255 134 47 170 142 101 63 84 165
internal_count=800 380 420 333 163 255 134 47 170 142 101 63 84 165
is_linear=0
shrinkage=0.005


Tree=9
num_leaves=15
num_cat=0
split_feature=39 39 15 14 512 2722 39 1575 188 2551 416 215 213 2645
split_gain=971.959 171.803 129.74 52.1925 33.3318 33.1148 36.2258 27.1213 32.919 25.6866 23.5371 22.7965 19.0871 18.259
threshold=139.50000000000003 257.50000000000006 9.5000000000000018 22.500000000000004 4.5000000000000009 4.5000000000000009 116.50000000000001 1.0000000180025095e-35 0.093584040129535348 1.5000000000000002 1.5000000000000002 0.12613341041756801 0.11756047948466948 1.5000000000000002
decision_type=2 2 2 2 2 2 2 2 2 2 2 2 2 2
left_child=2 3 -1 4 7 6 11 8 -2 -3 12 -4 -5 -6
right_child=1 9 5 10 13 -7 -8 -9 -10 -11 -12 -13 -14 -15
leaf_value=-0.0092264777879748593 0.0019671573520496002 0.0094112927045901882 -0.0035965669254334194 0.0075880804661095655 0.0003104873319853939 -0.0087126375023416323 -0.00050440342183503874 0.00354684620055018 -0.0054804725499032923 0.017817168568455895 0.00076933389916610819 -0.0094678791605670425 0.00261239940277127 0.0057492081113096876
leaf_weight=165 26 22 111 116 22 27 97 32 32 25 20 20 26 59
leaf_count=165 26 22 111 116 22 27 97 32 32 25 20 20 26 59
internal_value=0 0.00525405 -0.00577072 0.0039619 0.00200337 -0.00350496 -0.00285122 -7.3823e-05 -0.00212653 0.0141477 0.00599694 -0.00456015 0.00671079 0.00431396
internal_weight=0 380 420 333 171 255 228 90 58 47 162 131 142 81
internal_count=800 380 420 333 171 255 228 90 58 47 162 131 142 81
is_linear=0
shrinkage=0.005


Tree=10
num_leaves=15
num_cat=0
split_feature=39 39 32 0 81 31 828 5 1669 2 550 39 190 3221
split_gain=966.383 170.832 123.934 48.1065 42.0113 35.1077 33.6248 31.6116 27.8113 26.8029 26.5557 26.3829 25.3821 23.5467
threshold=139.50000000000003 257.50000000000006 225.50000000000003 23.500000000000004 0.13819276401303127 112.50000000000001 1.0000000180025095e-35 163.75000000000003 3.5000000000000004 43.793791207761522 3.5000000000000004 112.50000000000001 0.088050597432645192 1.0000000180025095e-35
decision_type=2 2 2 2 2 2 2 2 2 2 2 2 2 2
left_child=2 3 -1 6 7 9 8 -4 12 -5 -3 -6 -2 -7
right_child=1 10 4 5 11 13 -8 -9 -10 -11 -12 -13 -14 -15
leaf_value=-0.0097240010800962104 -0.0042529057829761782 0.010005298610359653 -0.0046664441223524368 0.0049885410830956059 -0.0042464134419646594 0.0037941107385684788 0.0062022434887038045 -0.011031876809081869 0.0039630194197282746 -0.0020176631303385059 0.01854124957268391 -0.00025103981426154815 0.001351466146697454 0.0087252383500162987
leaf_weight=134 35 26 93 35 81 39 34 26 40 21 21 86 45 84
leaf_count=134 35 26 93 35 81 39 34 26 40 21 21 86 45 84
internal_value=0 0.00523903 -0.00575406 0.00395052 -0.00386511 0.00571474 0.00186804 -0.00613829 0.000590516 0.00233459 0.0141076 -0.00221184 -0.00109353 0.00721249
internal_weight=0 380 420 333 286 179 154 119 120 56 47 167 80 123
internal_count=800 380 420 333 286 179 154 119 120 56 47 167 80 123
is_linear=0
shrinkage=0.005


Tree=11
num_leaves=15
num_cat=0
split_feature=15 15 15 40 1348 456 563 184 127 24 44 437 40 2061
split_gain=928.663 158.269 115.49 50.4766 43.4771 36.1318 35.2747 32.6246 32.4991 26.3308 24.7535 21.1799 17.7451 17.5605
threshold=14.500000000000002 22.500000000000004 9.5000000000000018 219.00000000000003 3.5000000000000004 1.5000000000000002 1.5000000000000002 0.067288301502074904 0.11623738995968642 642.50000000000011 11.500000000000002 3.5000000000000004 130.50000000000003 2.5000000000000004
decision_type=2 2 2 2 2 2 2 2 2 2 2 2 2 2
left_child=2 4 -1 5 6 -3 8 11 13 -8 -9 -4 -6 -2
right_child=1 3 7 -5 12 -7 9 10 -10 -11 -12 -13 -14 -15
leaf_value=-0.009060974241167051 -0.0011079537324918214 0.0099640674180971143 -0.009001192413366485 0.016551120236140339 0.0040863409621968707 0.0026710229657210005 0.0012948966696843089 -0.0038982711125790672 -0.0055343850069569222 0.0065048104796746851 1.3296165370001231e-05 -0.0030296747595194677 0.0090396248601124773 0.0040257279935596874
leaf_weight=168 38 65 38 23 65 25 60 102 25 42 65 28 28 28
leaf_count=168 38 65 38 23 65 25 60 102 25 42 65 28 28 28
internal_value=0 0.0048649 -0.00589811 0.00986349 0.00286096 0.00800163 0.00148246 -0.00358584 -0.000760727 0.00349354 -0.00237108 -0.00656438 0.00566335 0.00106216
internal_weight=0 399 401 113 286 90 193 233 91 102 167 66 93 66
internal_count=800 399 401 113 286 90 193 233 91 102 167 66 93 66
is_linear=0
shrinkage=0.005


Tree=12
num_leaves=15
num_cat=0
split_feature=15 32 32 157 184 2809 1197 24 24 32 116 16 2993 62
split_gain=922.553 190.097 115.097 49.5115 42.021 38.4133 37.3631 23.5321 25.969 23.3742 22.5614 22.3743 22.0951 19.1894
threshold=14.500000000000002 523.50000000000011 225.50000000000003 0.10011807552676465 0.061180322051081357 1.0000000180025095e-35 3.5000000000000004 631.50000000000011 1043.5000000000002 381.50000000000006 0.1079038855588708 8.5000000000000018 6.5000000000000009 0.115398731994966
decision_type=2 2 2 2 2 2 2 2 2 2 2 2 2 2
left_child=2 4 -1 12 5 -2 11 13 9 -9 -8 -4 -3 -6
right_child=1 3 6 -5 7 -7 10 8 -10 -11 -12 -13 -14 -15
leaf_value=-0.0096633081140759386 -0.005267245645648776 0.010566427307098112 -0.0078726949047821463 0.0063661442573285341 0.00060991117360861087 0.0032046957677342898 -0.0031374801796317077 0.0016627148454742644 0 0.0073640336877806457 0.0017025708847102795 -0.0037343826809499319 0.017650979251420798 0.0054535741198976717
leaf_weight=134 28 39 66 48 83 24 95 25 21 81 31 75 23 27
leaf_count=134 28 39 66 48 83 24 95 25 21 81 31 75 23 27
internal_value=0 0.00484899 -0.00587856 0.0104269 0.00269607 -0.00132993 -0.00394844 0.00358932 0.00506119 0.00606064 -0.00192767 -0.00571906 0.0134178 0.00184765
internal_weight=0 399 401 110 289 52 267 237 127 106 126 141 62 110
internal_count=800 399 401 110 289 52 267 237 127 106 126 141 62 110
is_linear=0
shrinkage=0.005


Tree=13
num_leaves=15
num_cat=0
split_feature=39 39 14 14 39 512 1374 550 176 533 1197 416 213 199
split_gain=947.768 167.62 126.388 50.8674 47.9955 32.7839 27.0886 26.2161 24.7745 23.767 30.8927 23.141 18.8178 18.4437
threshold=139.50000000000003 257.50000000000006 10.500000000000002 22.500000000000004 88.500000000000014 4.5000000000000009 4.5000000000000009 3.5000000000000004 0.089538581659053582 2.5000000000000004 1.5000000000000002 1.5000000000000002 0.11756047948466948 0.11565321919369224
decision_type=2 2 2 2 2 2 2 2 2 2 2 2 2 2
left_child=2 3 -1 5 -4 6 8 -3 -2 13 -11 12 -5 -6
right_child=1 7 4 11 9 -7 -8 -9 -10 10 -12 -13 -14 -15
leaf_value=-0.009795579703187212 -0.0019904916373938743 0.0098999255507795231 -0.0074037263772001585 0.0075001761225615918 -0.00090500694023322675 0.0042702193471236376 -0.0051174784883523203 0.018377341037496515 0.0039308460381733534 -0.010205561764316138 -0.0015096684262891292 0.00073864726715503187 0.0025611469799951552 -0.0047725737338866273
leaf_weight=130 30 26 71 116 137 81 20 21 40 21 21 20 26 40
leaf_count=130 30 26 71 116 137 81 20 21 40 21 21 20 26 40
internal_value=0 0.00518881 -0.00569789 0.00391239 -0.00383222 0.00197865 -8.11914e-05 0.0139737 0.00137106 -0.00264251 -0.00601383 0.00592152 0.00662927 -0.00180782
internal_weight=0 380 420 333 290 171 90 47 70 219 42 162 142 177
internal_count=800 380 420 333 290 171 90 47 70 219 42 162 142 177
is_linear=0
shrinkage=0.005


Tree=14
num_leaves=15
num_cat=0
split_feature=39 39 14 14 39 2722 512 1374 1517 550 199 456 1185 3240
split_gain=940.504 166.359 125.449 50.4764 47.6282 48.0616 32.5729 26.9189 28.5832 26.0409 24.6266 23.3602 19.4007 18.9625
threshold=139.50000000000003 257.50000000000006 10.500000000000002 22.500000000000004 88.500000000000014 4.5000000000000009 4.5000000000000009 4.5000000000000009 2.5000000000000004 3.5000000000000004 0.11565321919369224 1.5000000000000002 1.0000000180025095e-35 1.0000000180025095e-35
decision_type=2 2 2 2 2 2 2 2 2 2 2 2 2 2
left_child=2 3 13 6 -4 10 7 8 -2 -3 12 -5 -6 -1
right_child=1 9 4 11 5 -7 -8 -9 -10 -11 -12 -13 -14 -15
leaf_value=-0.010778313826810864 0.0040381146619070229 0.0098605818167996056 -0.0073750290969350372 0.0067875642545370905 -0.0023069962400647714 -0.0089308736815270212 0.0042551625497732537 -0.0051026831373418161 -0.0023529332489448012 0.018309743546564644 -0.0050475609165480254 0.0016825433991436889 0.0012989789555209474 -0.0055975132501891837
leaf_weight=103 41 26 71 133 86 26 81 20 29 21 43 29 64 27
leaf_count=103 41 26 71 133 86 26 81 20 29 21 43 29 64 27
internal_value=0 0.00516897 -0.00567593 0.00389733 -0.00381716 -0.00263196 0.00197097 -8.21589e-05 0.00136548 0.0139208 -0.00173971 0.00589875 -0.000756455 -0.00975841
internal_weight=0 380 420 333 290 219 171 90 70 47 193 162 150 130
internal_count=800 380 420 333 290 219 171 90 70 47 193 162 150 130
is_linear=0
shrinkage=0.005


Tree=15
num_leaves=15
num_cat=0
split_feature=15 32 32 157 184 1197 1475 1006 32 16 12 147 62 32
split_gain=902.034 186.04 112.567 48.7891 41.2615 36.6754 31.4363 26.0307 22.4159 21.8946 20.9073 19.3656 18.6227 18.5588
threshold=14.500000000000002 523.50000000000011 225.50000000000003 0.10011807552676465 0.061180322051081357 3.5000000000000004 1.0000000180025095e-35 1.0000000180025095e-35 402.50000000000006 8.5000000000000018 40.500000000000007 0.12398675436562097 0.087833964357651437 614.50000000000011
decision_type=2 2 2 2 2 2 2 2 2 2 2 2 2 2
left_child=2 4 -1 7 6 9 -2 -3 -6 -4 11 -10 -5 -9
right_child=1 3 5 12 8 -7 -8 13 10 -11 -12 -13 -14 -15
leaf_value=-0.0095554212352277536 0.0029326021277830943 0.0080435184297074965 -0.0077884486592291113 0.0031512497236896586 0.0016842222020356291 -0.0019012775051657977 -0.0047549619440039334 0.011356002059551553 0.0073738664876706059 -0.003693891755687225 0.0018011982988067859 0.0018226089853417586 0.0096562065421848704 0.019576672258285376
leaf_weight=134 23 21 66 26 99 126 29 21 74 75 42 22 22 20
leaf_count=134 23 21 66 26 99 126 29 21 74 75 42 22 22 20
internal_value=0 0.00479518 -0.00581239 0.0103134 0.00266527 -0.00390346 -0.0013239 0.0132819 0.00355045 -0.00565772 0.00485744 0.00614794 0.00628309 0.0157119
internal_weight=0 399 401 110 289 267 52 62 237 141 138 96 48 41
internal_count=800 399 401 110 289 267 52 62 237 141 138 96 48 41
is_linear=0
shrinkage=0.005


Tree=16
num_leaves=15
num_cat=0
split_feature=15 32 32 157 184 2809 14 3223 2001 40 14 148 464 570
split_gain=894.413 184.516 111.617 48.4426 40.9481 37.6663 35.6629 29.3324 22.9092 22.3763 19.6201 18.7936 18.433 15.986
threshold=14.500000000000002 523.50000000000011 225.50000000000003 0.10011807552676465 0.061180322051081357 1.0000000180025095e-35 9.5000000000000018 2.5000000000000004 7.5000000000000009 131.50000000000003 21.500000000000004 0.089119280971232437 3.5000000000000004 1.0000000180025095e-35
decision_type=2 2 2 2 2 2 2 2 2 2 2 2 2 2
left_child=2 4 -1 8 5 -2 -4 -8 -3 10 -6 -11 -5 -9
right_child=1 3 6 12 9 -7 7 13 -10 11 -12 -13 -14 -15
leaf_value=-0.0095148316818878097 -0.005219063462324508 0.010529192544020819 -0.0091041408270447453 0.0088549134199274702 0.00093444536840197245 0.0031698323211504986 -0.0049993568238851874 -0.0034222244537222878 0.017827430580734112 0.0082455541107724021 0.0043565314742648629 0.0025331484196262793 0.0023175709053444176 0.00018461566647057408
leaf_weight=134 28 41 29 28 92 24 117 55 21 39 80 26 20 66
leaf_count=134 28 41 29 28 92 24 117 55 21 39 80 26 20 66
internal_value=0 0.00477507 -0.00578759 0.0102706 0.00265386 -0.00132002 -0.00388669 -0.0032142 0.0132286 0.00353568 0.00255049 0.00604957 0.00625465 -0.00145015
internal_weight=0 399 401 110 289 52 267 238 62 237 172 65 48 121
internal_count=800 399 401 110 289 52 267 238 62 237 172 65 48 121
is_linear=0
shrinkage=0.005


Tree=17
num_leaves=15
num_cat=0
split_feature=39 39 14 13 39 1495 675 550 31 3221 123 567 1694 73
split_gain=917.279 162.368 122.543 56.2983 46.3839 33.5436 32.1804 25.5424 23.1173 24.6562 22.4105 17.6073 17.1907 15.9863
threshold=139.50000000000003 257.50000000000006 10.500000000000002 23.500000000000004 88.500000000000014 1.0000000180025095e-35 2.5000000000000004 3.5000000000000004 112.50000000000001 1.0000000180025095e-35 0.18133448178686601 1.0000000180025095e-35 1.0000000180025095e-35 0.14183148796324038
decision_type=2 2 2 2 2 2 2 2 2 2 2 2 2 2
left_child=2 3 -1 5 13 6 -2 -3 -5 -10 11 -6 -8 -4
right_child=1 7 4 8 10 -7 12 -9 9 -11 -12 -13 -14 -15
leaf_value=-0.0096398043040177624 -0.0021088907964884936 0.0097316028728191527 -0.0087839815598772294 0.0028711450774466444 -0.0013884321816349859 -0.0040382024256187844 0.0027558517688425883 0.018097608155066811 0.0035359101087069768 0.0086244580252905906 -0.0075873162746071246 -0.0054971612485289669 0.0077479924497362062 -0.0031545282982719629
leaf_weight=130 28 26 51 50 168 21 92 21 38 82 20 31 22 20
leaf_count=130 28 26 51 50 168 21 92 21 38 82 20 31 22 20
internal_value=0 0.00510535 -0.00560481 0.00384895 -0.0037676 0.00171934 0.00260267 0.0137518 0.00586155 0.00706373 -0.00259779 -0.00205794 0.00378395 -0.00727889
internal_weight=0 380 420 333 290 163 142 47 170 120 219 199 114 71
internal_count=800 380 420 333 290 163 142 47 170 120 219 199 114 71
is_linear=0
shrinkage=0.005


Tree=18
num_leaves=15
num_cat=0
split_feature=15 32 32 157 184 2809 1197 1006 40 116 155 14 148 62
split_gain=878.322 181.274 109.613 47.8041 40.3404 37.2052 35.952 25.564 22.0486 22.0066 21.5677 19.2817 18.5845 18.3398
threshold=14.500000000000002 523.50000000000011 225.50000000000003 0.10011807552676465 0.061180322051081357 1.0000000180025095e-35 3.5000000000000004 1.0000000180025095e-35 131.50000000000003 0.1079038855588708 0.10531546122389888 21.500000000000004 0.089119280971232437 0.087833964357651437
decision_type=2 2 2 2 2 2 2 2 2 2 2 2 2 2
left_child=2 4 -1 7 5 -2 10 -3 11 -8 -4 -6 -10 -5
right_child=1 3 6 13 8 -7 9 -9 12 -11 -12 -13 -14 -15
leaf_value=-0.0094286572249766536 -0.005189572911800092 0.0079286360601390458 -0.0035006963785276565 0.0030840264967601028 0.00092469311754892522 0.0031476535837000777 -0.0030638526490316411 0.015525000585893695 0.0081840726548873689 0.0017160557938809945 -0.0075559222373805289 0.0043173929203551486 0.0025039532412809611 0.0095366758842576754
leaf_weight=134 28 21 70 26 92 24 95 41 39 31 71 80 26 22
leaf_count=134 28 21 70 26 92 24 95 41 39 31 71 80 26 22
internal_value=0 0.00473229 -0.00573493 0.0101794 0.00262971 -0.00131435 -0.00385105 0.0131177 0.003505 -0.00186866 -0.0055879 0.00252695 0.00600049 0.00619033
internal_weight=0 399 401 110 289 52 267 62 237 126 141 172 65 48
internal_count=800 399 401 110 289 52 267 62 237 126 141 172 65 48
is_linear=0
shrinkage=0.005


Tree=19
num_leaves=15
num_cat=0
split_feature=39 39 14 13 39 1495 675 550 533 184 31 3221 1694 73
split_gain=900.117 159.416 120.394 55.1765 45.471 33.1509 31.7446 25.1706 23.0679 29.954 22.7454 24.322 16.9787 15.8051
threshold=139.50000000000003 257.50000000000006 10.500000000000002 23.500000000000004 88.500000000000014 1.0000000180025095e-35 2.5000000000000004 3.5000000000000004 2.5000000000000004 0.072782078761862809 112.50000000000001 1.0000000180025095e-35 1.0000000180025095e-35 0.14183148796324038
decision_type=2 2 2 2 2 2 2 2 2 2 2 2 2 2
left_child=2 3 -1 5 13 6 -2 -3 -6 -10 -5 -12 -8 -4
right_child=1 7 4 10 8 -7 12 -9 9 -11 11 -13 -14 -15
leaf_value=-0.009551219882768228 -0.0020967032832979586 0.0096353035340947454 -0.0087035113843481511 0.0028388288137814635 -0.0017499372200357871 -0.0040192181137475884 0.0027339761203444956 0.017938861245409065 -0.010020599087973663 -0.0014579593262489918 0.0034941656572339804 0.0085478051201381897 0.0076954844607685681 -0.0031078640932145594
leaf_weight=130 28 26 51 50 177 21 92 21 21 21 38 82 22 20
leaf_count=130 28 26 51 50 177 21 92 21 21 21 38 82 22 20
internal_value=0 0.00505778 -0.0055517 0.00381279 -0.00373059 0.00170431 0.00258253 0.0136254 -0.00257221 -0.00589328 0.0058053 0.00699778 0.00375584 -0.00720732
internal_weight=0 380 420 333 290 163 142 47 219 42 170 120 114 71
internal_count=800 380 420 333 290 163 142 47 219 42 170 120 114 71
is_linear=0
shrinkage=0.005


Tree=20
num_leaves=15
num_cat=0
split_feature=39 39 14 13 39 2722 1495 675 550 199 416 1694 213 227
split_gain=890.764 157.79 119.171 54.5982 44.9957 46.4838 32.8744 31.4676 24.9368 24.0349 23.5261 16.8359 15.5069 13.4937
threshold=139.50000000000003 257.50000000000006 10.500000000000002 23.500000000000004 88.500000000000014 4.5000000000000009 1.0000000180025095e-35 2.5000000000000004 3.5000000000000004 0.11565321919369224 1.5000000000000002 1.0000000180025095e-35 0.11756047948466948 0.1179024417876702
decision_type=2 2 2 2 2 2 2 2 2 2 2 2 2 2
left_child=2 3 -1 6 -4 9 7 -2 -3 -6 12 13 -5 -9
right_child=1 8 4 10 5 -7 -8 11 -10 -11 -12 -13 -14 -15
leaf_value=-0.0095018469987135229 -0.0020885660303156329 0.0095836749603388036 -0.0071693433678519589 0.007275236531367987 -0.00070967289001984456 -0.0087528023383851208 -0.0040040567748829588 0.003725938272345357 0.017848995677921749 -0.0049483191543981675 0.00093252637554664438 0.0076613912198349446 0.0027628999002583662 -0.00080678739275159524
leaf_weight=130 28 26 71 121 150 26 21 72 21 43 23 22 26 20
leaf_count=130 28 26 71 121 150 26 21 72 21 43 23 22 26 20
